<?xml version="1.0"?>
<opencv_storage>
<cascade>
  <stageType>BOOST</stageType>
  <featureType>HAAR</featureType>
  <height>48</height>
  <width>64</width>
  <stageParams>
    <boostType>GAB</boostType>
    <minHitRate>9.9900001287460327e-01</minHitRate>
    <maxFalseAlarm>5.0000000000000000e-01</maxFalseAlarm>
    <weightTrimRate>9.4999999999999996e-01</weightTrimRate>
    <maxDepth>1</maxDepth>
    <maxWeakCount>100</maxWeakCount></stageParams>
  <featureParams>
    <maxCatCount>0</maxCatCount>
    <featSize>1</featSize>
    <mode>ALL</mode></featureParams>
  <stageNum>20</stageNum>
  <stages>
    <!-- stage 0 -->
    <_>
      <maxWeakCount>1</maxWeakCount>
      <stageThreshold>5.5884647369384766e-01</stageThreshold>
      <weakClassifiers>
        <_>
          <internalNodes>
            0 -1 83 2.1156383678317070e-02</internalNodes>
          <leafValues>
            5.5884647369384766e-01 -1.</leafValues></_></weakClassifiers></_>
    <!-- stage 1 -->
    <_>
      <maxWeakCount>5</maxWeakCount>
      <stageThreshold>-1.0701884031295776e+00</stageThreshold>
      <weakClassifiers>
        <_>
          <internalNodes>
            0 -1 7 -3.1929828226566315e-02</internalNodes>
          <leafValues>
            -9.8373985290527344e-01 6.1982131004333496e-01</leafValues></_>
        <_>
          <internalNodes>
            0 -1 82 -2.5400796905159950e-02</internalNodes>
          <leafValues>
            -9.5526915788650513e-01 2.6477035880088806e-01</leafValues></_>
        <_>
          <internalNodes>
            0 -1 54 3.4733295906335115e-03</internalNodes>
          <leafValues>
            -2.4062970280647278e-01 9.3761414289474487e-01</leafValues></_>
        <_>
          <internalNodes>
            0 -1 71 -3.0987319769337773e-04</internalNodes>
          <leafValues>
            6.3569217920303345e-01 -3.5314473509788513e-01</leafValues></_>
        <_>
          <internalNodes>
            0 -1 158 -9.8579861223697662e-03</internalNodes>
          <leafValues>
            -9.6070098876953125e-01 2.4255546927452087e-01</leafValues></_></weakClassifiers></_>
    <!-- stage 2 -->
    <_>
      <maxWeakCount>7</maxWeakCount>
      <stageThreshold>-8.4175628423690796e-01</stageThreshold>
      <weakClassifiers>
        <_>
          <internalNodes>
            0 -1 150 1.5163401141762733e-02</internalNodes>
          <leafValues>
            5.4303598403930664e-01 -9.1304349899291992e-01</leafValues></_>
        <_>
          <internalNodes>
            0 -1 143 -1.4262786135077477e-02</internalNodes>
          <leafValues>
            -9.2630821466445923e-01 2.9791221022605896e-01</leafValues></_>
        <_>
          <internalNodes>
            0 -1 98 -4.8531164793530479e-06</internalNodes>
          <leafValues>
            -6.1441260576248169e-01 3.6178538203239441e-01</leafValues></_>
        <_>
          <internalNodes>
            0 -1 11 3.7667997181415558e-02</internalNodes>
          <leafValues>
            2.1858277916908264e-01 -9.9673080444335938e-01</leafValues></_>
        <_>
          <internalNodes>
            0 -1 19 -2.7489118278026581e-02</internalNodes>
          <leafValues>
            -9.1342222690582275e-01 2.1592783927917480e-01</leafValues></_>
        <_>
          <internalNodes>
            0 -1 153 -2.6387402322143316e-03</internalNodes>
          <leafValues>
            9.4028687477111816e-01 -2.7712592482566833e-01</leafValues></_>
        <_>
          <internalNodes>
            0 -1 60 -2.1597055820166133e-05</internalNodes>
          <leafValues>
            -5.9999763965606689e-01 3.8355499505996704e-01</leafValues></_></weakClassifiers></_>
    <!-- stage 3 -->
    <_>
      <maxWeakCount>6</maxWeakCount>
      <stageThreshold>-8.5192483663558960e-01</stageThreshold>
      <weakClassifiers>
        <_>
          <internalNodes>
            0 -1 80 -1.9800402224063873e-02</internalNodes>
          <leafValues>
            -9.1061455011367798e-01 5.8454108238220215e-01</leafValues></_>
        <_>
          <internalNodes>
            0 -1 6 2.0265648141503334e-02</internalNodes>
          <leafValues>
            3.4060800075531006e-01 -9.4174313545227051e-01</leafValues></_>
        <_>
          <internalNodes>
            0 -1 18 -1.9969969987869263e-02</internalNodes>
          <leafValues>
            -9.3997216224670410e-01 2.1615122258663177e-01</leafValues></_>
        <_>
          <internalNodes>
            0 -1 183 -1.2377161532640457e-02</internalNodes>
          <leafValues>
            -9.1799479722976685e-01 2.3114754259586334e-01</leafValues></_>
        <_>
          <internalNodes>
            0 -1 174 1.3306685723364353e-02</internalNodes>
          <leafValues>
            2.0145824551582336e-01 -9.6333873271942139e-01</leafValues></_>
        <_>
          <internalNodes>
            0 -1 93 -1.3872492127120495e-02</internalNodes>
          <leafValues>
            -8.8758558034896851e-01 2.2544804215431213e-01</leafValues></_></weakClassifiers></_>
    <!-- stage 4 -->
    <_>
      <maxWeakCount>6</maxWeakCount>
      <stageThreshold>-6.9207400083541870e-01</stageThreshold>
      <weakClassifiers>
        <_>
          <internalNodes>
            0 -1 191 -1.4029835350811481e-02</internalNodes>
          <leafValues>
            -9.4146341085433960e-01 4.2508959770202637e-01</leafValues></_>
        <_>
          <internalNodes>
            0 -1 36 8.7245316535700113e-06</internalNodes>
          <leafValues>
            3.3826047182083130e-01 -5.8951473236083984e-01</leafValues></_>
        <_>
          <internalNodes>
            0 -1 97 8.0982053987099789e-06</internalNodes>
          <leafValues>
            3.7313759326934814e-01 -5.8106029033660889e-01</leafValues></_>
        <_>
          <internalNodes>
            0 -1 78 2.5426206775591709e-06</internalNodes>
          <leafValues>
            3.6117181181907654e-01 -5.9722888469696045e-01</leafValues></_>
        <_>
          <internalNodes>
            0 -1 178 -1.2714932672679424e-03</internalNodes>
          <leafValues>
            8.1988358497619629e-01 -2.4677942693233490e-01</leafValues></_>
        <_>
          <internalNodes>
            0 -1 78 -2.9569150683528278e-06</internalNodes>
          <leafValues>
            -6.0707277059555054e-01 3.7779685854911804e-01</leafValues></_></weakClassifiers></_>
    <!-- stage 5 -->
    <_>
      <maxWeakCount>7</maxWeakCount>
      <stageThreshold>-7.8760224580764771e-01</stageThreshold>
      <weakClassifiers>
        <_>
          <internalNodes>
            0 -1 182 1.3760261237621307e-02</internalNodes>
          <leafValues>
            4.6428570151329041e-01 -8.7500000000000000e-01</leafValues></_>
        <_>
          <internalNodes>
            0 -1 102 -4.8923411668511108e-06</internalNodes>
          <leafValues>
            -5.7720702886581421e-01 4.0883392095565796e-01</leafValues></_>
        <_>
          <internalNodes>
            0 -1 213 4.1889147723850328e-06</internalNodes>
          <leafValues>
            3.6527681350708008e-01 -5.5373400449752808e-01</leafValues></_>
        <_>
          <internalNodes>
            0 -1 239 2.0593711269611958e-06</internalNodes>
          <leafValues>
            3.3681985735893250e-01 -6.3390803337097168e-01</leafValues></_>
        <_>
          <internalNodes>
            0 -1 47 -2.7776438855653396e-06</internalNodes>
          <leafValues>
            -5.5208772420883179e-01 3.6212387681007385e-01</leafValues></_>
        <_>
          <internalNodes>
            0 -1 10 8.0331051722168922e-03</internalNodes>
          <leafValues>
            2.3257204890251160e-01 -8.2001352310180664e-01</leafValues></_>
        <_>
          <internalNodes>
            0 -1 88 -5.0965718401130289e-05</internalNodes>
          <leafValues>
            -6.4750087261199951e-01 2.9083967208862305e-01</leafValues></_></weakClassifiers></_>
    <!-- stage 6 -->
    <_>
      <maxWeakCount>10</maxWeakCount>
      <stageThreshold>-1.2460056543350220e+00</stageThreshold>
      <weakClassifiers>
        <_>
          <internalNodes>
            0 -1 43 3.0601043254137039e-02</internalNodes>
          <leafValues>
            4.0281689167022705e-01 -9.5555555820465088e-01</leafValues></_>
        <_>
          <internalNodes>
            0 -1 13 -2.5851048529148102e-02</internalNodes>
          <leafValues>
            -8.3076024055480957e-01 2.2237044572830200e-01</leafValues></_>
        <_>
          <internalNodes>
            0 -1 161 -2.9709329828619957e-03</internalNodes>
          <leafValues>
            7.8478652238845825e-01 -2.6978242397308350e-01</leafValues></_>
        <_>
          <internalNodes>
            0 -1 142 -2.3161603603512049e-03</internalNodes>
          <leafValues>
            8.0160915851593018e-01 -1.6994760930538177e-01</leafValues></_>
        <_>
          <internalNodes>
            0 -1 3 2.7867868542671204e-02</internalNodes>
          <leafValues>
            1.8058007955551147e-01 -8.9912360906600952e-01</leafValues></_>
        <_>
          <internalNodes>
            0 -1 4 -3.1731769442558289e-02</internalNodes>
          <leafValues>
            -9.2954844236373901e-01 1.4997555315494537e-01</leafValues></_>
        <_>
          <internalNodes>
            0 -1 210 -2.7018177788704634e-03</internalNodes>
          <leafValues>
            8.3427774906158447e-01 -2.0283079147338867e-01</leafValues></_>
        <_>
          <internalNodes>
            0 -1 238 -5.8897767215967178e-02</internalNodes>
          <leafValues>
            7.5590229034423828e-01 -1.6000652313232422e-01</leafValues></_>
        <_>
          <internalNodes>
            0 -1 223 -7.3471575975418091e-02</internalNodes>
          <leafValues>
            6.9634813070297241e-01 -2.1609775722026825e-01</leafValues></_>
        <_>
          <internalNodes>
            0 -1 48 4.9060530727729201e-04</internalNodes>
          <leafValues>
            -1.2995284795761108e-01 8.6035251617431641e-01</leafValues></_></weakClassifiers></_>
    <!-- stage 7 -->
    <_>
      <maxWeakCount>14</maxWeakCount>
      <stageThreshold>-8.7063121795654297e-01</stageThreshold>
      <weakClassifiers>
        <_>
          <internalNodes>
            0 -1 196 -3.7374441035353811e-06</internalNodes>
          <leafValues>
            -3.2758620381355286e-01 4.8591548204421997e-01</leafValues></_>
        <_>
          <internalNodes>
            0 -1 228 -3.4554218291305006e-04</internalNodes>
          <leafValues>
            8.8428062200546265e-01 -1.3746668398380280e-01</leafValues></_>
        <_>
          <internalNodes>
            0 -1 214 -2.6081743271788582e-06</internalNodes>
          <leafValues>
            4.3562611937522888e-01 -4.0447333455085754e-01</leafValues></_>
        <_>
          <internalNodes>
            0 -1 37 -3.1772832153365016e-04</internalNodes>
          <leafValues>
            8.4151691198348999e-01 -1.3212855160236359e-01</leafValues></_>
        <_>
          <internalNodes>
            0 -1 105 -1.3647327432408929e-03</internalNodes>
          <leafValues>
            8.8588553667068481e-01 -1.3779541850090027e-01</leafValues></_>
        <_>
          <internalNodes>
            0 -1 212 -8.5666346421930939e-05</internalNodes>
          <leafValues>
            -4.5034468173980713e-01 3.0428025126457214e-01</leafValues></_>
        <_>
          <internalNodes>
            0 -1 190 -1.7550235497765243e-05</internalNodes>
          <leafValues>
            4.2957672476768494e-01 -3.7648162245750427e-01</leafValues></_>
        <_>
          <internalNodes>
            0 -1 157 -4.4815442524850368e-03</internalNodes>
          <leafValues>
            7.3984044790267944e-01 -1.8163083493709564e-01</leafValues></_>
        <_>
          <internalNodes>
            0 -1 208 3.7438258004840463e-06</internalNodes>
          <leafValues>
            2.8040587902069092e-01 -5.2414709329605103e-01</leafValues></_>
        <_>
          <internalNodes>
            0 -1 24 3.5631324863061309e-04</internalNodes>
          <leafValues>
            -1.5074327588081360e-01 7.8610569238662720e-01</leafValues></_>
        <_>
          <internalNodes>
            0 -1 241 -2.0395772298797965e-04</internalNodes>
          <leafValues>
            4.4996112585067749e-01 -2.7535235881805420e-01</leafValues></_>
        <_>
          <internalNodes>
            0 -1 225 -4.4805870857089758e-04</internalNodes>
          <leafValues>
            8.6888498067855835e-01 -1.3259153068065643e-01</leafValues></_>
        <_>
          <internalNodes>
            0 -1 185 1.7395181203028187e-05</internalNodes>
          <leafValues>
            2.3536986112594604e-01 -6.4583200216293335e-01</leafValues></_>
        <_>
          <internalNodes>
            0 -1 204 2.6873368187807500e-04</internalNodes>
          <leafValues>
            -1.7279557883739471e-01 8.2994616031646729e-01</leafValues></_></weakClassifiers></_>
    <!-- stage 8 -->
    <_>
      <maxWeakCount>9</maxWeakCount>
      <stageThreshold>-6.5755826234817505e-01</stageThreshold>
      <weakClassifiers>
        <_>
          <internalNodes>
            0 -1 136 -7.9963820098782890e-06</internalNodes>
          <leafValues>
            7.0091027021408081e-01 -1.6726835072040558e-01</leafValues></_>
        <_>
          <internalNodes>
            0 -1 52 2.1776030771434307e-03</internalNodes>
          <leafValues>
            -1.7342156171798706e-01 8.0676287412643433e-01</leafValues></_>
        <_>
          <internalNodes>
            0 -1 89 1.4724144712090492e-03</internalNodes>
          <leafValues>
            -1.6426694393157959e-01 8.7587785720825195e-01</leafValues></_>
        <_>
          <internalNodes>
            0 -1 129 -1.6978851053863764e-03</internalNodes>
          <leafValues>
            8.7763196229934692e-01 -1.2144407629966736e-01</leafValues></_>
        <_>
          <internalNodes>
            0 -1 107 -3.1044095521792769e-04</internalNodes>
          <leafValues>
            8.7554377317428589e-01 -1.4550486207008362e-01</leafValues></_>
        <_>
          <internalNodes>
            0 -1 134 -5.2611989667639136e-04</internalNodes>
          <leafValues>
            5.0245708227157593e-01 -2.9355511069297791e-01</leafValues></_>
        <_>
          <internalNodes>
            0 -1 218 -1.8004287267103791e-03</internalNodes>
          <leafValues>
            8.1367403268814087e-01 -1.5465019643306732e-01</leafValues></_>
        <_>
          <internalNodes>
            0 -1 59 -1.4495096402242780e-03</internalNodes>
          <leafValues>
            -6.7282694578170776e-01 2.3316290974617004e-01</leafValues></_>
        <_>
          <internalNodes>
            0 -1 207 2.6251928647980094e-04</internalNodes>
          <leafValues>
            -3.0053779482841492e-01 4.3936759233474731e-01</leafValues></_></weakClassifiers></_>
    <!-- stage 9 -->
    <_>
      <maxWeakCount>5</maxWeakCount>
      <stageThreshold>-9.8099328577518463e-02</stageThreshold>
      <weakClassifiers>
        <_>
          <internalNodes>
            0 -1 199 3.3822880141087808e-06</internalNodes>
          <leafValues>
            5.2520620822906494e-01 -3.3988213539123535e-01</leafValues></_>
        <_>
          <internalNodes>
            0 -1 40 7.5864322752750013e-06</internalNodes>
          <leafValues>
            3.2795405387878418e-01 -5.3577136993408203e-01</leafValues></_>
        <_>
          <internalNodes>
            0 -1 72 1.0124335858563427e-05</internalNodes>
          <leafValues>
            3.0754470825195312e-01 -5.4926598072052002e-01</leafValues></_>
        <_>
          <internalNodes>
            0 -1 40 -2.0447936549317092e-05</internalNodes>
          <leafValues>
            -4.9037563800811768e-01 3.3566996455192566e-01</leafValues></_>
        <_>
          <internalNodes>
            0 -1 72 -4.7439963964279741e-05</internalNodes>
          <leafValues>
            -7.2938591241836548e-01 1.8564061820507050e-01</leafValues></_></weakClassifiers></_>
    <!-- stage 10 -->
    <_>
      <maxWeakCount>12</maxWeakCount>
      <stageThreshold>-8.4622126817703247e-01</stageThreshold>
      <weakClassifiers>
        <_>
          <internalNodes>
            0 -1 203 2.7372461772756651e-06</internalNodes>
          <leafValues>
            4.9516269564628601e-01 -3.5205182433128357e-01</leafValues></_>
        <_>
          <internalNodes>
            0 -1 152 3.0064028687775135e-03</internalNodes>
          <leafValues>
            -1.2273430079221725e-01 8.8364636898040771e-01</leafValues></_>
        <_>
          <internalNodes>
            0 -1 121 -3.4043926279991865e-03</internalNodes>
          <leafValues>
            9.3382591009140015e-01 -1.6199420392513275e-01</leafValues></_>
        <_>
          <internalNodes>
            0 -1 41 8.9704481069929898e-06</internalNodes>
          <leafValues>
            2.7406793832778931e-01 -4.7830978035926819e-01</leafValues></_>
        <_>
          <internalNodes>
            0 -1 200 -4.2040366679430008e-02</internalNodes>
          <leafValues>
            4.7711527347564697e-01 -2.9328918457031250e-01</leafValues></_>
        <_>
          <internalNodes>
            0 -1 146 3.3215358853340149e-02</internalNodes>
          <leafValues>
            -1.8531021475791931e-01 5.9072637557983398e-01</leafValues></_>
        <_>
          <internalNodes>
            0 -1 160 2.3394371382892132e-03</internalNodes>
          <leafValues>
            -2.0344652235507965e-01 8.7839478254318237e-01</leafValues></_>
        <_>
          <internalNodes>
            0 -1 236 -2.6825852692127228e-02</internalNodes>
          <leafValues>
            -8.5039490461349487e-01 1.9293701648712158e-01</leafValues></_>
        <_>
          <internalNodes>
            0 -1 114 -3.3599524758756161e-03</internalNodes>
          <leafValues>
            8.5725277662277222e-01 -1.5668822824954987e-01</leafValues></_>
        <_>
          <internalNodes>
            0 -1 14 1.2005969882011414e-02</internalNodes>
          <leafValues>
            1.6209515929222107e-01 -9.6569418907165527e-01</leafValues></_>
        <_>
          <internalNodes>
            0 -1 164 1.6768006607890129e-03</internalNodes>
          <leafValues>
            -1.7701926827430725e-01 8.7294799089431763e-01</leafValues></_>
        <_>
          <internalNodes>
            0 -1 123 -3.6116585135459900e-02</internalNodes>
          <leafValues>
            -9.1566032171249390e-01 1.5918564796447754e-01</leafValues></_></weakClassifiers></_>
    <!-- stage 11 -->
    <_>
      <maxWeakCount>15</maxWeakCount>
      <stageThreshold>-9.2855608463287354e-01</stageThreshold>
      <weakClassifiers>
        <_>
          <internalNodes>
            0 -1 216 2.0557092739181826e-06</internalNodes>
          <leafValues>
            4.9128919839859009e-01 -3.6283186078071594e-01</leafValues></_>
        <_>
          <internalNodes>
            0 -1 58 -6.4780592765600886e-06</internalNodes>
          <leafValues>
            -4.7246551513671875e-01 2.7996662259101868e-01</leafValues></_>
        <_>
          <internalNodes>
            0 -1 30 -7.6658188845613040e-06</internalNodes>
          <leafValues>
            -4.1887885332107544e-01 2.7321100234985352e-01</leafValues></_>
        <_>
          <internalNodes>
            0 -1 70 2.5344835594296455e-03</internalNodes>
          <leafValues>
            -1.2290784716606140e-01 8.3613371849060059e-01</leafValues></_>
        <_>
          <internalNodes>
            0 -1 124 2.7939074207097292e-03</internalNodes>
          <leafValues>
            -1.2074526399374008e-01 8.3651548624038696e-01</leafValues></_>
        <_>
          <internalNodes>
            0 -1 176 -6.2162493122741580e-05</internalNodes>
          <leafValues>
            -4.6755847334861755e-01 2.4281969666481018e-01</leafValues></_>
        <_>
          <internalNodes>
            0 -1 8 -1.1601809412240982e-02</internalNodes>
          <leafValues>
            -9.2950379848480225e-01 1.3719825446605682e-01</leafValues></_>
        <_>
          <internalNodes>
            0 -1 243 -9.9960039369761944e-04</internalNodes>
          <leafValues>
            7.8550326824188232e-01 -1.4947631955146790e-01</leafValues></_>
        <_>
          <internalNodes>
            0 -1 167 -2.4599698372185230e-04</internalNodes>
          <leafValues>
            4.2074704170227051e-01 -2.8022354841232300e-01</leafValues></_>
        <_>
          <internalNodes>
            0 -1 23 7.1995277721725870e-06</internalNodes>
          <leafValues>
            2.2992572188377380e-01 -4.8898392915725708e-01</leafValues></_>
        <_>
          <internalNodes>
            0 -1 217 -1.1810676660388708e-03</internalNodes>
          <leafValues>
            6.6663932800292969e-01 -1.6004265844821930e-01</leafValues></_>
        <_>
          <internalNodes>
            0 -1 224 -1.1198057793080807e-02</internalNodes>
          <leafValues>
            -8.5494041442871094e-01 1.4491306245326996e-01</leafValues></_>
        <_>
          <internalNodes>
            0 -1 79 -8.0179161159321666e-05</internalNodes>
          <leafValues>
            2.9143875837326050e-01 -3.4502473473548889e-01</leafValues></_>
        <_>
          <internalNodes>
            0 -1 53 -7.5776979429065250e-06</internalNodes>
          <leafValues>
            -4.9170154333114624e-01 2.4126376211643219e-01</leafValues></_>
        <_>
          <internalNodes>
            0 -1 110 3.1455040443688631e-03</internalNodes>
          <leafValues>
            -1.2119046598672867e-01 9.1265016794204712e-01</leafValues></_></weakClassifiers></_>
    <!-- stage 12 -->
    <_>
      <maxWeakCount>19</maxWeakCount>
      <stageThreshold>-1.0232236385345459e+00</stageThreshold>
      <weakClassifiers>
        <_>
          <internalNodes>
            0 -1 1 1.3091562315821648e-02</internalNodes>
          <leafValues>
            3.4237289428710938e-01 -8.3999997377395630e-01</leafValues></_>
        <_>
          <internalNodes>
            0 -1 77 4.1916165500879288e-03</internalNodes>
          <leafValues>
            -1.0483381152153015e-01 9.2407870292663574e-01</leafValues></_>
        <_>
          <internalNodes>
            0 -1 91 -6.8831838667392731e-02</internalNodes>
          <leafValues>
            3.6849737167358398e-01 -3.9202928543090820e-01</leafValues></_>
        <_>
          <internalNodes>
            0 -1 62 -2.9447339475154877e-03</internalNodes>
          <leafValues>
            8.2905197143554688e-01 -5.9007011353969574e-02</leafValues></_>
        <_>
          <internalNodes>
            0 -1 39 3.2119618263095617e-03</internalNodes>
          <leafValues>
            -1.0220149159431458e-01 9.0213733911514282e-01</leafValues></_>
        <_>
          <internalNodes>
            0 -1 117 2.0024264231324196e-03</internalNodes>
          <leafValues>
            -1.1942603439092636e-01 8.3464205265045166e-01</leafValues></_>
        <_>
          <internalNodes>
            0 -1 234 -3.6856799852102995e-04</internalNodes>
          <leafValues>
            4.8122221231460571e-01 -2.1228373050689697e-01</leafValues></_>
        <_>
          <internalNodes>
            0 -1 163 9.1518908739089966e-03</internalNodes>
          <leafValues>
            1.2830719351768494e-01 -8.7343311309814453e-01</leafValues></_>
        <_>
          <internalNodes>
            0 -1 177 -1.9865702779497951e-04</internalNodes>
          <leafValues>
            5.7430320978164673e-01 -1.6100034117698669e-01</leafValues></_>
        <_>
          <internalNodes>
            0 -1 198 -3.2716052373871207e-06</internalNodes>
          <leafValues>
            -3.9579302072525024e-01 2.3658786714076996e-01</leafValues></_>
        <_>
          <internalNodes>
            0 -1 22 2.1090060472488403e-03</internalNodes>
          <leafValues>
            -1.4640565216541290e-01 7.7348667383193970e-01</leafValues></_>
        <_>
          <internalNodes>
            0 -1 180 -2.0782526116818190e-03</internalNodes>
          <leafValues>
            7.4632221460342407e-01 -1.1146380752325058e-01</leafValues></_>
        <_>
          <internalNodes>
            0 -1 188 9.7104050219058990e-03</internalNodes>
          <leafValues>
            1.2832750380039215e-01 -8.4243553876876831e-01</leafValues></_>
        <_>
          <internalNodes>
            0 -1 151 -6.0482026310637593e-04</internalNodes>
          <leafValues>
            4.3611809611320496e-01 -2.1818640828132629e-01</leafValues></_>
        <_>
          <internalNodes>
            0 -1 49 -9.6912262961268425e-04</internalNodes>
          <leafValues>
            7.4963504076004028e-01 -1.2490911036729813e-01</leafValues></_>
        <_>
          <internalNodes>
            0 -1 9 2.9075600206851959e-02</internalNodes>
          <leafValues>
            1.3757240772247314e-01 -9.4341033697128296e-01</leafValues></_>
        <_>
          <internalNodes>
            0 -1 221 -1.1194292455911636e-02</internalNodes>
          <leafValues>
            -9.4675666093826294e-01 7.8712008893489838e-02</leafValues></_>
        <_>
          <internalNodes>
            0 -1 195 -8.8809713721275330e-02</internalNodes>
          <leafValues>
            -9.4183218479156494e-01 6.7213542759418488e-02</leafValues></_>
        <_>
          <internalNodes>
            0 -1 242 -1.6218630596995354e-02</internalNodes>
          <leafValues>
            4.1984459757804871e-01 -2.2427077591419220e-01</leafValues></_></weakClassifiers></_>
    <!-- stage 13 -->
    <_>
      <maxWeakCount>19</maxWeakCount>
      <stageThreshold>-8.7481641769409180e-01</stageThreshold>
      <weakClassifiers>
        <_>
          <internalNodes>
            0 -1 187 -1.0576635599136353e-02</internalNodes>
          <leafValues>
            -8.1967210769653320e-01 3.3829498291015625e-01</leafValues></_>
        <_>
          <internalNodes>
            0 -1 61 -2.6758820749819279e-03</internalNodes>
          <leafValues>
            8.9119988679885864e-01 -1.1536443978548050e-01</leafValues></_>
        <_>
          <internalNodes>
            0 -1 171 2.2680326364934444e-03</internalNodes>
          <leafValues>
            -1.3579499721527100e-01 7.9484540224075317e-01</leafValues></_>
        <_>
          <internalNodes>
            0 -1 130 1.7598366830497980e-03</internalNodes>
          <leafValues>
            -1.6096806526184082e-01 6.6571813821792603e-01</leafValues></_>
        <_>
          <internalNodes>
            0 -1 147 -5.2333407802507281e-04</internalNodes>
          <leafValues>
            4.4697609543800354e-01 -2.1061342954635620e-01</leafValues></_>
        <_>
          <internalNodes>
            0 -1 87 -1.2845683842897415e-02</internalNodes>
          <leafValues>
            -8.3203822374343872e-01 1.1185248941183090e-01</leafValues></_>
        <_>
          <internalNodes>
            0 -1 95 4.6314774081110954e-03</internalNodes>
          <leafValues>
            -1.5140637755393982e-01 8.7870728969573975e-01</leafValues></_>
        <_>
          <internalNodes>
            0 -1 34 -2.7318056672811508e-02</internalNodes>
          <leafValues>
            -7.2177416086196899e-01 1.6781972348690033e-01</leafValues></_>
        <_>
          <internalNodes>
            0 -1 38 -6.3080042600631714e-03</internalNodes>
          <leafValues>
            8.1337064504623413e-01 -1.7400230467319489e-01</leafValues></_>
        <_>
          <internalNodes>
            0 -1 140 -4.1013644076883793e-03</internalNodes>
          <leafValues>
            8.9378130435943604e-01 -7.6723940670490265e-02</leafValues></_>
        <_>
          <internalNodes>
            0 -1 235 -1.0686281711969059e-05</internalNodes>
          <leafValues>
            3.3534726500511169e-01 -3.0647435784339905e-01</leafValues></_>
        <_>
          <internalNodes>
            0 -1 165 -2.4901486467570066e-03</internalNodes>
          <leafValues>
            7.7780055999755859e-01 -1.1681540310382843e-01</leafValues></_>
        <_>
          <internalNodes>
            0 -1 99 9.1703757643699646e-03</internalNodes>
          <leafValues>
            1.5033224225044250e-01 -7.9453033208847046e-01</leafValues></_>
        <_>
          <internalNodes>
            0 -1 173 1.0061934590339661e-02</internalNodes>
          <leafValues>
            9.0743631124496460e-02 -7.9272139072418213e-01</leafValues></_>
        <_>
          <internalNodes>
            0 -1 233 -9.2344847507774830e-04</internalNodes>
          <leafValues>
            7.4822610616683960e-01 -1.3201260566711426e-01</leafValues></_>
        <_>
          <internalNodes>
            0 -1 162 -1.4792926376685500e-03</internalNodes>
          <leafValues>
            4.6686306595802307e-01 -1.7353305220603943e-01</leafValues></_>
        <_>
          <internalNodes>
            0 -1 17 1.3304465450346470e-02</internalNodes>
          <leafValues>
            1.0692460834980011e-01 -8.9133930206298828e-01</leafValues></_>
        <_>
          <internalNodes>
            0 -1 132 -3.2615152304060757e-04</internalNodes>
          <leafValues>
            2.9830288887023926e-01 -2.9342183470726013e-01</leafValues></_>
        <_>
          <internalNodes>
            0 -1 181 -1.1862851679325104e-03</internalNodes>
          <leafValues>
            5.7362377643585205e-01 -1.4113737642765045e-01</leafValues></_></weakClassifiers></_>
    <!-- stage 14 -->
    <_>
      <maxWeakCount>19</maxWeakCount>
      <stageThreshold>-8.7720239162445068e-01</stageThreshold>
      <weakClassifiers>
        <_>
          <internalNodes>
            0 -1 118 -2.8348072191874962e-06</internalNodes>
          <leafValues>
            -3.0210772156715393e-01 4.5098039507865906e-01</leafValues></_>
        <_>
          <internalNodes>
            0 -1 85 7.6589582022279501e-05</internalNodes>
          <leafValues>
            2.4368044734001160e-01 -4.6293503046035767e-01</leafValues></_>
        <_>
          <internalNodes>
            0 -1 12 9.9066310212947428e-06</internalNodes>
          <leafValues>
            2.7979218959808350e-01 -4.1027998924255371e-01</leafValues></_>
        <_>
          <internalNodes>
            0 -1 29 -4.5671151019632816e-03</internalNodes>
          <leafValues>
            8.2453906536102295e-01 -1.6863349080085754e-01</leafValues></_>
        <_>
          <internalNodes>
            0 -1 74 -6.3411193877982441e-06</internalNodes>
          <leafValues>
            -5.4449629783630371e-01 1.5489055216312408e-01</leafValues></_>
        <_>
          <internalNodes>
            0 -1 100 -3.9973706007003784e-02</internalNodes>
          <leafValues>
            -6.2126815319061279e-01 2.0119340717792511e-01</leafValues></_>
        <_>
          <internalNodes>
            0 -1 250 -1.5560442116111517e-03</internalNodes>
          <leafValues>
            7.7175599336624146e-01 -1.5868614614009857e-01</leafValues></_>
        <_>
          <internalNodes>
            0 -1 5 -1.9182538613677025e-02</internalNodes>
          <leafValues>
            -9.1255992650985718e-01 1.0582385212182999e-01</leafValues></_>
        <_>
          <internalNodes>
            0 -1 189 1.1166546028107405e-03</internalNodes>
          <leafValues>
            -1.4744667708873749e-01 8.0076456069946289e-01</leafValues></_>
        <_>
          <internalNodes>
            0 -1 149 -1.7635797848924994e-04</internalNodes>
          <leafValues>
            3.8294145464897156e-01 -2.2890928387641907e-01</leafValues></_>
        <_>
          <internalNodes>
            0 -1 75 6.2690000049769878e-03</internalNodes>
          <leafValues>
            1.2741617858409882e-01 -7.0390254259109497e-01</leafValues></_>
        <_>
          <internalNodes>
            0 -1 28 3.1758339609950781e-03</internalNodes>
          <leafValues>
            -1.1875554174184799e-01 8.1202727556228638e-01</leafValues></_>
        <_>
          <internalNodes>
            0 -1 57 -2.0416118204593658e-03</internalNodes>
          <leafValues>
            7.3055231571197510e-01 -1.1345799267292023e-01</leafValues></_>
        <_>
          <internalNodes>
            0 -1 2 1.1074271053075790e-02</internalNodes>
          <leafValues>
            1.3748580217361450e-01 -8.0079692602157593e-01</leafValues></_>
        <_>
          <internalNodes>
            0 -1 106 2.8661206670221873e-06</internalNodes>
          <leafValues>
            2.1912612020969391e-01 -3.7150648236274719e-01</leafValues></_>
        <_>
          <internalNodes>
            0 -1 205 4.5724859774054494e-06</internalNodes>
          <leafValues>
            2.0585370063781738e-01 -4.4855925440788269e-01</leafValues></_>
        <_>
          <internalNodes>
            0 -1 45 3.3959178836084902e-05</internalNodes>
          <leafValues>
            -2.5471651554107666e-01 3.9086350798606873e-01</leafValues></_>
        <_>
          <internalNodes>
            0 -1 44 -1.7832569483289262e-06</internalNodes>
          <leafValues>
            3.4599447250366211e-01 -2.6365241408348083e-01</leafValues></_>
        <_>
          <internalNodes>
            0 -1 68 5.2639069035649300e-03</internalNodes>
          <leafValues>
            1.0678795725107193e-01 -8.2016372680664062e-01</leafValues></_></weakClassifiers></_>
    <!-- stage 15 -->
    <_>
      <maxWeakCount>17</maxWeakCount>
      <stageThreshold>-9.1304951906204224e-01</stageThreshold>
      <weakClassifiers>
        <_>
          <internalNodes>
            0 -1 101 1.8832561327144504e-03</internalNodes>
          <leafValues>
            1.0510046035051346e-01 8.6274510622024536e-01</leafValues></_>
        <_>
          <internalNodes>
            0 -1 172 3.1009111553430557e-03</internalNodes>
          <leafValues>
            -8.4231458604335785e-02 8.2079213857650757e-01</leafValues></_>
        <_>
          <internalNodes>
            0 -1 104 -3.2864976674318314e-03</internalNodes>
          <leafValues>
            7.7685093879699707e-01 -1.1283392459154129e-01</leafValues></_>
        <_>
          <internalNodes>
            0 -1 56 -2.2536937147378922e-02</internalNodes>
          <leafValues>
            -8.5993283987045288e-01 1.1578157544136047e-01</leafValues></_>
        <_>
          <internalNodes>
            0 -1 154 -6.9023005198687315e-04</internalNodes>
          <leafValues>
            6.8207103013992310e-01 -1.3326671719551086e-01</leafValues></_>
        <_>
          <internalNodes>
            0 -1 63 3.4238562420796370e-06</internalNodes>
          <leafValues>
            2.0455287396907806e-01 -5.2356988191604614e-01</leafValues></_>
        <_>
          <internalNodes>
            0 -1 240 -3.3412788063287735e-02</internalNodes>
          <leafValues>
            -9.2401111125946045e-01 8.9235253632068634e-02</leafValues></_>
        <_>
          <internalNodes>
            0 -1 122 -7.2263209149241447e-03</internalNodes>
          <leafValues>
            3.3686336874961853e-01 -2.6420649886131287e-01</leafValues></_>
        <_>
          <internalNodes>
            0 -1 135 1.5134948771446943e-03</internalNodes>
          <leafValues>
            -1.3094267249107361e-01 7.4484103918075562e-01</leafValues></_>
        <_>
          <internalNodes>
            0 -1 125 7.2663719765841961e-03</internalNodes>
          <leafValues>
            1.4886158704757690e-01 -6.5501803159713745e-01</leafValues></_>
        <_>
          <internalNodes>
            0 -1 138 -3.5351888527657138e-06</internalNodes>
          <leafValues>
            -4.6969547867774963e-01 1.7765919864177704e-01</leafValues></_>
        <_>
          <internalNodes>
            0 -1 16 2.3473086766898632e-03</internalNodes>
          <leafValues>
            -1.2108702212572098e-01 6.8625414371490479e-01</leafValues></_>
        <_>
          <internalNodes>
            0 -1 166 -1.9755847752094269e-02</internalNodes>
          <leafValues>
            -9.0547668933868408e-01 1.0050325840711594e-01</leafValues></_>
        <_>
          <internalNodes>
            0 -1 50 1.5753426851006225e-05</internalNodes>
          <leafValues>
            1.5957419574260712e-01 -4.5874160528182983e-01</leafValues></_>
        <_>
          <internalNodes>
            0 -1 94 -4.1681127622723579e-03</internalNodes>
          <leafValues>
            8.8419497013092041e-01 -9.2080593109130859e-02</leafValues></_>
        <_>
          <internalNodes>
            0 -1 222 -5.2700415253639221e-02</internalNodes>
          <leafValues>
            4.7931683063507080e-01 -1.6690449416637421e-01</leafValues></_>
        <_>
          <internalNodes>
            0 -1 202 -1.3117784401401877e-03</internalNodes>
          <leafValues>
            4.6671292185783386e-01 -1.9772341847419739e-01</leafValues></_></weakClassifiers></_>
    <!-- stage 16 -->
    <_>
      <maxWeakCount>21</maxWeakCount>
      <stageThreshold>-1.1266620159149170e+00</stageThreshold>
      <weakClassifiers>
        <_>
          <internalNodes>
            0 -1 137 -1.8940701238534530e-06</internalNodes>
          <leafValues>
            -2.5700935721397400e-01 4.3515357375144958e-01</leafValues></_>
        <_>
          <internalNodes>
            0 -1 237 -3.7726315204054117e-03</internalNodes>
          <leafValues>
            7.6705431938171387e-01 -1.1003361642360687e-01</leafValues></_>
        <_>
          <internalNodes>
            0 -1 126 -4.5284722000360489e-03</internalNodes>
          <leafValues>
            7.9955720901489258e-01 -1.5976299345493317e-01</leafValues></_>
        <_>
          <internalNodes>
            0 -1 119 2.0671031961683184e-05</internalNodes>
          <leafValues>
            2.6719272136688232e-01 -3.9403408765792847e-01</leafValues></_>
        <_>
          <internalNodes>
            0 -1 219 2.1361969411373138e-02</internalNodes>
          <leafValues>
            -2.2310543060302734e-01 4.5437678694725037e-01</leafValues></_>
        <_>
          <internalNodes>
            0 -1 25 -2.4668392725288868e-03</internalNodes>
          <leafValues>
            7.6251703500747681e-01 -1.7112463712692261e-01</leafValues></_>
        <_>
          <internalNodes>
            0 -1 245 -2.2014165297150612e-03</internalNodes>
          <leafValues>
            8.0619430541992188e-01 -3.5773966461420059e-02</leafValues></_>
        <_>
          <internalNodes>
            0 -1 247 2.7479403652250767e-03</internalNodes>
          <leafValues>
            -1.2435986101627350e-01 8.4349167346954346e-01</leafValues></_>
        <_>
          <internalNodes>
            0 -1 20 -3.7444458484969800e-06</internalNodes>
          <leafValues>
            -3.4700125455856323e-01 2.3877596855163574e-01</leafValues></_>
        <_>
          <internalNodes>
            0 -1 248 -4.8226420767605305e-04</internalNodes>
          <leafValues>
            6.3836640119552612e-01 -1.4553374052047729e-01</leafValues></_>
        <_>
          <internalNodes>
            0 -1 31 -1.8868031911551952e-03</internalNodes>
          <leafValues>
            7.4270427227020264e-01 -1.2092769145965576e-01</leafValues></_>
        <_>
          <internalNodes>
            0 -1 92 -1.4005129924044013e-04</internalNodes>
          <leafValues>
            2.9293808341026306e-01 -2.9162192344665527e-01</leafValues></_>
        <_>
          <internalNodes>
            0 -1 33 8.0572115257382393e-04</internalNodes>
          <leafValues>
            -1.0902372747659683e-01 7.0663213729858398e-01</leafValues></_>
        <_>
          <internalNodes>
            0 -1 197 5.2324198186397552e-03</internalNodes>
          <leafValues>
            1.1946764588356018e-01 -8.9256364107131958e-01</leafValues></_>
        <_>
          <internalNodes>
            0 -1 231 -1.5057567507028580e-03</internalNodes>
          <leafValues>
            7.4882453680038452e-01 -1.5885336697101593e-01</leafValues></_>
        <_>
          <internalNodes>
            0 -1 127 3.0158800072968006e-03</internalNodes>
          <leafValues>
            1.4743526279926300e-01 -7.9945039749145508e-01</leafValues></_>
        <_>
          <internalNodes>
            0 -1 184 -5.5130175314843655e-04</internalNodes>
          <leafValues>
            3.4257155656814575e-01 -2.4306884407997131e-01</leafValues></_>
        <_>
          <internalNodes>
            0 -1 229 -1.8508968059904873e-04</internalNodes>
          <leafValues>
            4.2742615938186646e-01 -2.1340806782245636e-01</leafValues></_>
        <_>
          <internalNodes>
            0 -1 156 -7.2664357721805573e-03</internalNodes>
          <leafValues>
            5.5654293298721313e-01 -1.4064392447471619e-01</leafValues></_>
        <_>
          <internalNodes>
            0 -1 169 2.4046720936894417e-03</internalNodes>
          <leafValues>
            -2.1256028115749359e-01 4.4947552680969238e-01</leafValues></_>
        <_>
          <internalNodes>
            0 -1 133 1.7777906730771065e-02</internalNodes>
          <leafValues>
            1.1007671058177948e-01 -8.7040364742279053e-01</leafValues></_></weakClassifiers></_>
    <!-- stage 17 -->
    <_>
      <maxWeakCount>19</maxWeakCount>
      <stageThreshold>-9.8608267307281494e-01</stageThreshold>
      <weakClassifiers>
        <_>
          <internalNodes>
            0 -1 145 -5.2800856530666351e-02</internalNodes>
          <leafValues>
            -7.9661017656326294e-01 3.3333334326744080e-01</leafValues></_>
        <_>
          <internalNodes>
            0 -1 113 3.5417675971984863e-03</internalNodes>
          <leafValues>
            -8.1448882818222046e-02 8.2688248157501221e-01</leafValues></_>
        <_>
          <internalNodes>
            0 -1 27 7.0911686634644866e-04</internalNodes>
          <leafValues>
            -2.3566514253616333e-01 5.5693519115447998e-01</leafValues></_>
        <_>
          <internalNodes>
            0 -1 112 -5.7138935662806034e-03</internalNodes>
          <leafValues>
            -7.8508764505386353e-01 1.9867867231369019e-01</leafValues></_>
        <_>
          <internalNodes>
            0 -1 103 3.4789806231856346e-03</internalNodes>
          <leafValues>
            -1.5547311305999756e-01 7.4139201641082764e-01</leafValues></_>
        <_>
          <internalNodes>
            0 -1 209 1.7889672890305519e-03</internalNodes>
          <leafValues>
            -9.3436233699321747e-02 7.9592049121856689e-01</leafValues></_>
        <_>
          <internalNodes>
            0 -1 206 1.7062671986423084e-06</internalNodes>
          <leafValues>
            2.3014947772026062e-01 -3.7988787889480591e-01</leafValues></_>
        <_>
          <internalNodes>
            0 -1 155 -1.2061850167810917e-02</internalNodes>
          <leafValues>
            -7.3597866296768188e-01 1.5805357694625854e-01</leafValues></_>
        <_>
          <internalNodes>
            0 -1 226 -2.0094350911676884e-03</internalNodes>
          <leafValues>
            9.1223567724227905e-01 -1.4391888678073883e-01</leafValues></_>
        <_>
          <internalNodes>
            0 -1 194 -1.6425523906946182e-02</internalNodes>
          <leafValues>
            -9.6456182003021240e-01 1.3669900596141815e-01</leafValues></_>
        <_>
          <internalNodes>
            0 -1 186 -3.5391753772273660e-04</internalNodes>
          <leafValues>
            3.3256694674491882e-01 -2.8032714128494263e-01</leafValues></_>
        <_>
          <internalNodes>
            0 -1 220 -4.2286524148948956e-06</internalNodes>
          <leafValues>
            3.8356530666351318e-01 -2.5556710362434387e-01</leafValues></_>
        <_>
          <internalNodes>
            0 -1 111 2.6346151717007160e-03</internalNodes>
          <leafValues>
            -9.5194868743419647e-02 6.5985107421875000e-01</leafValues></_>
        <_>
          <internalNodes>
            0 -1 131 -1.1308496817946434e-02</internalNodes>
          <leafValues>
            -9.1121029853820801e-01 9.8176106810569763e-02</leafValues></_>
        <_>
          <internalNodes>
            0 -1 175 -1.4155430835671723e-04</internalNodes>
          <leafValues>
            3.1685546040534973e-01 -2.5085887312889099e-01</leafValues></_>
        <_>
          <internalNodes>
            0 -1 65 -1.0495133697986603e-02</internalNodes>
          <leafValues>
            -8.9197868108749390e-01 9.3247063457965851e-02</leafValues></_>
        <_>
          <internalNodes>
            0 -1 246 -2.9193474911153316e-03</internalNodes>
          <leafValues>
            8.5019361972808838e-01 -1.1710612475872040e-01</leafValues></_>
        <_>
          <internalNodes>
            0 -1 66 -1.3749221106991172e-03</internalNodes>
          <leafValues>
            3.5608598589897156e-01 -2.2090935707092285e-01</leafValues></_>
        <_>
          <internalNodes>
            0 -1 64 -6.9940257817506790e-03</internalNodes>
          <leafValues>
            -8.4659367799758911e-01 1.1153779923915863e-01</leafValues></_></weakClassifiers></_>
    <!-- stage 18 -->
    <_>
      <maxWeakCount>24</maxWeakCount>
      <stageThreshold>-9.7760140895843506e-01</stageThreshold>
      <weakClassifiers>
        <_>
          <internalNodes>
            0 -1 55 3.1922466587275267e-03</internalNodes>
          <leafValues>
            1.1814671754837036e-01 8.0983608961105347e-01</leafValues></_>
        <_>
          <internalNodes>
            0 -1 144 3.5381456837058067e-03</internalNodes>
          <leafValues>
            -9.7598478198051453e-02 8.2533442974090576e-01</leafValues></_>
        <_>
          <internalNodes>
            0 -1 139 -2.3988338944036514e-04</internalNodes>
          <leafValues>
            3.3724990487098694e-01 -2.2682598233222961e-01</leafValues></_>
        <_>
          <internalNodes>
            0 -1 15 3.2070181332528591e-03</internalNodes>
          <leafValues>
            -1.4328080415725708e-01 7.1531671285629272e-01</leafValues></_>
        <_>
          <internalNodes>
            0 -1 115 2.5961860083043575e-03</internalNodes>
          <leafValues>
            -7.9022444784641266e-02 7.5997507572174072e-01</leafValues></_>
        <_>
          <internalNodes>
            0 -1 192 2.1781165152788162e-02</internalNodes>
          <leafValues>
            -1.9950810074806213e-01 3.8254466652870178e-01</leafValues></_>
        <_>
          <internalNodes>
            0 -1 90 -1.6882778436411172e-04</internalNodes>
          <leafValues>
            2.8208342194557190e-01 -2.7910533547401428e-01</leafValues></_>
        <_>
          <internalNodes>
            0 -1 244 1.7605499597266316e-03</internalNodes>
          <leafValues>
            -1.1245938390493393e-01 6.8160951137542725e-01</leafValues></_>
        <_>
          <internalNodes>
            0 -1 201 -5.2873592358082533e-04</internalNodes>
          <leafValues>
            -6.0907369852066040e-01 1.5226480364799500e-01</leafValues></_>
        <_>
          <internalNodes>
            0 -1 76 -3.0287448316812515e-04</internalNodes>
          <leafValues>
            2.4245016276836395e-01 -3.3649072051048279e-01</leafValues></_>
        <_>
          <internalNodes>
            0 -1 81 5.0732482224702835e-02</internalNodes>
          <leafValues>
            -1.9216774404048920e-01 4.4331017136573792e-01</leafValues></_>
        <_>
          <internalNodes>
            0 -1 51 2.3960021735547343e-06</internalNodes>
          <leafValues>
            2.1601817011833191e-01 -3.9838746190071106e-01</leafValues></_>
        <_>
          <internalNodes>
            0 -1 21 1.3038992183282971e-03</internalNodes>
          <leafValues>
            -1.3465511798858643e-01 6.3471263647079468e-01</leafValues></_>
        <_>
          <internalNodes>
            0 -1 232 5.1266242735437118e-06</internalNodes>
          <leafValues>
            2.0532536506652832e-01 -3.9898502826690674e-01</leafValues></_>
        <_>
          <internalNodes>
            0 -1 148 -3.0501121655106544e-03</internalNodes>
          <leafValues>
            7.4797219038009644e-01 -9.0513952076435089e-02</leafValues></_>
        <_>
          <internalNodes>
            0 -1 227 -1.6497020851602429e-06</internalNodes>
          <leafValues>
            3.3676695823669434e-01 -2.1371896564960480e-01</leafValues></_>
        <_>
          <internalNodes>
            0 -1 230 1.7174519371110364e-06</internalNodes>
          <leafValues>
            -2.7959418296813965e-01 3.1124722957611084e-01</leafValues></_>
        <_>
          <internalNodes>
            0 -1 168 1.3531004078686237e-02</internalNodes>
          <leafValues>
            9.9789917469024658e-02 -8.3050584793090820e-01</leafValues></_>
        <_>
          <internalNodes>
            0 -1 73 5.5687753483653069e-03</internalNodes>
          <leafValues>
            -1.6742271184921265e-01 4.9028542637825012e-01</leafValues></_>
        <_>
          <internalNodes>
            0 -1 69 -3.5944241099059582e-03</internalNodes>
          <leafValues>
            3.8694953918457031e-01 -2.0567856729030609e-01</leafValues></_>
        <_>
          <internalNodes>
            0 -1 42 -1.2319924309849739e-02</internalNodes>
          <leafValues>
            -9.8236006498336792e-01 9.9302589893341064e-02</leafValues></_>
        <_>
          <internalNodes>
            0 -1 26 -2.4715997278690338e-03</internalNodes>
          <leafValues>
            7.8787606954574585e-01 -1.3242992758750916e-01</leafValues></_>
        <_>
          <internalNodes>
            0 -1 159 -1.1215683072805405e-02</internalNodes>
          <leafValues>
            -8.3689278364181519e-01 1.2024493515491486e-01</leafValues></_>
        <_>
          <internalNodes>
            0 -1 170 -5.3161056712269783e-04</internalNodes>
          <leafValues>
            3.7334197759628296e-01 -2.0896588265895844e-01</leafValues></_></weakClassifiers></_>
    <!-- stage 19 -->
    <_>
      <maxWeakCount>19</maxWeakCount>
      <stageThreshold>-9.2349106073379517e-01</stageThreshold>
      <weakClassifiers>
        <_>
          <internalNodes>
            0 -1 32 1.2060456356266513e-05</internalNodes>
          <leafValues>
            4.2857143282890320e-01 -2.5659471750259399e-01</leafValues></_>
        <_>
          <internalNodes>
            0 -1 84 1.2711320305243134e-03</internalNodes>
          <leafValues>
            -1.2488547712564468e-01 6.5566438436508179e-01</leafValues></_>
        <_>
          <internalNodes>
            0 -1 116 -6.0208016075193882e-03</internalNodes>
          <leafValues>
            -8.7457501888275146e-01 1.0658388584852219e-01</leafValues></_>
        <_>
          <internalNodes>
            0 -1 215 -4.7936355695128441e-03</internalNodes>
          <leafValues>
            -6.2116080522537231e-01 1.1937021464109421e-01</leafValues></_>
        <_>
          <internalNodes>
            0 -1 193 3.6392651963979006e-03</internalNodes>
          <leafValues>
            -1.6009858250617981e-01 7.5850927829742432e-01</leafValues></_>
        <_>
          <internalNodes>
            0 -1 46 2.9853482265025377e-03</internalNodes>
          <leafValues>
            -1.0198868066072464e-01 7.6108181476593018e-01</leafValues></_>
        <_>
          <internalNodes>
            0 -1 179 9.5534864813089371e-03</internalNodes>
          <leafValues>
            1.3415068387985229e-01 -8.1945800781250000e-01</leafValues></_>
        <_>
          <internalNodes>
            0 -1 35 6.2958433773019351e-06</internalNodes>
          <leafValues>
            1.3075508177280426e-01 -4.5128408074378967e-01</leafValues></_>
        <_>
          <internalNodes>
            0 -1 96 5.6303441524505615e-03</internalNodes>
          <leafValues>
            -8.5966087877750397e-02 8.3493739366531372e-01</leafValues></_>
        <_>
          <internalNodes>
            0 -1 86 4.3063233606517315e-03</internalNodes>
          <leafValues>
            -7.6795145869255066e-02 8.3576917648315430e-01</leafValues></_>
        <_>
          <internalNodes>
            0 -1 128 5.9725781902670860e-03</internalNodes>
          <leafValues>
            9.6509657800197601e-02 -9.1820162534713745e-01</leafValues></_>
        <_>
          <internalNodes>
            0 -1 211 1.7326802480965853e-03</internalNodes>
          <leafValues>
            -1.1706230044364929e-01 6.9667184352874756e-01</leafValues></_>
        <_>
          <internalNodes>
            0 -1 120 -2.8247029986232519e-03</internalNodes>
          <leafValues>
            -7.3890942335128784e-01 1.1991542577743530e-01</leafValues></_>
        <_>
          <internalNodes>
            0 -1 109 1.9723642617464066e-03</internalNodes>
          <leafValues>
            -1.1624922603368759e-01 7.1414023637771606e-01</leafValues></_>
        <_>
          <internalNodes>
            0 -1 108 -4.2406259126437362e-06</internalNodes>
          <leafValues>
            -4.1530224680900574e-01 1.8176779150962830e-01</leafValues></_>
        <_>
          <internalNodes>
            0 -1 141 2.1626385860145092e-03</internalNodes>
          <leafValues>
            -9.0327300131320953e-02 8.8115012645721436e-01</leafValues></_>
        <_>
          <internalNodes>
            0 -1 249 1.1365257669240236e-03</internalNodes>
          <leafValues>
            -7.9894624650478363e-02 7.5920492410659790e-01</leafValues></_>
        <_>
          <internalNodes>
            0 -1 0 1.0316727682948112e-02</internalNodes>
          <leafValues>
            1.0661545395851135e-01 -8.2057911157608032e-01</leafValues></_>
        <_>
          <internalNodes>
            0 -1 67 -2.1460286807268858e-03</internalNodes>
          <leafValues>
            6.6581881046295166e-01 -1.2725798785686493e-01</leafValues></_></weakClassifiers></_></stages>
  <features>
    <_>
      <rects>
        <_>
          0 0 32 46 -1.</_>
        <_>
          8 0 16 46 2.</_></rects>
      <tilted>0</tilted></_>
    <_>
      <rects>
        <_>
          0 0 28 48 -1.</_>
        <_>
          14 0 14 48 2.</_></rects>
      <tilted>0</tilted></_>
    <_>
      <rects>
        <_>
          0 0 30 48 -1.</_>
        <_>
          15 0 15 48 2.</_></rects>
      <tilted>0</tilted></_>
    <_>
      <rects>
        <_>
          0 0 62 46 -1.</_>
        <_>
          31 0 31 46 2.</_></rects>
      <tilted>0</tilted></_>
    <_>
      <rects>
        <_>
          0 0 64 39 -1.</_>
        <_>
          32 0 32 39 2.</_></rects>
      <tilted>0</tilted></_>
    <_>
      <rects>
        <_>
          0 1 45 45 -1.</_>
        <_>
          15 1 15 45 3.</_></rects>
      <tilted>0</tilted></_>
    <_>
      <rects>
        <_>
          0 1 48 47 -1.</_>
        <_>
          16 1 16 47 3.</_></rects>
      <tilted>0</tilted></_>
    <_>
      <rects>
        <_>
          0 2 60 45 -1.</_>
        <_>
          30 2 30 45 2.</_></rects>
      <tilted>0</tilted></_>
    <_>
      <rects>
        <_>
          0 3 32 44 -1.</_>
        <_>
          8 3 16 44 2.</_></rects>
      <tilted>0</tilted></_>
    <_>
      <rects>
        <_>
          0 3 39 9 -1.</_>
        <_>
          13 6 13 3 9.</_></rects>
      <tilted>0</tilted></_>
    <_>
      <rects>
        <_>
          0 3 64 9 -1.</_>
        <_>
          32 3 32 9 2.</_></rects>
      <tilted>0</tilted></_>
    <_>
      <rects>
        <_>
          0 3 64 44 -1.</_>
        <_>
          0 3 32 22 2.</_>
        <_>
          32 25 32 22 2.</_></rects>
      <tilted>0</tilted></_>
    <_>
      <rects>
        <_>
          0 3 49 9 -1.</_>
        <_>
          0 6 49 3 3.</_></rects>
      <tilted>0</tilted></_>
    <_>
      <rects>
        <_>
          0 5 64 40 -1.</_>
        <_>
          0 5 32 20 2.</_>
        <_>
          32 25 32 20 2.</_></rects>
      <tilted>0</tilted></_>
    <_>
      <rects>
        <_>
          0 6 32 38 -1.</_>
        <_>
          8 6 16 38 2.</_></rects>
      <tilted>0</tilted></_>
    <_>
      <rects>
        <_>
          0 11 32 2 -1.</_>
        <_>
          0 11 16 1 2.</_>
        <_>
          16 12 16 1 2.</_></rects>
      <tilted>0</tilted></_>
    <_>
      <rects>
        <_>
          0 13 36 2 -1.</_>
        <_>
          0 13 18 1 2.</_>
        <_>
          18 14 18 1 2.</_></rects>
      <tilted>0</tilted></_>
    <_>
      <rects>
        <_>
          0 14 30 34 -1.</_>
        <_>
          0 14 15 17 2.</_>
        <_>
          15 31 15 17 2.</_></rects>
      <tilted>0</tilted></_>
    <_>
      <rects>
        <_>
          0 14 64 34 -1.</_>
        <_>
          16 14 32 34 2.</_></rects>
      <tilted>0</tilted></_>
    <_>
      <rects>
        <_>
          0 14 64 34 -1.</_>
        <_>
          0 14 32 17 2.</_>
        <_>
          32 31 32 17 2.</_></rects>
      <tilted>0</tilted></_>
    <_>
      <rects>
        <_>
          0 15 63 10 -1.</_>
        <_>
          0 20 63 5 2.</_></rects>
      <tilted>0</tilted></_>
    <_>
      <rects>
        <_>
          0 20 42 2 -1.</_>
        <_>
          0 20 21 1 2.</_>
        <_>
          21 21 21 1 2.</_></rects>
      <tilted>0</tilted></_>
    <_>
      <rects>
        <_>
          0 26 36 2 -1.</_>
        <_>
          0 26 18 1 2.</_>
        <_>
          18 27 18 1 2.</_></rects>
      <tilted>0</tilted></_>
    <_>
      <rects>
        <_>
          0 30 20 6 -1.</_>
        <_>
          0 33 20 3 2.</_></rects>
      <tilted>0</tilted></_>
    <_>
      <rects>
        <_>
          0 36 1 4 -1.</_>
        <_>
          0 37 1 2 2.</_></rects>
      <tilted>0</tilted></_>
    <_>
      <rects>
        <_>
          0 42 32 2 -1.</_>
        <_>
          0 42 16 1 2.</_>
        <_>
          16 43 16 1 2.</_></rects>
      <tilted>0</tilted></_>
    <_>
      <rects>
        <_>
          0 45 22 2 -1.</_>
        <_>
          0 45 11 1 2.</_>
        <_>
          11 46 11 1 2.</_></rects>
      <tilted>0</tilted></_>
    <_>
      <rects>
        <_>
          1 0 3 4 -1.</_>
        <_>
          1 1 3 2 2.</_></rects>
      <tilted>0</tilted></_>
    <_>
      <rects>
        <_>
          1 2 38 2 -1.</_>
        <_>
          1 2 19 1 2.</_>
        <_>
          20 3 19 1 2.</_></rects>
      <tilted>0</tilted></_>
    <_>
      <rects>
        <_>
          1 6 48 2 -1.</_>
        <_>
          1 6 24 1 2.</_>
        <_>
          25 7 24 1 2.</_></rects>
      <tilted>0</tilted></_>
    <_>
      <rects>
        <_>
          1 11 23 10 -1.</_>
        <_>
          1 16 23 5 2.</_></rects>
      <tilted>0</tilted></_>
    <_>
      <rects>
        <_>
          1 12 4 3 -1.</_>
        <_>
          1 13 4 1 3.</_></rects>
      <tilted>0</tilted></_>
    <_>
      <rects>
        <_>
          1 16 63 7 -1.</_>
        <_>
          22 16 21 7 3.</_></rects>
      <tilted>0</tilted></_>
    <_>
      <rects>
        <_>
          1 24 2 4 -1.</_>
        <_>
          1 25 2 2 2.</_></rects>
      <tilted>0</tilted></_>
    <_>
      <rects>
        <_>
          1 27 48 9 -1.</_>
        <_>
          17 30 16 3 9.</_></rects>
      <tilted>0</tilted></_>
    <_>
      <rects>
        <_>
          1 28 3 9 -1.</_>
        <_>
          2 31 1 3 9.</_></rects>
      <tilted>0</tilted></_>
    <_>
      <rects>
        <_>
          1 28 63 1 -1.</_>
        <_>
          22 28 21 1 3.</_></rects>
      <tilted>0</tilted></_>
    <_>
      <rects>
        <_>
          1 36 1 3 -1.</_>
        <_>
          1 37 1 1 3.</_></rects>
      <tilted>0</tilted></_>
    <_>
      <rects>
        <_>
          1 36 50 2 -1.</_>
        <_>
          1 36 25 1 2.</_>
        <_>
          26 37 25 1 2.</_></rects>
      <tilted>0</tilted></_>
    <_>
      <rects>
        <_>
          1 38 30 2 -1.</_>
        <_>
          1 38 15 1 2.</_>
        <_>
          16 39 15 1 2.</_></rects>
      <tilted>0</tilted></_>
    <_>
      <rects>
        <_>
          1 39 40 8 -1.</_>
        <_>
          1 39 20 4 2.</_>
        <_>
          21 43 20 4 2.</_></rects>
      <tilted>0</tilted></_>
    <_>
      <rects>
        <_>
          1 42 63 6 -1.</_>
        <_>
          22 44 21 2 9.</_></rects>
      <tilted>0</tilted></_>
    <_>
      <rects>
        <_>
          2 1 32 35 -1.</_>
        <_>
          10 1 16 35 2.</_></rects>
      <tilted>0</tilted></_>
    <_>
      <rects>
        <_>
          2 2 62 36 -1.</_>
        <_>
          2 2 31 18 2.</_>
        <_>
          33 20 31 18 2.</_></rects>
      <tilted>0</tilted></_>
    <_>
      <rects>
        <_>
          2 5 2 38 -1.</_>
        <_>
          2 5 1 19 2.</_>
        <_>
          3 24 1 19 2.</_></rects>
      <tilted>0</tilted></_>
    <_>
      <rects>
        <_>
          2 7 2 36 -1.</_>
        <_>
          2 7 1 18 2.</_>
        <_>
          3 25 1 18 2.</_></rects>
      <tilted>0</tilted></_>
    <_>
      <rects>
        <_>
          2 8 30 2 -1.</_>
        <_>
          2 8 15 1 2.</_>
        <_>
          17 9 15 1 2.</_></rects>
      <tilted>0</tilted></_>
    <_>
      <rects>
        <_>
          2 8 54 2 -1.</_>
        <_>
          29 8 27 2 2.</_></rects>
      <tilted>0</tilted></_>
    <_>
      <rects>
        <_>
          2 12 2 4 -1.</_>
        <_>
          2 13 2 2 2.</_></rects>
      <tilted>0</tilted></_>
    <_>
      <rects>
        <_>
          2 12 3 3 -1.</_>
        <_>
          2 13 3 1 3.</_></rects>
      <tilted>0</tilted></_>
    <_>
      <rects>
        <_>
          2 14 18 8 -1.</_>
        <_>
          2 18 18 4 2.</_></rects>
      <tilted>0</tilted></_>
    <_>
      <rects>
        <_>
          2 15 60 8 -1.</_>
        <_>
          2 17 60 4 2.</_></rects>
      <tilted>0</tilted></_>
    <_>
      <rects>
        <_>
          2 24 23 3 -1.</_>
        <_>
          2 25 23 1 3.</_></rects>
      <tilted>0</tilted></_>
    <_>
      <rects>
        <_>
          2 40 41 8 -1.</_>
        <_>
          2 44 41 4 2.</_></rects>
      <tilted>0</tilted></_>
    <_>
      <rects>
        <_>
          3 0 20 3 -1.</_>
        <_>
          3 1 20 1 3.</_></rects>
      <tilted>0</tilted></_>
    <_>
      <rects>
        <_>
          3 1 44 2 -1.</_>
        <_>
          3 1 22 1 2.</_>
        <_>
          25 2 22 1 2.</_></rects>
      <tilted>0</tilted></_>
    <_>
      <rects>
        <_>
          3 15 60 33 -1.</_>
        <_>
          33 15 30 33 2.</_></rects>
      <tilted>0</tilted></_>
    <_>
      <rects>
        <_>
          3 30 28 2 -1.</_>
        <_>
          3 30 14 1 2.</_>
        <_>
          17 31 14 1 2.</_></rects>
      <tilted>0</tilted></_>
    <_>
      <rects>
        <_>
          3 39 60 6 -1.</_>
        <_>
          23 41 20 2 9.</_></rects>
      <tilted>0</tilted></_>
    <_>
      <rects>
        <_>
          4 4 60 3 -1.</_>
        <_>
          34 4 30 3 2.</_></rects>
      <tilted>0</tilted></_>
    <_>
      <rects>
        <_>
          4 4 32 4 -1.</_>
        <_>
          4 6 32 2 2.</_></rects>
      <tilted>0</tilted></_>
    <_>
      <rects>
        <_>
          4 18 32 2 -1.</_>
        <_>
          4 18 16 1 2.</_>
        <_>
          20 19 16 1 2.</_></rects>
      <tilted>0</tilted></_>
    <_>
      <rects>
        <_>
          4 23 46 2 -1.</_>
        <_>
          4 23 23 1 2.</_>
        <_>
          27 24 23 1 2.</_></rects>
      <tilted>0</tilted></_>
    <_>
      <rects>
        <_>
          4 27 39 9 -1.</_>
        <_>
          17 30 13 3 9.</_></rects>
      <tilted>0</tilted></_>
    <_>
      <rects>
        <_>
          4 28 58 6 -1.</_>
        <_>
          33 28 29 6 2.</_></rects>
      <tilted>0</tilted></_>
    <_>
      <rects>
        <_>
          5 9 32 39 -1.</_>
        <_>
          13 9 16 39 2.</_></rects>
      <tilted>0</tilted></_>
    <_>
      <rects>
        <_>
          5 12 58 27 -1.</_>
        <_>
          34 12 29 27 2.</_></rects>
      <tilted>0</tilted></_>
    <_>
      <rects>
        <_>
          5 21 40 2 -1.</_>
        <_>
          5 21 20 1 2.</_>
        <_>
          25 22 20 1 2.</_></rects>
      <tilted>0</tilted></_>
    <_>
      <rects>
        <_>
          5 43 58 3 -1.</_>
        <_>
          34 43 29 3 2.</_></rects>
      <tilted>0</tilted></_>
    <_>
      <rects>
        <_>
          6 0 24 48 -1.</_>
        <_>
          14 0 8 48 3.</_></rects>
      <tilted>0</tilted></_>
    <_>
      <rects>
        <_>
          6 1 30 2 -1.</_>
        <_>
          6 1 15 1 2.</_>
        <_>
          21 2 15 1 2.</_></rects>
      <tilted>0</tilted></_>
    <_>
      <rects>
        <_>
          6 3 34 3 -1.</_>
        <_>
          6 3 17 3 2.</_></rects>
      <tilted>1</tilted></_>
    <_>
      <rects>
        <_>
          6 3 58 7 -1.</_>
        <_>
          35 3 29 7 2.</_></rects>
      <tilted>0</tilted></_>
    <_>
      <rects>
        <_>
          6 4 24 40 -1.</_>
        <_>
          14 4 8 40 3.</_></rects>
      <tilted>0</tilted></_>
    <_>
      <rects>
        <_>
          6 6 36 6 -1.</_>
        <_>
          18 8 12 2 9.</_></rects>
      <tilted>0</tilted></_>
    <_>
      <rects>
        <_>
          6 6 49 6 -1.</_>
        <_>
          6 8 49 2 3.</_></rects>
      <tilted>0</tilted></_>
    <_>
      <rects>
        <_>
          6 12 21 6 -1.</_>
        <_>
          13 19 7 6 3.</_></rects>
      <tilted>1</tilted></_>
    <_>
      <rects>
        <_>
          6 19 48 2 -1.</_>
        <_>
          6 19 24 1 2.</_>
        <_>
          30 20 24 1 2.</_></rects>
      <tilted>0</tilted></_>
    <_>
      <rects>
        <_>
          6 42 9 6 -1.</_>
        <_>
          9 44 3 2 9.</_></rects>
      <tilted>0</tilted></_>
    <_>
      <rects>
        <_>
          7 0 21 6 -1.</_>
        <_>
          14 7 7 6 3.</_></rects>
      <tilted>1</tilted></_>
    <_>
      <rects>
        <_>
          7 0 45 46 -1.</_>
        <_>
          22 0 15 46 3.</_></rects>
      <tilted>0</tilted></_>
    <_>
      <rects>
        <_>
          7 0 24 44 -1.</_>
        <_>
          7 11 24 22 2.</_></rects>
      <tilted>0</tilted></_>
    <_>
      <rects>
        <_>
          7 2 51 46 -1.</_>
        <_>
          24 2 17 46 3.</_></rects>
      <tilted>0</tilted></_>
    <_>
      <rects>
        <_>
          7 2 36 45 -1.</_>
        <_>
          25 2 18 45 2.</_></rects>
      <tilted>0</tilted></_>
    <_>
      <rects>
        <_>
          7 19 30 2 -1.</_>
        <_>
          7 19 15 1 2.</_>
        <_>
          22 20 15 1 2.</_></rects>
      <tilted>0</tilted></_>
    <_>
      <rects>
        <_>
          7 38 48 6 -1.</_>
        <_>
          23 40 16 2 9.</_></rects>
      <tilted>0</tilted></_>
    <_>
      <rects>
        <_>
          7 38 36 2 -1.</_>
        <_>
          7 38 18 1 2.</_>
        <_>
          25 39 18 1 2.</_></rects>
      <tilted>0</tilted></_>
    <_>
      <rects>
        <_>
          7 41 48 6 -1.</_>
        <_>
          7 43 48 2 3.</_></rects>
      <tilted>0</tilted></_>
    <_>
      <rects>
        <_>
          7 44 42 4 -1.</_>
        <_>
          28 44 21 4 2.</_></rects>
      <tilted>0</tilted></_>
    <_>
      <rects>
        <_>
          8 0 8 3 -1.</_>
        <_>
          8 1 8 1 3.</_></rects>
      <tilted>0</tilted></_>
    <_>
      <rects>
        <_>
          8 0 21 8 -1.</_>
        <_>
          6 2 21 4 2.</_></rects>
      <tilted>1</tilted></_>
    <_>
      <rects>
        <_>
          8 0 38 39 -1.</_>
        <_>
          8 13 38 13 3.</_></rects>
      <tilted>0</tilted></_>
    <_>
      <rects>
        <_>
          8 12 21 7 -1.</_>
        <_>
          15 19 7 7 3.</_></rects>
      <tilted>1</tilted></_>
    <_>
      <rects>
        <_>
          8 17 56 19 -1.</_>
        <_>
          36 17 28 19 2.</_></rects>
      <tilted>0</tilted></_>
    <_>
      <rects>
        <_>
          8 24 44 2 -1.</_>
        <_>
          8 24 22 1 2.</_>
        <_>
          30 25 22 1 2.</_></rects>
      <tilted>0</tilted></_>
    <_>
      <rects>
        <_>
          8 36 44 2 -1.</_>
        <_>
          8 36 22 1 2.</_>
        <_>
          30 37 22 1 2.</_></rects>
      <tilted>0</tilted></_>
    <_>
      <rects>
        <_>
          8 36 48 2 -1.</_>
        <_>
          8 36 24 1 2.</_>
        <_>
          32 37 24 1 2.</_></rects>
      <tilted>0</tilted></_>
    <_>
      <rects>
        <_>
          9 6 42 3 -1.</_>
        <_>
          23 7 14 1 9.</_></rects>
      <tilted>0</tilted></_>
    <_>
      <rects>
        <_>
          9 15 7 8 -1.</_>
        <_>
          9 19 7 4 2.</_></rects>
      <tilted>0</tilted></_>
    <_>
      <rects>
        <_>
          9 29 41 6 -1.</_>
        <_>
          9 31 41 2 3.</_></rects>
      <tilted>0</tilted></_>
    <_>
      <rects>
        <_>
          10 13 54 12 -1.</_>
        <_>
          28 17 18 4 9.</_></rects>
      <tilted>0</tilted></_>
    <_>
      <rects>
        <_>
          10 16 40 2 -1.</_>
        <_>
          10 16 20 1 2.</_>
        <_>
          30 17 20 1 2.</_></rects>
      <tilted>0</tilted></_>
    <_>
      <rects>
        <_>
          10 26 34 2 -1.</_>
        <_>
          27 26 17 2 2.</_></rects>
      <tilted>0</tilted></_>
    <_>
      <rects>
        <_>
          10 43 40 2 -1.</_>
        <_>
          10 43 20 1 2.</_>
        <_>
          30 44 20 1 2.</_></rects>
      <tilted>0</tilted></_>
    <_>
      <rects>
        <_>
          11 2 46 2 -1.</_>
        <_>
          11 2 23 1 2.</_>
        <_>
          34 3 23 1 2.</_></rects>
      <tilted>0</tilted></_>
    <_>
      <rects>
        <_>
          11 13 5 3 -1.</_>
        <_>
          11 14 5 1 3.</_></rects>
      <tilted>0</tilted></_>
    <_>
      <rects>
        <_>
          11 19 33 18 -1.</_>
        <_>
          22 25 11 6 9.</_></rects>
      <tilted>0</tilted></_>
    <_>
      <rects>
        <_>
          11 24 1 3 -1.</_>
        <_>
          11 25 1 1 3.</_></rects>
      <tilted>0</tilted></_>
    <_>
      <rects>
        <_>
          11 27 15 9 -1.</_>
        <_>
          16 30 5 3 9.</_></rects>
      <tilted>0</tilted></_>
    <_>
      <rects>
        <_>
          11 28 42 2 -1.</_>
        <_>
          11 28 21 1 2.</_>
        <_>
          32 29 21 1 2.</_></rects>
      <tilted>0</tilted></_>
    <_>
      <rects>
        <_>
          11 35 28 2 -1.</_>
        <_>
          11 35 14 1 2.</_>
        <_>
          25 36 14 1 2.</_></rects>
      <tilted>0</tilted></_>
    <_>
      <rects>
        <_>
          12 0 36 2 -1.</_>
        <_>
          12 0 18 1 2.</_>
        <_>
          30 1 18 1 2.</_></rects>
      <tilted>0</tilted></_>
    <_>
      <rects>
        <_>
          12 20 52 4 -1.</_>
        <_>
          12 21 52 2 2.</_></rects>
      <tilted>0</tilted></_>
    <_>
      <rects>
        <_>
          12 31 30 2 -1.</_>
        <_>
          12 31 15 1 2.</_>
        <_>
          27 32 15 1 2.</_></rects>
      <tilted>0</tilted></_>
    <_>
      <rects>
        <_>
          12 36 44 2 -1.</_>
        <_>
          12 36 22 1 2.</_>
        <_>
          34 37 22 1 2.</_></rects>
      <tilted>0</tilted></_>
    <_>
      <rects>
        <_>
          12 40 38 2 -1.</_>
        <_>
          12 40 19 1 2.</_>
        <_>
          31 41 19 1 2.</_></rects>
      <tilted>0</tilted></_>
    <_>
      <rects>
        <_>
          13 9 50 3 -1.</_>
        <_>
          13 10 50 1 3.</_></rects>
      <tilted>0</tilted></_>
    <_>
      <rects>
        <_>
          14 4 30 2 -1.</_>
        <_>
          14 4 15 1 2.</_>
        <_>
          29 5 15 1 2.</_></rects>
      <tilted>0</tilted></_>
    <_>
      <rects>
        <_>
          14 4 24 8 -1.</_>
        <_>
          14 6 24 4 2.</_></rects>
      <tilted>0</tilted></_>
    <_>
      <rects>
        <_>
          14 7 24 6 -1.</_>
        <_>
          22 9 8 2 9.</_></rects>
      <tilted>0</tilted></_>
    <_>
      <rects>
        <_>
          14 15 48 4 -1.</_>
        <_>
          14 16 48 2 2.</_></rects>
      <tilted>0</tilted></_>
    <_>
      <rects>
        <_>
          14 44 38 2 -1.</_>
        <_>
          14 44 19 1 2.</_>
        <_>
          33 45 19 1 2.</_></rects>
      <tilted>0</tilted></_>
    <_>
      <rects>
        <_>
          15 0 24 28 -1.</_>
        <_>
          15 7 24 14 2.</_></rects>
      <tilted>0</tilted></_>
    <_>
      <rects>
        <_>
          15 2 48 9 -1.</_>
        <_>
          31 5 16 3 9.</_></rects>
      <tilted>0</tilted></_>
    <_>
      <rects>
        <_>
          16 28 34 2 -1.</_>
        <_>
          16 28 17 1 2.</_>
        <_>
          33 29 17 1 2.</_></rects>
      <tilted>0</tilted></_>
    <_>
      <rects>
        <_>
          16 39 18 9 -1.</_>
        <_>
          16 42 18 3 3.</_></rects>
      <tilted>0</tilted></_>
    <_>
      <rects>
        <_>
          17 5 38 2 -1.</_>
        <_>
          17 5 19 1 2.</_>
        <_>
          36 6 19 1 2.</_></rects>
      <tilted>0</tilted></_>
    <_>
      <rects>
        <_>
          17 9 47 3 -1.</_>
        <_>
          17 10 47 1 3.</_></rects>
      <tilted>0</tilted></_>
    <_>
      <rects>
        <_>
          17 15 47 3 -1.</_>
        <_>
          17 16 47 1 3.</_></rects>
      <tilted>0</tilted></_>
    <_>
      <rects>
        <_>
          17 37 10 3 -1.</_>
        <_>
          17 38 10 1 3.</_></rects>
      <tilted>0</tilted></_>
    <_>
      <rects>
        <_>
          18 0 42 2 -1.</_>
        <_>
          18 0 21 1 2.</_>
        <_>
          39 1 21 1 2.</_></rects>
      <tilted>0</tilted></_>
    <_>
      <rects>
        <_>
          19 0 32 43 -1.</_>
        <_>
          27 0 16 43 2.</_></rects>
      <tilted>0</tilted></_>
    <_>
      <rects>
        <_>
          19 0 33 4 -1.</_>
        <_>
          18 1 33 2 2.</_></rects>
      <tilted>1</tilted></_>
    <_>
      <rects>
        <_>
          19 2 42 43 -1.</_>
        <_>
          33 2 14 43 3.</_></rects>
      <tilted>0</tilted></_>
    <_>
      <rects>
        <_>
          19 12 22 6 -1.</_>
        <_>
          17 14 22 2 3.</_></rects>
      <tilted>1</tilted></_>
    <_>
      <rects>
        <_>
          19 21 28 2 -1.</_>
        <_>
          19 21 14 1 2.</_>
        <_>
          33 22 14 1 2.</_></rects>
      <tilted>0</tilted></_>
    <_>
      <rects>
        <_>
          20 10 21 8 -1.</_>
        <_>
          27 17 7 8 3.</_></rects>
      <tilted>1</tilted></_>
    <_>
      <rects>
        <_>
          20 15 44 8 -1.</_>
        <_>
          20 15 22 4 2.</_>
        <_>
          42 19 22 4 2.</_></rects>
      <tilted>0</tilted></_>
    <_>
      <rects>
        <_>
          20 16 35 8 -1.</_>
        <_>
          20 18 35 4 2.</_></rects>
      <tilted>0</tilted></_>
    <_>
      <rects>
        <_>
          21 0 17 12 -1.</_>
        <_>
          17 4 17 4 3.</_></rects>
      <tilted>1</tilted></_>
    <_>
      <rects>
        <_>
          21 8 40 2 -1.</_>
        <_>
          21 8 20 1 2.</_>
        <_>
          41 9 20 1 2.</_></rects>
      <tilted>0</tilted></_>
    <_>
      <rects>
        <_>
          21 20 34 2 -1.</_>
        <_>
          21 20 17 1 2.</_>
        <_>
          38 21 17 1 2.</_></rects>
      <tilted>0</tilted></_>
    <_>
      <rects>
        <_>
          21 24 19 3 -1.</_>
        <_>
          21 25 19 1 3.</_></rects>
      <tilted>0</tilted></_>
    <_>
      <rects>
        <_>
          22 1 36 47 -1.</_>
        <_>
          40 1 18 47 2.</_></rects>
      <tilted>0</tilted></_>
    <_>
      <rects>
        <_>
          22 33 42 2 -1.</_>
        <_>
          22 33 21 1 2.</_>
        <_>
          43 34 21 1 2.</_></rects>
      <tilted>0</tilted></_>
    <_>
      <rects>
        <_>
          23 1 39 12 -1.</_>
        <_>
          36 5 13 4 9.</_></rects>
      <tilted>0</tilted></_>
    <_>
      <rects>
        <_>
          23 5 29 14 -1.</_>
        <_>
          23 5 29 7 2.</_></rects>
      <tilted>1</tilted></_>
    <_>
      <rects>
        <_>
          23 12 24 3 -1.</_>
        <_>
          22 13 24 1 3.</_></rects>
      <tilted>1</tilted></_>
    <_>
      <rects>
        <_>
          23 36 40 2 -1.</_>
        <_>
          23 36 20 1 2.</_>
        <_>
          43 37 20 1 2.</_></rects>
      <tilted>0</tilted></_>
    <_>
      <rects>
        <_>
          24 0 3 24 -1.</_>
        <_>
          25 1 1 24 3.</_></rects>
      <tilted>1</tilted></_>
    <_>
      <rects>
        <_>
          24 0 36 46 -1.</_>
        <_>
          42 0 18 46 2.</_></rects>
      <tilted>0</tilted></_>
    <_>
      <rects>
        <_>
          24 1 22 4 -1.</_>
        <_>
          23 2 22 2 2.</_></rects>
      <tilted>1</tilted></_>
    <_>
      <rects>
        <_>
          24 6 38 2 -1.</_>
        <_>
          24 6 19 1 2.</_>
        <_>
          43 7 19 1 2.</_></rects>
      <tilted>0</tilted></_>
    <_>
      <rects>
        <_>
          24 12 13 3 -1.</_>
        <_>
          24 13 13 1 3.</_></rects>
      <tilted>0</tilted></_>
    <_>
      <rects>
        <_>
          24 29 24 2 -1.</_>
        <_>
          24 29 12 1 2.</_>
        <_>
          36 30 12 1 2.</_></rects>
      <tilted>0</tilted></_>
    <_>
      <rects>
        <_>
          24 38 40 8 -1.</_>
        <_>
          24 40 40 4 2.</_></rects>
      <tilted>0</tilted></_>
    <_>
      <rects>
        <_>
          25 1 24 47 -1.</_>
        <_>
          33 1 8 47 3.</_></rects>
      <tilted>0</tilted></_>
    <_>
      <rects>
        <_>
          25 8 15 6 -1.</_>
        <_>
          30 10 5 2 9.</_></rects>
      <tilted>0</tilted></_>
    <_>
      <rects>
        <_>
          25 22 28 26 -1.</_>
        <_>
          39 22 14 26 2.</_></rects>
      <tilted>0</tilted></_>
    <_>
      <rects>
        <_>
          25 26 22 9 -1.</_>
        <_>
          25 29 22 3 3.</_></rects>
      <tilted>0</tilted></_>
    <_>
      <rects>
        <_>
          25 30 30 2 -1.</_>
        <_>
          25 30 15 1 2.</_>
        <_>
          40 31 15 1 2.</_></rects>
      <tilted>0</tilted></_>
    <_>
      <rects>
        <_>
          26 0 16 3 -1.</_>
        <_>
          26 1 16 1 3.</_></rects>
      <tilted>0</tilted></_>
    <_>
      <rects>
        <_>
          26 5 12 41 -1.</_>
        <_>
          30 5 4 41 3.</_></rects>
      <tilted>0</tilted></_>
    <_>
      <rects>
        <_>
          26 5 32 34 -1.</_>
        <_>
          34 5 16 34 2.</_></rects>
      <tilted>0</tilted></_>
    <_>
      <rects>
        <_>
          26 12 24 2 -1.</_>
        <_>
          26 12 12 1 2.</_>
        <_>
          38 13 12 1 2.</_></rects>
      <tilted>0</tilted></_>
    <_>
      <rects>
        <_>
          26 12 38 2 -1.</_>
        <_>
          26 12 19 1 2.</_>
        <_>
          45 13 19 1 2.</_></rects>
      <tilted>0</tilted></_>
    <_>
      <rects>
        <_>
          27 0 15 26 -1.</_>
        <_>
          32 5 5 26 3.</_></rects>
      <tilted>1</tilted></_>
    <_>
      <rects>
        <_>
          27 0 24 3 -1.</_>
        <_>
          26 1 24 1 3.</_></rects>
      <tilted>1</tilted></_>
    <_>
      <rects>
        <_>
          27 3 34 36 -1.</_>
        <_>
          27 3 17 18 2.</_>
        <_>
          44 21 17 18 2.</_></rects>
      <tilted>0</tilted></_>
    <_>
      <rects>
        <_>
          27 6 20 42 -1.</_>
        <_>
          32 6 10 42 2.</_></rects>
      <tilted>0</tilted></_>
    <_>
      <rects>
        <_>
          27 12 31 3 -1.</_>
        <_>
          26 13 31 1 3.</_></rects>
      <tilted>1</tilted></_>
    <_>
      <rects>
        <_>
          27 42 30 2 -1.</_>
        <_>
          27 42 15 1 2.</_>
        <_>
          42 43 15 1 2.</_></rects>
      <tilted>0</tilted></_>
    <_>
      <rects>
        <_>
          27 45 32 2 -1.</_>
        <_>
          27 45 16 1 2.</_>
        <_>
          43 46 16 1 2.</_></rects>
      <tilted>0</tilted></_>
    <_>
      <rects>
        <_>
          28 2 25 9 -1.</_>
        <_>
          28 5 25 3 3.</_></rects>
      <tilted>0</tilted></_>
    <_>
      <rects>
        <_>
          28 5 36 32 -1.</_>
        <_>
          46 5 18 32 2.</_></rects>
      <tilted>0</tilted></_>
    <_>
      <rects>
        <_>
          28 6 8 42 -1.</_>
        <_>
          30 6 4 42 2.</_></rects>
      <tilted>0</tilted></_>
    <_>
      <rects>
        <_>
          28 26 28 10 -1.</_>
        <_>
          28 31 28 5 2.</_></rects>
      <tilted>0</tilted></_>
    <_>
      <rects>
        <_>
          28 36 1 3 -1.</_>
        <_>
          28 37 1 1 3.</_></rects>
      <tilted>0</tilted></_>
    <_>
      <rects>
        <_>
          28 36 9 3 -1.</_>
        <_>
          28 37 9 1 3.</_></rects>
      <tilted>0</tilted></_>
    <_>
      <rects>
        <_>
          28 39 36 9 -1.</_>
        <_>
          46 39 18 9 2.</_></rects>
      <tilted>0</tilted></_>
    <_>
      <rects>
        <_>
          29 0 6 3 -1.</_>
        <_>
          31 1 2 1 9.</_></rects>
      <tilted>0</tilted></_>
    <_>
      <rects>
        <_>
          29 37 9 3 -1.</_>
        <_>
          32 38 3 1 9.</_></rects>
      <tilted>0</tilted></_>
    <_>
      <rects>
        <_>
          30 0 34 48 -1.</_>
        <_>
          47 0 17 48 2.</_></rects>
      <tilted>0</tilted></_>
    <_>
      <rects>
        <_>
          30 9 34 38 -1.</_>
        <_>
          47 9 17 38 2.</_></rects>
      <tilted>0</tilted></_>
    <_>
      <rects>
        <_>
          30 12 4 24 -1.</_>
        <_>
          31 13 2 24 2.</_></rects>
      <tilted>1</tilted></_>
    <_>
      <rects>
        <_>
          30 39 3 1 -1.</_>
        <_>
          31 39 1 1 3.</_></rects>
      <tilted>0</tilted></_>
    <_>
      <rects>
        <_>
          31 2 14 44 -1.</_>
        <_>
          31 2 7 22 2.</_>
        <_>
          38 24 7 22 2.</_></rects>
      <tilted>0</tilted></_>
    <_>
      <rects>
        <_>
          32 1 32 44 -1.</_>
        <_>
          40 1 16 44 2.</_></rects>
      <tilted>0</tilted></_>
    <_>
      <rects>
        <_>
          32 1 32 46 -1.</_>
        <_>
          40 1 16 46 2.</_></rects>
      <tilted>0</tilted></_>
    <_>
      <rects>
        <_>
          32 5 22 2 -1.</_>
        <_>
          32 5 11 1 2.</_>
        <_>
          43 6 11 1 2.</_></rects>
      <tilted>0</tilted></_>
    <_>
      <rects>
        <_>
          33 0 24 3 -1.</_>
        <_>
          41 8 8 3 3.</_></rects>
      <tilted>1</tilted></_>
    <_>
      <rects>
        <_>
          33 0 30 47 -1.</_>
        <_>
          48 0 15 47 2.</_></rects>
      <tilted>0</tilted></_>
    <_>
      <rects>
        <_>
          33 4 31 10 -1.</_>
        <_>
          33 4 31 5 2.</_></rects>
      <tilted>1</tilted></_>
    <_>
      <rects>
        <_>
          33 39 30 2 -1.</_>
        <_>
          33 39 15 1 2.</_>
        <_>
          48 40 15 1 2.</_></rects>
      <tilted>0</tilted></_>
    <_>
      <rects>
        <_>
          34 1 30 46 -1.</_>
        <_>
          34 1 15 23 2.</_>
        <_>
          49 24 15 23 2.</_></rects>
      <tilted>0</tilted></_>
    <_>
      <rects>
        <_>
          34 1 30 16 -1.</_>
        <_>
          34 1 30 8 2.</_></rects>
      <tilted>1</tilted></_>
    <_>
      <rects>
        <_>
          34 18 16 4 -1.</_>
        <_>
          34 20 16 2 2.</_></rects>
      <tilted>0</tilted></_>
    <_>
      <rects>
        <_>
          34 25 30 9 -1.</_>
        <_>
          49 25 15 9 2.</_></rects>
      <tilted>0</tilted></_>
    <_>
      <rects>
        <_>
          35 19 28 4 -1.</_>
        <_>
          35 21 28 2 2.</_></rects>
      <tilted>0</tilted></_>
    <_>
      <rects>
        <_>
          35 19 29 4 -1.</_>
        <_>
          35 21 29 2 2.</_></rects>
      <tilted>0</tilted></_>
    <_>
      <rects>
        <_>
          36 1 16 31 -1.</_>
        <_>
          36 1 8 31 2.</_></rects>
      <tilted>1</tilted></_>
    <_>
      <rects>
        <_>
          36 14 3 6 -1.</_>
        <_>
          36 17 3 3 2.</_></rects>
      <tilted>0</tilted></_>
    <_>
      <rects>
        <_>
          37 0 24 30 -1.</_>
        <_>
          43 0 12 30 2.</_></rects>
      <tilted>0</tilted></_>
    <_>
      <rects>
        <_>
          37 16 26 8 -1.</_>
        <_>
          37 18 26 4 2.</_></rects>
      <tilted>0</tilted></_>
    <_>
      <rects>
        <_>
          37 24 1 3 -1.</_>
        <_>
          37 25 1 1 3.</_></rects>
      <tilted>0</tilted></_>
    <_>
      <rects>
        <_>
          38 14 24 9 -1.</_>
        <_>
          46 17 8 3 9.</_></rects>
      <tilted>0</tilted></_>
    <_>
      <rects>
        <_>
          39 2 7 6 -1.</_>
        <_>
          39 2 7 3 2.</_></rects>
      <tilted>1</tilted></_>
    <_>
      <rects>
        <_>
          39 8 9 32 -1.</_>
        <_>
          39 16 9 16 2.</_></rects>
      <tilted>0</tilted></_>
    <_>
      <rects>
        <_>
          39 42 24 4 -1.</_>
        <_>
          39 42 12 2 2.</_>
        <_>
          51 44 12 2 2.</_></rects>
      <tilted>0</tilted></_>
    <_>
      <rects>
        <_>
          40 8 24 2 -1.</_>
        <_>
          40 8 12 1 2.</_>
        <_>
          52 9 12 1 2.</_></rects>
      <tilted>0</tilted></_>
    <_>
      <rects>
        <_>
          41 36 8 3 -1.</_>
        <_>
          41 37 8 1 3.</_></rects>
      <tilted>0</tilted></_>
    <_>
      <rects>
        <_>
          42 2 22 2 -1.</_>
        <_>
          42 2 11 1 2.</_>
        <_>
          53 3 11 1 2.</_></rects>
      <tilted>0</tilted></_>
    <_>
      <rects>
        <_>
          42 2 20 10 -1.</_>
        <_>
          42 7 20 5 2.</_></rects>
      <tilted>0</tilted></_>
    <_>
      <rects>
        <_>
          42 4 10 8 -1.</_>
        <_>
          42 6 10 4 2.</_></rects>
      <tilted>0</tilted></_>
    <_>
      <rects>
        <_>
          42 11 9 21 -1.</_>
        <_>
          35 18 9 7 3.</_></rects>
      <tilted>1</tilted></_>
    <_>
      <rects>
        <_>
          42 12 1 27 -1.</_>
        <_>
          33 21 1 9 3.</_></rects>
      <tilted>1</tilted></_>
    <_>
      <rects>
        <_>
          42 16 17 8 -1.</_>
        <_>
          42 18 17 4 2.</_></rects>
      <tilted>0</tilted></_>
    <_>
      <rects>
        <_>
          42 24 5 3 -1.</_>
        <_>
          42 25 5 1 3.</_></rects>
      <tilted>0</tilted></_>
    <_>
      <rects>
        <_>
          43 11 8 3 -1.</_>
        <_>
          43 12 8 1 3.</_></rects>
      <tilted>0</tilted></_>
    <_>
      <rects>
        <_>
          44 3 12 33 -1.</_>
        <_>
          44 3 6 33 2.</_></rects>
      <tilted>1</tilted></_>
    <_>
      <rects>
        <_>
          44 8 2 40 -1.</_>
        <_>
          44 8 1 20 2.</_>
        <_>
          45 28 1 20 2.</_></rects>
      <tilted>0</tilted></_>
    <_>
      <rects>
        <_>
          44 27 12 8 -1.</_>
        <_>
          47 30 6 8 2.</_></rects>
      <tilted>1</tilted></_>
    <_>
      <rects>
        <_>
          45 14 15 33 -1.</_>
        <_>
          50 25 5 11 9.</_></rects>
      <tilted>0</tilted></_>
    <_>
      <rects>
        <_>
          45 15 15 33 -1.</_>
        <_>
          50 26 5 11 9.</_></rects>
      <tilted>0</tilted></_>
    <_>
      <rects>
        <_>
          46 0 2 24 -1.</_>
        <_>
          38 8 2 8 3.</_></rects>
      <tilted>1</tilted></_>
    <_>
      <rects>
        <_>
          46 24 1 3 -1.</_>
        <_>
          46 25 1 1 3.</_></rects>
      <tilted>0</tilted></_>
    <_>
      <rects>
        <_>
          47 0 3 3 -1.</_>
        <_>
          47 1 3 1 3.</_></rects>
      <tilted>0</tilted></_>
    <_>
      <rects>
        <_>
          47 9 10 30 -1.</_>
        <_>
          47 9 5 15 2.</_>
        <_>
          52 24 5 15 2.</_></rects>
      <tilted>0</tilted></_>
    <_>
      <rects>
        <_>
          48 23 1 3 -1.</_>
        <_>
          48 24 1 1 3.</_></rects>
      <tilted>0</tilted></_>
    <_>
      <rects>
        <_>
          49 1 3 11 -1.</_>
        <_>
          50 2 1 11 3.</_></rects>
      <tilted>1</tilted></_>
    <_>
      <rects>
        <_>
          49 9 6 32 -1.</_>
        <_>
          49 9 3 16 2.</_>
        <_>
          52 25 3 16 2.</_></rects>
      <tilted>0</tilted></_>
    <_>
      <rects>
        <_>
          49 24 4 3 -1.</_>
        <_>
          49 25 4 1 3.</_></rects>
      <tilted>0</tilted></_>
    <_>
      <rects>
        <_>
          49 26 8 5 -1.</_>
        <_>
          51 28 4 5 2.</_></rects>
      <tilted>1</tilted></_>
    <_>
      <rects>
        <_>
          50 11 2 3 -1.</_>
        <_>
          50 12 2 1 3.</_></rects>
      <tilted>0</tilted></_>
    <_>
      <rects>
        <_>
          50 23 4 12 -1.</_>
        <_>
          51 24 2 12 2.</_></rects>
      <tilted>1</tilted></_>
    <_>
      <rects>
        <_>
          51 0 7 20 -1.</_>
        <_>
          46 5 7 10 2.</_></rects>
      <tilted>1</tilted></_>
    <_>
      <rects>
        <_>
          51 9 11 21 -1.</_>
        <_>
          44 16 11 7 3.</_></rects>
      <tilted>1</tilted></_>
    <_>
      <rects>
        <_>
          51 35 11 3 -1.</_>
        <_>
          51 36 11 1 3.</_></rects>
      <tilted>0</tilted></_>
    <_>
      <rects>
        <_>
          52 4 12 30 -1.</_>
        <_>
          52 14 12 10 3.</_></rects>
      <tilted>0</tilted></_>
    <_>
      <rects>
        <_>
          53 39 9 6 -1.</_>
        <_>
          56 41 3 2 9.</_></rects>
      <tilted>0</tilted></_>
    <_>
      <rects>
        <_>
          54 0 9 27 -1.</_>
        <_>
          57 9 3 9 9.</_></rects>
      <tilted>0</tilted></_>
    <_>
      <rects>
        <_>
          55 11 4 24 -1.</_>
        <_>
          56 12 2 24 2.</_></rects>
      <tilted>1</tilted></_>
    <_>
      <rects>
        <_>
          56 6 8 34 -1.</_>
        <_>
          56 6 4 34 2.</_></rects>
      <tilted>1</tilted></_>
    <_>
      <rects>
        <_>
          58 22 4 3 -1.</_>
        <_>
          58 23 4 1 3.</_></rects>
      <tilted>0</tilted></_>
    <_>
      <rects>
        <_>
          58 23 5 4 -1.</_>
        <_>
          58 24 5 2 2.</_></rects>
      <tilted>0</tilted></_>
    <_>
      <rects>
        <_>
          58 23 6 3 -1.</_>
        <_>
          58 24 6 1 3.</_></rects>
      <tilted>0</tilted></_>
    <_>
      <rects>
        <_>
          58 34 6 3 -1.</_>
        <_>
          58 35 6 1 3.</_></rects>
      <tilted>0</tilted></_>
    <_>
      <rects>
        <_>
          58 35 5 3 -1.</_>
        <_>
          58 36 5 1 3.</_></rects>
      <tilted>0</tilted></_>
    <_>
      <rects>
        <_>
          59 10 3 3 -1.</_>
        <_>
          59 11 3 1 3.</_></rects>
      <tilted>0</tilted></_>
    <_>
      <rects>
        <_>
          59 44 3 4 -1.</_>
        <_>
          59 45 3 2 2.</_></rects>
      <tilted>0</tilted></_>
    <_>
      <rects>
        <_>
          60 11 4 3 -1.</_>
        <_>
          60 12 4 1 3.</_></rects>
      <tilted>0</tilted></_></features></cascade>
</opencv_storage>
