<?xml version="1.0"?>
<opencv_storage>
<cascade>
  <stageType>BOOST</stageType>
  <featureType>HAAR</featureType>
  <height>40</height>
  <width>80</width>
  <stageParams>
    <boostType>GAB</boostType>
    <minHitRate>9.9900001287460327e-01</minHitRate>
    <maxFalseAlarm>5.0000000000000000e-01</maxFalseAlarm>
    <weightTrimRate>9.4999999999999996e-01</weightTrimRate>
    <maxDepth>1</maxDepth>
    <maxWeakCount>100</maxWeakCount></stageParams>
  <featureParams>
    <maxCatCount>0</maxCatCount>
    <featSize>1</featSize>
    <mode>ALL</mode></featureParams>
  <stageNum>5</stageNum>
  <stages>
    <!-- stage 0 -->
    <_>
      <maxWeakCount>2</maxWeakCount>
      <stageThreshold>-2.0666198432445526e-01</stageThreshold>
      <weakClassifiers>
        <_>
          <internalNodes>
            0 -1 8 -2.4220906198024750e-03</internalNodes>
          <leafValues>
            1. -9.8484849929809570e-01</leafValues></_>
        <_>
          <internalNodes>
            0 -1 6 1.1332994326949120e-03</internalNodes>
          <leafValues>
            -1. 7.7818650007247925e-01</leafValues></_></weakClassifiers></_>
    <!-- stage 1 -->
    <_>
      <maxWeakCount>2</maxWeakCount>
      <stageThreshold>-1.7956694960594177e-01</stageThreshold>
      <weakClassifiers>
        <_>
          <internalNodes>
            0 -1 1 1.4425203204154968e-02</internalNodes>
          <leafValues>
            -9.5488721132278442e-01 7.5000000000000000e-01</leafValues></_>
        <_>
          <internalNodes>
            0 -1 2 2.8551071882247925e-03</internalNodes>
          <leafValues>
            -9.2956697940826416e-01 9.1979742050170898e-01</leafValues></_></weakClassifiers></_>
    <!-- stage 2 -->
    <_>
      <maxWeakCount>2</maxWeakCount>
      <stageThreshold>-4.5387175679206848e-01</stageThreshold>
      <weakClassifiers>
        <_>
          <internalNodes>
            0 -1 3 1.4282010961323977e-03</internalNodes>
          <leafValues>
            -9.6923077106475830e-01 4.5454546809196472e-01</leafValues></_>
        <_>
          <internalNodes>
            0 -1 4 -1.8893036758527160e-03</internalNodes>
          <leafValues>
            9.0735828876495361e-01 -9.0841722488403320e-01</leafValues></_></weakClassifiers></_>
    <!-- stage 3 -->
    <_>
      <maxWeakCount>2</maxWeakCount>
      <stageThreshold>-1.9648995995521545e-01</stageThreshold>
      <weakClassifiers>
        <_>
          <internalNodes>
            0 -1 9 6.6794961690902710e-02</internalNodes>
          <leafValues>
            -9.4029849767684937e-01 7.1428573131561279e-01</leafValues></_>
        <_>
          <internalNodes>
            0 -1 0 2.2140321135520935e-01</internalNodes>
          <leafValues>
            -9.1077566146850586e-01 9.2978334426879883e-01</leafValues></_></weakClassifiers></_>
    <!-- stage 4 -->
    <_>
      <maxWeakCount>2</maxWeakCount>
      <stageThreshold>-1.3074731826782227e-01</stageThreshold>
      <weakClassifiers>
        <_>
          <internalNodes>
            0 -1 5 5.3226412273943424e-04</internalNodes>
          <leafValues>
            -9.5488721132278442e-01 7.5000000000000000e-01</leafValues></_>
        <_>
          <internalNodes>
            0 -1 7 4.5914012938737869e-02</internalNodes>
          <leafValues>
            -8.8074731826782227e-01 1.</leafValues></_></weakClassifiers></_></stages>
  <features>
    <_>
      <rects>
        <_>
          0 1 50 28 -1.</_>
        <_>
          25 1 25 28 2.</_></rects>
      <tilted>0</tilted></_>
    <_>
      <rects>
        <_>
          12 1 14 20 -1.</_>
        <_>
          12 1 7 10 2.</_>
        <_>
          19 11 7 10 2.</_></rects>
      <tilted>0</tilted></_>
    <_>
      <rects>
        <_>
          20 21 9 2 -1.</_>
        <_>
          20 21 9 1 2.</_></rects>
      <tilted>1</tilted></_>
    <_>
      <rects>
        <_>
          23 32 14 2 -1.</_>
        <_>
          23 32 7 1 2.</_>
        <_>
          30 33 7 1 2.</_></rects>
      <tilted>0</tilted></_>
    <_>
      <rects>
        <_>
          28 32 4 4 -1.</_>
        <_>
          28 33 4 2 2.</_></rects>
      <tilted>0</tilted></_>
    <_>
      <rects>
        <_>
          40 20 2 2 -1.</_>
        <_>
          40 20 1 1 2.</_>
        <_>
          41 21 1 1 2.</_></rects>
      <tilted>0</tilted></_>
    <_>
      <rects>
        <_>
          43 19 3 5 -1.</_>
        <_>
          44 20 1 5 3.</_></rects>
      <tilted>1</tilted></_>
    <_>
      <rects>
        <_>
          44 7 30 20 -1.</_>
        <_>
          44 7 15 10 2.</_>
        <_>
          59 17 15 10 2.</_></rects>
      <tilted>0</tilted></_>
    <_>
      <rects>
        <_>
          47 12 4 8 -1.</_>
        <_>
          48 13 2 8 2.</_></rects>
      <tilted>1</tilted></_>
    <_>
      <rects>
        <_>
          71 0 9 22 -1.</_>
        <_>
          71 0 9 11 2.</_></rects>
      <tilted>1</tilted></_></features></cascade>
</opencv_storage>
