<?xml version="1.0"?>
<opencv_storage>
<cascade>
  <stageType>BOOST</stageType>
  <featureType>HAAR</featureType>
  <height>48</height>
  <width>64</width>
  <stageParams>
    <boostType>GAB</boostType>
    <minHitRate>9.9500000476837158e-01</minHitRate>
    <maxFalseAlarm>5.0000000000000000e-01</maxFalseAlarm>
    <weightTrimRate>9.4999999999999996e-01</weightTrimRate>
    <maxDepth>1</maxDepth>
    <maxWeakCount>100</maxWeakCount></stageParams>
  <featureParams>
    <maxCatCount>0</maxCatCount>
    <featSize>1</featSize>
    <mode>BASIC</mode></featureParams>
  <stageNum>18</stageNum>
  <stages>
    <!-- stage 0 -->
    <_>
      <maxWeakCount>2</maxWeakCount>
      <stageThreshold>-5.2690315246582031e-01</stageThreshold>
      <weakClassifiers>
        <_>
          <internalNodes>
            0 -1 106 2.1951678209006786e-03</internalNodes>
          <leafValues>
            -9.4600939750671387e-01 7.9247570037841797e-01</leafValues></_>
        <_>
          <internalNodes>
            0 -1 89 2.8392259264364839e-04</internalNodes>
          <leafValues>
            -8.8525474071502686e-01 4.1910624504089355e-01</leafValues></_></weakClassifiers></_>
    <!-- stage 1 -->
    <_>
      <maxWeakCount>4</maxWeakCount>
      <stageThreshold>-4.0303081274032593e-01</stageThreshold>
      <weakClassifiers>
        <_>
          <internalNodes>
            0 -1 111 3.9300294592976570e-03</internalNodes>
          <leafValues>
            -7.3333334922790527e-01 6.7142856121063232e-01</leafValues></_>
        <_>
          <internalNodes>
            0 -1 115 2.1523053874261677e-04</internalNodes>
          <leafValues>
            -9.2907875776290894e-01 3.0423960089683533e-01</leafValues></_>
        <_>
          <internalNodes>
            0 -1 4 -3.1018577516078949e-02</internalNodes>
          <leafValues>
            7.7901172637939453e-01 -3.3077734708786011e-01</leafValues></_>
        <_>
          <internalNodes>
            0 -1 91 -4.3604872189462185e-05</internalNodes>
          <leafValues>
            -8.0162650346755981e-01 3.5684025287628174e-01</leafValues></_></weakClassifiers></_>
    <!-- stage 2 -->
    <_>
      <maxWeakCount>5</maxWeakCount>
      <stageThreshold>-3.9762398600578308e-01</stageThreshold>
      <weakClassifiers>
        <_>
          <internalNodes>
            0 -1 154 8.8681917986832559e-05</internalNodes>
          <leafValues>
            -8.6982250213623047e-01 5.4992073774337769e-01</leafValues></_>
        <_>
          <internalNodes>
            0 -1 92 2.1597199520329013e-05</internalNodes>
          <leafValues>
            -9.2019569873809814e-01 3.2814693450927734e-01</leafValues></_>
        <_>
          <internalNodes>
            0 -1 11 -9.0423136949539185e-02</internalNodes>
          <leafValues>
            8.3267307281494141e-01 -3.6837157607078552e-01</leafValues></_>
        <_>
          <internalNodes>
            0 -1 123 1.9506618264131248e-04</internalNodes>
          <leafValues>
            -8.7818586826324463e-01 3.1017836928367615e-01</leafValues></_>
        <_>
          <internalNodes>
            0 -1 161 6.3710303948028013e-06</internalNodes>
          <leafValues>
            -8.6194032430648804e-01 2.0224475860595703e-01</leafValues></_></weakClassifiers></_>
    <!-- stage 3 -->
    <_>
      <maxWeakCount>8</maxWeakCount>
      <stageThreshold>-5.9544777870178223e-01</stageThreshold>
      <weakClassifiers>
        <_>
          <internalNodes>
            0 -1 109 1.3236631639301777e-04</internalNodes>
          <leafValues>
            -9.0526318550109863e-01 4.0567377209663391e-01</leafValues></_>
        <_>
          <internalNodes>
            0 -1 36 -1.1444730311632156e-01</internalNodes>
          <leafValues>
            8.4180748462677002e-01 -2.6747193932533264e-01</leafValues></_>
        <_>
          <internalNodes>
            0 -1 138 7.2073098272085190e-04</internalNodes>
          <leafValues>
            2.4866640567779541e-01 -7.6778936386108398e-01</leafValues></_>
        <_>
          <internalNodes>
            0 -1 99 -1.3193967752158642e-03</internalNodes>
          <leafValues>
            -8.0843174457550049e-01 2.0500031113624573e-01</leafValues></_>
        <_>
          <internalNodes>
            0 -1 176 1.1655440903268754e-04</internalNodes>
          <leafValues>
            -3.6939674615859985e-01 4.7113114595413208e-01</leafValues></_>
        <_>
          <internalNodes>
            0 -1 77 4.3646080303005874e-04</internalNodes>
          <leafValues>
            1.5243837237358093e-01 -9.3879640102386475e-01</leafValues></_>
        <_>
          <internalNodes>
            0 -1 188 2.4945358745753765e-04</internalNodes>
          <leafValues>
            -2.8923469781875610e-01 6.8002504110336304e-01</leafValues></_>
        <_>
          <internalNodes>
            0 -1 180 4.3197331251576543e-04</internalNodes>
          <leafValues>
            -2.1071423590183258e-01 7.8969997167587280e-01</leafValues></_></weakClassifiers></_>
    <!-- stage 4 -->
    <_>
      <maxWeakCount>7</maxWeakCount>
      <stageThreshold>-6.6745960712432861e-01</stageThreshold>
      <weakClassifiers>
        <_>
          <internalNodes>
            0 -1 8 2.0921424031257629e-01</internalNodes>
          <leafValues>
            4.5371776819229126e-01 -7.0212763547897339e-01</leafValues></_>
        <_>
          <internalNodes>
            0 -1 76 1.4998299775470514e-05</internalNodes>
          <leafValues>
            -7.1418285369873047e-01 3.0768856406211853e-01</leafValues></_>
        <_>
          <internalNodes>
            0 -1 201 -1.8853519577533007e-04</internalNodes>
          <leafValues>
            7.7301347255706787e-01 -2.4900148808956146e-01</leafValues></_>
        <_>
          <internalNodes>
            0 -1 202 1.4448325964622200e-04</internalNodes>
          <leafValues>
            -2.3211036622524261e-01 8.2327878475189209e-01</leafValues></_>
        <_>
          <internalNodes>
            0 -1 5 -1.0134702548384666e-02</internalNodes>
          <leafValues>
            5.6308197975158691e-01 -2.9226872324943542e-01</leafValues></_>
        <_>
          <internalNodes>
            0 -1 204 1.9597233040258288e-04</internalNodes>
          <leafValues>
            -1.8785068392753601e-01 8.0471235513687134e-01</leafValues></_>
        <_>
          <internalNodes>
            0 -1 187 -1.7082758131437004e-04</internalNodes>
          <leafValues>
            8.1527900695800781e-01 -1.6713993251323700e-01</leafValues></_></weakClassifiers></_>
    <!-- stage 5 -->
    <_>
      <maxWeakCount>11</maxWeakCount>
      <stageThreshold>-8.7726563215255737e-01</stageThreshold>
      <weakClassifiers>
        <_>
          <internalNodes>
            0 -1 167 2.5051307602552697e-05</internalNodes>
          <leafValues>
            -4.3478259444236755e-01 4.8903879523277283e-01</leafValues></_>
        <_>
          <internalNodes>
            0 -1 6 2.5859069079160690e-02</internalNodes>
          <leafValues>
            -2.5439074635505676e-01 6.7354625463485718e-01</leafValues></_>
        <_>
          <internalNodes>
            0 -1 94 9.4737290055491030e-05</internalNodes>
          <leafValues>
            -8.3156341314315796e-01 2.1458451449871063e-01</leafValues></_>
        <_>
          <internalNodes>
            0 -1 189 2.5287771131843328e-04</internalNodes>
          <leafValues>
            -2.2967930138111115e-01 6.5204179286956787e-01</leafValues></_>
        <_>
          <internalNodes>
            0 -1 203 2.2430122771766037e-04</internalNodes>
          <leafValues>
            -2.0761892199516296e-01 6.4093077182769775e-01</leafValues></_>
        <_>
          <internalNodes>
            0 -1 151 1.9762753709073877e-06</internalNodes>
          <leafValues>
            -8.4317749738693237e-01 1.7329663038253784e-01</leafValues></_>
        <_>
          <internalNodes>
            0 -1 74 2.1327420836314559e-04</internalNodes>
          <leafValues>
            -5.4670780897140503e-01 2.0897230505943298e-01</leafValues></_>
        <_>
          <internalNodes>
            0 -1 117 -4.3939839815720916e-04</internalNodes>
          <leafValues>
            -8.3030170202255249e-01 1.7888577282428741e-01</leafValues></_>
        <_>
          <internalNodes>
            0 -1 179 -1.4279378228820860e-04</internalNodes>
          <leafValues>
            7.1333938837051392e-01 -2.4088630080223083e-01</leafValues></_>
        <_>
          <internalNodes>
            0 -1 140 2.0768909598700702e-04</internalNodes>
          <leafValues>
            1.6661313176155090e-01 -8.4611684083938599e-01</leafValues></_>
        <_>
          <internalNodes>
            0 -1 180 1.0971660958603024e-04</internalNodes>
          <leafValues>
            -3.2993358373641968e-01 4.3827864527702332e-01</leafValues></_></weakClassifiers></_>
    <!-- stage 6 -->
    <_>
      <maxWeakCount>12</maxWeakCount>
      <stageThreshold>-9.3182808160781860e-01</stageThreshold>
      <weakClassifiers>
        <_>
          <internalNodes>
            0 -1 3 -1.1671999841928482e-01</internalNodes>
          <leafValues>
            8.9637303352355957e-01 4.4481053948402405e-02</leafValues></_>
        <_>
          <internalNodes>
            0 -1 86 5.3537753410637379e-04</internalNodes>
          <leafValues>
            -4.0316072106361389e-01 3.3008402585983276e-01</leafValues></_>
        <_>
          <internalNodes>
            0 -1 171 1.9870142568834126e-04</internalNodes>
          <leafValues>
            -1.9236747920513153e-01 6.1843693256378174e-01</leafValues></_>
        <_>
          <internalNodes>
            0 -1 171 -2.1200125047471374e-04</internalNodes>
          <leafValues>
            6.9603222608566284e-01 -2.1051245927810669e-01</leafValues></_>
        <_>
          <internalNodes>
            0 -1 124 7.0819584652781487e-04</internalNodes>
          <leafValues>
            1.3767570257186890e-01 -8.3167618513107300e-01</leafValues></_>
        <_>
          <internalNodes>
            0 -1 93 3.0283763771876693e-04</internalNodes>
          <leafValues>
            -6.7850816249847412e-01 1.6821040213108063e-01</leafValues></_>
        <_>
          <internalNodes>
            0 -1 95 8.3111040294170380e-04</internalNodes>
          <leafValues>
            1.2091881036758423e-01 -8.8680428266525269e-01</leafValues></_>
        <_>
          <internalNodes>
            0 -1 186 4.4137256918475032e-04</internalNodes>
          <leafValues>
            -1.7499028146266937e-01 7.8556442260742188e-01</leafValues></_>
        <_>
          <internalNodes>
            0 -1 200 1.8683921371120960e-04</internalNodes>
          <leafValues>
            -1.7142924666404724e-01 7.8664070367813110e-01</leafValues></_>
        <_>
          <internalNodes>
            0 -1 97 -3.0845089349895716e-03</internalNodes>
          <leafValues>
            5.8470416069030762e-01 -1.7103324830532074e-01</leafValues></_>
        <_>
          <internalNodes>
            0 -1 17 1.2877452187240124e-02</internalNodes>
          <leafValues>
            -1.9989801943302155e-01 5.7486039400100708e-01</leafValues></_>
        <_>
          <internalNodes>
            0 -1 110 -1.2079775333404541e-03</internalNodes>
          <leafValues>
            -7.1409517526626587e-01 1.5619164705276489e-01</leafValues></_></weakClassifiers></_>
    <!-- stage 7 -->
    <_>
      <maxWeakCount>13</maxWeakCount>
      <stageThreshold>-9.2852872610092163e-01</stageThreshold>
      <weakClassifiers>
        <_>
          <internalNodes>
            0 -1 103 -1.0094777680933475e-03</internalNodes>
          <leafValues>
            -4.6590909361839294e-01 4.5192307233810425e-01</leafValues></_>
        <_>
          <internalNodes>
            0 -1 81 2.9415469616651535e-02</internalNodes>
          <leafValues>
            -2.1987515687942505e-01 6.9714236259460449e-01</leafValues></_>
        <_>
          <internalNodes>
            0 -1 141 2.5751045905053616e-04</internalNodes>
          <leafValues>
            -8.4494483470916748e-01 1.8324285745620728e-01</leafValues></_>
        <_>
          <internalNodes>
            0 -1 44 -4.6925229253247380e-04</internalNodes>
          <leafValues>
            6.4304268360137939e-01 -2.0335364341735840e-01</leafValues></_>
        <_>
          <internalNodes>
            0 -1 172 9.7926385933533311e-05</internalNodes>
          <leafValues>
            -3.0669084191322327e-01 3.6785870790481567e-01</leafValues></_>
        <_>
          <internalNodes>
            0 -1 23 1.1481593828648329e-03</internalNodes>
          <leafValues>
            2.9440441727638245e-01 -4.0417665243148804e-01</leafValues></_>
        <_>
          <internalNodes>
            0 -1 182 -5.9367221547290683e-04</internalNodes>
          <leafValues>
            8.1228220462799072e-01 -1.6142560541629791e-01</leafValues></_>
        <_>
          <internalNodes>
            0 -1 79 -7.0333725307136774e-04</internalNodes>
          <leafValues>
            -6.3045096397399902e-01 2.1420083940029144e-01</leafValues></_>
        <_>
          <internalNodes>
            0 -1 179 -1.3539142673835158e-04</internalNodes>
          <leafValues>
            5.3933894634246826e-01 -2.2695885598659515e-01</leafValues></_>
        <_>
          <internalNodes>
            0 -1 179 1.4775941963307559e-04</internalNodes>
          <leafValues>
            -1.6062934696674347e-01 6.7519265413284302e-01</leafValues></_>
        <_>
          <internalNodes>
            0 -1 116 4.7500701621174812e-03</internalNodes>
          <leafValues>
            1.5808476507663727e-01 -8.3646452426910400e-01</leafValues></_>
        <_>
          <internalNodes>
            0 -1 13 9.6618838142603636e-04</internalNodes>
          <leafValues>
            -1.7145586013793945e-01 7.4761366844177246e-01</leafValues></_>
        <_>
          <internalNodes>
            0 -1 121 -5.0523062236607075e-04</internalNodes>
          <leafValues>
            -8.9761281013488770e-01 1.3783678412437439e-01</leafValues></_></weakClassifiers></_>
    <!-- stage 8 -->
    <_>
      <maxWeakCount>13</maxWeakCount>
      <stageThreshold>-8.9377683401107788e-01</stageThreshold>
      <weakClassifiers>
        <_>
          <internalNodes>
            0 -1 169 4.7986698336899281e-04</internalNodes>
          <leafValues>
            -8.2614056766033173e-02 5.9188848733901978e-01</leafValues></_>
        <_>
          <internalNodes>
            0 -1 24 4.3018278665840626e-03</internalNodes>
          <leafValues>
            -1.4108419418334961e-01 6.8234807252883911e-01</leafValues></_>
        <_>
          <internalNodes>
            0 -1 42 -5.2469701040536165e-04</internalNodes>
          <leafValues>
            4.6715638041496277e-01 -2.3132976889610291e-01</leafValues></_>
        <_>
          <internalNodes>
            0 -1 201 -5.0955399638041854e-04</internalNodes>
          <leafValues>
            7.1993863582611084e-01 -1.5169301629066467e-01</leafValues></_>
        <_>
          <internalNodes>
            0 -1 118 1.1367860715836287e-03</internalNodes>
          <leafValues>
            1.3146716356277466e-01 -8.0780750513076782e-01</leafValues></_>
        <_>
          <internalNodes>
            0 -1 174 7.7096658060327172e-05</internalNodes>
          <leafValues>
            -2.6477059721946716e-01 4.2795887589454651e-01</leafValues></_>
        <_>
          <internalNodes>
            0 -1 62 1.1308786633890122e-04</internalNodes>
          <leafValues>
            -3.9733988046646118e-01 3.1542077660560608e-01</leafValues></_>
        <_>
          <internalNodes>
            0 -1 53 -1.9355595111846924e-02</internalNodes>
          <leafValues>
            7.6768541336059570e-01 -1.5605418384075165e-01</leafValues></_>
        <_>
          <internalNodes>
            0 -1 20 3.7314064684323967e-04</internalNodes>
          <leafValues>
            -1.5550260245800018e-01 6.2614351511001587e-01</leafValues></_>
        <_>
          <internalNodes>
            0 -1 186 5.7045859284698963e-04</internalNodes>
          <leafValues>
            -1.1538621038198471e-01 7.9114478826522827e-01</leafValues></_>
        <_>
          <internalNodes>
            0 -1 160 2.6560687729215715e-06</internalNodes>
          <leafValues>
            -4.7875881195068359e-01 2.4536319077014923e-01</leafValues></_>
        <_>
          <internalNodes>
            0 -1 78 -4.6749693865422159e-05</internalNodes>
          <leafValues>
            1.4018079638481140e-01 -7.6111686229705811e-01</leafValues></_>
        <_>
          <internalNodes>
            0 -1 196 -4.8811762826517224e-04</internalNodes>
          <leafValues>
            3.9424443244934082e-01 -2.7277570962905884e-01</leafValues></_></weakClassifiers></_>
    <!-- stage 9 -->
    <_>
      <maxWeakCount>15</maxWeakCount>
      <stageThreshold>-9.1926699876785278e-01</stageThreshold>
      <weakClassifiers>
        <_>
          <internalNodes>
            0 -1 9 -1.6921201348304749e-01</internalNodes>
          <leafValues>
            8.6005830764770508e-01 8.3532221615314484e-02</leafValues></_>
        <_>
          <internalNodes>
            0 -1 80 2.2750546122551896e-06</internalNodes>
          <leafValues>
            -5.1278769969940186e-01 2.4060995876789093e-01</leafValues></_>
        <_>
          <internalNodes>
            0 -1 31 4.5415299246087670e-04</internalNodes>
          <leafValues>
            -1.4577020704746246e-01 7.1867406368255615e-01</leafValues></_>
        <_>
          <internalNodes>
            0 -1 16 -4.5148713979870081e-04</internalNodes>
          <leafValues>
            5.2859008312225342e-01 -2.0185679197311401e-01</leafValues></_>
        <_>
          <internalNodes>
            0 -1 139 -1.9775971304625273e-04</internalNodes>
          <leafValues>
            -7.2529798746109009e-01 1.5151816606521606e-01</leafValues></_>
        <_>
          <internalNodes>
            0 -1 38 5.6079914793372154e-04</internalNodes>
          <leafValues>
            -1.3242976367473602e-01 7.9215669631958008e-01</leafValues></_>
        <_>
          <internalNodes>
            0 -1 206 -8.3769159391522408e-04</internalNodes>
          <leafValues>
            7.2932380437850952e-01 -1.1200914531946182e-01</leafValues></_>
        <_>
          <internalNodes>
            0 -1 202 2.9923988040536642e-04</internalNodes>
          <leafValues>
            -1.1250566691160202e-01 7.5030088424682617e-01</leafValues></_>
        <_>
          <internalNodes>
            0 -1 170 -2.0745482470374554e-04</internalNodes>
          <leafValues>
            6.3928502798080444e-01 -1.4029408991336823e-01</leafValues></_>
        <_>
          <internalNodes>
            0 -1 137 7.2733929846435785e-04</internalNodes>
          <leafValues>
            1.5540042519569397e-01 -7.3318910598754883e-01</leafValues></_>
        <_>
          <internalNodes>
            0 -1 181 -3.6145321791991591e-04</internalNodes>
          <leafValues>
            5.1947754621505737e-01 -2.1295961737632751e-01</leafValues></_>
        <_>
          <internalNodes>
            0 -1 34 -1.5502684982493520e-04</internalNodes>
          <leafValues>
            7.7476382255554199e-01 -1.3131597638130188e-01</leafValues></_>
        <_>
          <internalNodes>
            0 -1 159 5.5990800319705158e-05</internalNodes>
          <leafValues>
            -4.7104918956756592e-01 2.3397082090377808e-01</leafValues></_>
        <_>
          <internalNodes>
            0 -1 168 5.1564447858254425e-06</internalNodes>
          <leafValues>
            -5.7142198085784912e-01 1.8297204375267029e-01</leafValues></_>
        <_>
          <internalNodes>
            0 -1 191 -2.8746438329108059e-04</internalNodes>
          <leafValues>
            4.8778513073921204e-01 -2.4330179393291473e-01</leafValues></_></weakClassifiers></_>
    <!-- stage 10 -->
    <_>
      <maxWeakCount>13</maxWeakCount>
      <stageThreshold>-8.6017012596130371e-01</stageThreshold>
      <weakClassifiers>
        <_>
          <internalNodes>
            0 -1 114 1.1667733633657917e-04</internalNodes>
          <leafValues>
            -8.0263155698776245e-01 3.6049723625183105e-01</leafValues></_>
        <_>
          <internalNodes>
            0 -1 55 -1.4342051930725574e-02</internalNodes>
          <leafValues>
            6.3257396221160889e-01 -1.7891411483287811e-01</leafValues></_>
        <_>
          <internalNodes>
            0 -1 193 4.7293753596022725e-04</internalNodes>
          <leafValues>
            -2.0624324679374695e-01 5.7277268171310425e-01</leafValues></_>
        <_>
          <internalNodes>
            0 -1 194 -4.0175742469727993e-04</internalNodes>
          <leafValues>
            7.2684943675994873e-01 -1.4662611484527588e-01</leafValues></_>
        <_>
          <internalNodes>
            0 -1 45 -5.2635686006397009e-04</internalNodes>
          <leafValues>
            7.3470938205718994e-01 -1.1635286360979080e-01</leafValues></_>
        <_>
          <internalNodes>
            0 -1 112 -1.2312359176576138e-03</internalNodes>
          <leafValues>
            -8.6720448732376099e-01 1.3555824756622314e-01</leafValues></_>
        <_>
          <internalNodes>
            0 -1 85 2.1852697245776653e-03</internalNodes>
          <leafValues>
            -3.0380532145500183e-01 3.3464425802230835e-01</leafValues></_>
        <_>
          <internalNodes>
            0 -1 90 -1.0116836056113243e-03</internalNodes>
          <leafValues>
            -6.5773576498031616e-01 1.8113110959529877e-01</leafValues></_>
        <_>
          <internalNodes>
            0 -1 180 1.2679339852184057e-04</internalNodes>
          <leafValues>
            -2.7727317810058594e-01 3.8622200489044189e-01</leafValues></_>
        <_>
          <internalNodes>
            0 -1 120 -5.9047865215688944e-04</internalNodes>
          <leafValues>
            -9.3613749742507935e-01 1.0175271332263947e-01</leafValues></_>
        <_>
          <internalNodes>
            0 -1 47 -3.8843648508191109e-04</internalNodes>
          <leafValues>
            5.5755788087844849e-01 -2.0826540887355804e-01</leafValues></_>
        <_>
          <internalNodes>
            0 -1 152 7.2040820668917149e-06</internalNodes>
          <leafValues>
            -8.9655584096908569e-01 1.3083191215991974e-01</leafValues></_>
        <_>
          <internalNodes>
            0 -1 70 5.8454961981624365e-04</internalNodes>
          <leafValues>
            1.6717253625392914e-01 -5.1890718936920166e-01</leafValues></_></weakClassifiers></_>
    <!-- stage 11 -->
    <_>
      <maxWeakCount>15</maxWeakCount>
      <stageThreshold>-8.2069355249404907e-01</stageThreshold>
      <weakClassifiers>
        <_>
          <internalNodes>
            0 -1 7 -1.8508908152580261e-01</internalNodes>
          <leafValues>
            7.4020618200302124e-01 3.6771301180124283e-02</leafValues></_>
        <_>
          <internalNodes>
            0 -1 59 1.1993660882581025e-04</internalNodes>
          <leafValues>
            -2.1188102662563324e-01 4.4670876860618591e-01</leafValues></_>
        <_>
          <internalNodes>
            0 -1 19 1.2148811947554350e-03</internalNodes>
          <leafValues>
            -2.7021369338035583e-01 4.0831324458122253e-01</leafValues></_>
        <_>
          <internalNodes>
            0 -1 51 7.3156261350959539e-05</internalNodes>
          <leafValues>
            -2.7142775058746338e-01 4.0780320763587952e-01</leafValues></_>
        <_>
          <internalNodes>
            0 -1 138 1.8445376190356910e-04</internalNodes>
          <leafValues>
            2.2638031840324402e-01 -4.9256870150566101e-01</leafValues></_>
        <_>
          <internalNodes>
            0 -1 40 -1.7036654055118561e-02</internalNodes>
          <leafValues>
            -9.1984200477600098e-01 1.2900944054126740e-01</leafValues></_>
        <_>
          <internalNodes>
            0 -1 49 2.8369302162900567e-04</internalNodes>
          <leafValues>
            -1.8556617200374603e-01 5.4580426216125488e-01</leafValues></_>
        <_>
          <internalNodes>
            0 -1 72 1.1999206617474556e-03</internalNodes>
          <leafValues>
            -6.7267799377441406e-01 1.3640312850475311e-01</leafValues></_>
        <_>
          <internalNodes>
            0 -1 71 -4.4650267227552831e-04</internalNodes>
          <leafValues>
            5.1601278781890869e-01 -2.0469796657562256e-01</leafValues></_>
        <_>
          <internalNodes>
            0 -1 128 -2.4030865170061588e-03</internalNodes>
          <leafValues>
            -8.6474555730819702e-01 1.4768129587173462e-01</leafValues></_>
        <_>
          <internalNodes>
            0 -1 144 2.3949559545144439e-04</internalNodes>
          <leafValues>
            -1.9912898540496826e-01 5.8445280790328979e-01</leafValues></_>
        <_>
          <internalNodes>
            0 -1 177 6.9577152316924185e-05</internalNodes>
          <leafValues>
            -2.5726702809333801e-01 4.2209118604660034e-01</leafValues></_>
        <_>
          <internalNodes>
            0 -1 15 4.2053595185279846e-02</internalNodes>
          <leafValues>
            -1.2200559675693512e-01 8.0917727947235107e-01</leafValues></_>
        <_>
          <internalNodes>
            0 -1 82 2.7015797793865204e-02</internalNodes>
          <leafValues>
            -1.8696025013923645e-01 5.6976133584976196e-01</leafValues></_>
        <_>
          <internalNodes>
            0 -1 135 -3.0515261460095644e-04</internalNodes>
          <leafValues>
            -8.2348030805587769e-01 1.3021360337734222e-01</leafValues></_></weakClassifiers></_>
    <!-- stage 12 -->
    <_>
      <maxWeakCount>18</maxWeakCount>
      <stageThreshold>-7.6947909593582153e-01</stageThreshold>
      <weakClassifiers>
        <_>
          <internalNodes>
            0 -1 148 -3.3090569078922272e-02</internalNodes>
          <leafValues>
            7.3360657691955566e-01 3.7769783288240433e-02</leafValues></_>
        <_>
          <internalNodes>
            0 -1 66 -1.0543141979724169e-03</internalNodes>
          <leafValues>
            4.7204762697219849e-01 -1.8809834122657776e-01</leafValues></_>
        <_>
          <internalNodes>
            0 -1 65 2.5584600865840912e-02</internalNodes>
          <leafValues>
            -2.0483072102069855e-01 6.0305017232894897e-01</leafValues></_>
        <_>
          <internalNodes>
            0 -1 14 2.8510615229606628e-02</internalNodes>
          <leafValues>
            -1.3747726380825043e-01 5.4617410898208618e-01</leafValues></_>
        <_>
          <internalNodes>
            0 -1 37 -5.4674193961545825e-04</internalNodes>
          <leafValues>
            5.3961294889450073e-01 -1.7052152752876282e-01</leafValues></_>
        <_>
          <internalNodes>
            0 -1 87 6.1806524172425270e-04</internalNodes>
          <leafValues>
            1.2349816411733627e-01 -7.6076143980026245e-01</leafValues></_>
        <_>
          <internalNodes>
            0 -1 108 -2.0741925109177828e-03</internalNodes>
          <leafValues>
            -7.3494875431060791e-01 8.2566648721694946e-02</leafValues></_>
        <_>
          <internalNodes>
            0 -1 163 1.4488719170913100e-04</internalNodes>
          <leafValues>
            -2.1086212992668152e-01 4.7688162326812744e-01</leafValues></_>
        <_>
          <internalNodes>
            0 -1 165 -3.0730839353054762e-04</internalNodes>
          <leafValues>
            5.7513928413391113e-01 -1.4765581488609314e-01</leafValues></_>
        <_>
          <internalNodes>
            0 -1 125 1.0178375523537397e-03</internalNodes>
          <leafValues>
            1.1166092008352280e-01 -8.5122442245483398e-01</leafValues></_>
        <_>
          <internalNodes>
            0 -1 185 9.9952201708219945e-05</internalNodes>
          <leafValues>
            -1.9078205525875092e-01 5.3806501626968384e-01</leafValues></_>
        <_>
          <internalNodes>
            0 -1 187 2.5105624808929861e-04</internalNodes>
          <leafValues>
            -1.5711881220340729e-01 6.1500436067581177e-01</leafValues></_>
        <_>
          <internalNodes>
            0 -1 127 2.8777503757737577e-04</internalNodes>
          <leafValues>
            -6.4337235689163208e-01 1.6392162442207336e-01</leafValues></_>
        <_>
          <internalNodes>
            0 -1 190 2.4438981199637055e-04</internalNodes>
          <leafValues>
            -1.7837013304233551e-01 5.8314812183380127e-01</leafValues></_>
        <_>
          <internalNodes>
            0 -1 101 -1.2693929020315409e-03</internalNodes>
          <leafValues>
            -4.9121746420860291e-01 2.0286598801612854e-01</leafValues></_>
        <_>
          <internalNodes>
            0 -1 57 -6.0227542417123914e-04</internalNodes>
          <leafValues>
            4.6439337730407715e-01 -2.0971766114234924e-01</leafValues></_>
        <_>
          <internalNodes>
            0 -1 142 -2.2495785378850996e-04</internalNodes>
          <leafValues>
            -9.4295126199722290e-01 1.2585546076297760e-01</leafValues></_>
        <_>
          <internalNodes>
            0 -1 29 -5.5097450967878103e-04</internalNodes>
          <leafValues>
            3.8837435841560364e-01 -2.7968043088912964e-01</leafValues></_></weakClassifiers></_>
    <!-- stage 13 -->
    <_>
      <maxWeakCount>17</maxWeakCount>
      <stageThreshold>-8.1098896265029907e-01</stageThreshold>
      <weakClassifiers>
        <_>
          <internalNodes>
            0 -1 88 4.5455723011400551e-05</internalNodes>
          <leafValues>
            -6.9325155019760132e-01 3.5699373483657837e-01</leafValues></_>
        <_>
          <internalNodes>
            0 -1 10 -1.1495429277420044e-01</internalNodes>
          <leafValues>
            7.2598439455032349e-01 -1.0358183830976486e-01</leafValues></_>
        <_>
          <internalNodes>
            0 -1 184 5.4888275917619467e-04</internalNodes>
          <leafValues>
            -1.4501284062862396e-01 7.8776484727859497e-01</leafValues></_>
        <_>
          <internalNodes>
            0 -1 192 1.9756819528993219e-04</internalNodes>
          <leafValues>
            -1.4561259746551514e-01 6.4532107114791870e-01</leafValues></_>
        <_>
          <internalNodes>
            0 -1 192 -2.5703239953145385e-04</internalNodes>
          <leafValues>
            7.1744757890701294e-01 -1.5164950489997864e-01</leafValues></_>
        <_>
          <internalNodes>
            0 -1 136 -2.7230522391619161e-05</internalNodes>
          <leafValues>
            -9.2036980390548706e-01 1.1149579286575317e-01</leafValues></_>
        <_>
          <internalNodes>
            0 -1 183 -3.2100861426442862e-04</internalNodes>
          <leafValues>
            5.1836258172988892e-01 -1.9026425480842590e-01</leafValues></_>
        <_>
          <internalNodes>
            0 -1 33 -3.2939383527263999e-04</internalNodes>
          <leafValues>
            4.7987055778503418e-01 -1.6005317866802216e-01</leafValues></_>
        <_>
          <internalNodes>
            0 -1 26 2.8247907175682485e-04</internalNodes>
          <leafValues>
            -1.5878415107727051e-01 5.0904184579849243e-01</leafValues></_>
        <_>
          <internalNodes>
            0 -1 134 1.3869180111214519e-04</internalNodes>
          <leafValues>
            1.1077089607715607e-01 -7.4352413415908813e-01</leafValues></_>
        <_>
          <internalNodes>
            0 -1 69 1.1840473162010312e-03</internalNodes>
          <leafValues>
            1.7260584235191345e-01 -4.3535828590393066e-01</leafValues></_>
        <_>
          <internalNodes>
            0 -1 107 -3.1773393857292831e-04</internalNodes>
          <leafValues>
            -8.4553492069244385e-01 9.9286012351512909e-02</leafValues></_>
        <_>
          <internalNodes>
            0 -1 156 2.2324704332277179e-04</internalNodes>
          <leafValues>
            -1.7566685378551483e-01 5.1717394590377808e-01</leafValues></_>
        <_>
          <internalNodes>
            0 -1 75 -6.1728511354885995e-05</internalNodes>
          <leafValues>
            -5.2932888269424438e-01 1.5400591492652893e-01</leafValues></_>
        <_>
          <internalNodes>
            0 -1 190 4.5280624181032181e-04</internalNodes>
          <leafValues>
            -1.1391185969114304e-01 7.9798823595046997e-01</leafValues></_>
        <_>
          <internalNodes>
            0 -1 67 -1.1444143019616604e-03</internalNodes>
          <leafValues>
            3.4852299094200134e-01 -2.2302220761775970e-01</leafValues></_>
        <_>
          <internalNodes>
            0 -1 153 2.5840537273325026e-04</internalNodes>
          <leafValues>
            -1.4880760014057159e-01 4.9428269267082214e-01</leafValues></_></weakClassifiers></_>
    <!-- stage 14 -->
    <_>
      <maxWeakCount>15</maxWeakCount>
      <stageThreshold>-6.2849742174148560e-01</stageThreshold>
      <weakClassifiers>
        <_>
          <internalNodes>
            0 -1 143 6.0470643802545965e-05</internalNodes>
          <leafValues>
            -9.3814432621002197e-01 3.2667997479438782e-01</leafValues></_>
        <_>
          <internalNodes>
            0 -1 0 -3.1085897237062454e-02</internalNodes>
          <leafValues>
            6.2690496444702148e-01 -1.5262399613857269e-01</leafValues></_>
        <_>
          <internalNodes>
            0 -1 145 -1.0464296792633832e-04</internalNodes>
          <leafValues>
            4.7859042882919312e-01 -1.8851992487907410e-01</leafValues></_>
        <_>
          <internalNodes>
            0 -1 146 2.9441737569868565e-04</internalNodes>
          <leafValues>
            -1.7733547091484070e-01 5.6642287969589233e-01</leafValues></_>
        <_>
          <internalNodes>
            0 -1 162 1.4158747944748029e-05</internalNodes>
          <leafValues>
            -8.3019387722015381e-01 1.1682415008544922e-01</leafValues></_>
        <_>
          <internalNodes>
            0 -1 199 5.0181557890027761e-04</internalNodes>
          <leafValues>
            -1.7356464266777039e-01 6.3562899827957153e-01</leafValues></_>
        <_>
          <internalNodes>
            0 -1 147 -1.7659968580119312e-04</internalNodes>
          <leafValues>
            4.3860423564910889e-01 -1.7467521131038666e-01</leafValues></_>
        <_>
          <internalNodes>
            0 -1 155 -2.1020991880504880e-06</internalNodes>
          <leafValues>
            3.2689389586448669e-01 -2.4487233161926270e-01</leafValues></_>
        <_>
          <internalNodes>
            0 -1 100 -1.9826784264296293e-03</internalNodes>
          <leafValues>
            -8.2076060771942139e-01 9.0797342360019684e-02</leafValues></_>
        <_>
          <internalNodes>
            0 -1 96 -7.8532350016757846e-04</internalNodes>
          <leafValues>
            -5.8696264028549194e-01 1.3522395491600037e-01</leafValues></_>
        <_>
          <internalNodes>
            0 -1 157 -2.5017195730470121e-04</internalNodes>
          <leafValues>
            4.4550123810768127e-01 -2.3134070634841919e-01</leafValues></_>
        <_>
          <internalNodes>
            0 -1 84 1.1716571170836687e-03</internalNodes>
          <leafValues>
            2.0151306688785553e-01 -4.5531061291694641e-01</leafValues></_>
        <_>
          <internalNodes>
            0 -1 63 2.1450646272569429e-06</internalNodes>
          <leafValues>
            -2.8598189353942871e-01 2.8600940108299255e-01</leafValues></_>
        <_>
          <internalNodes>
            0 -1 158 -2.0921661052852869e-04</internalNodes>
          <leafValues>
            3.2788378000259399e-01 -2.7875760197639465e-01</leafValues></_>
        <_>
          <internalNodes>
            0 -1 207 -3.8809527177363634e-04</internalNodes>
          <leafValues>
            7.6010125875473022e-01 -1.0855413973331451e-01</leafValues></_></weakClassifiers></_>
    <!-- stage 15 -->
    <_>
      <maxWeakCount>15</maxWeakCount>
      <stageThreshold>-5.1594978570938110e-01</stageThreshold>
      <weakClassifiers>
        <_>
          <internalNodes>
            0 -1 1 -5.1994543522596359e-02</internalNodes>
          <leafValues>
            6.7557251453399658e-01 4.2750928550958633e-02</leafValues></_>
        <_>
          <internalNodes>
            0 -1 52 -7.4690458131954074e-04</internalNodes>
          <leafValues>
            7.1343576908111572e-01 -9.2279471457004547e-02</leafValues></_>
        <_>
          <internalNodes>
            0 -1 39 1.1592817027121782e-03</internalNodes>
          <leafValues>
            -1.0083070397377014e-01 7.9405200481414795e-01</leafValues></_>
        <_>
          <internalNodes>
            0 -1 150 -1.6093028534669429e-04</internalNodes>
          <leafValues>
            -8.5344678163528442e-01 9.8209314048290253e-02</leafValues></_>
        <_>
          <internalNodes>
            0 -1 46 6.0609274078160524e-04</internalNodes>
          <leafValues>
            -1.7643502354621887e-01 5.2370911836624146e-01</leafValues></_>
        <_>
          <internalNodes>
            0 -1 25 -5.3790106903761625e-04</internalNodes>
          <leafValues>
            4.9382060766220093e-01 -1.6025093197822571e-01</leafValues></_>
        <_>
          <internalNodes>
            0 -1 2 1.4615848660469055e-02</internalNodes>
          <leafValues>
            1.8947511911392212e-01 -5.0414955615997314e-01</leafValues></_>
        <_>
          <internalNodes>
            0 -1 105 -8.7764294585213065e-04</internalNodes>
          <leafValues>
            -8.8893491029739380e-01 7.1347028017044067e-02</leafValues></_>
        <_>
          <internalNodes>
            0 -1 43 5.4412952158600092e-04</internalNodes>
          <leafValues>
            -1.9536887109279633e-01 4.6573349833488464e-01</leafValues></_>
        <_>
          <internalNodes>
            0 -1 56 -7.3768459260463715e-03</internalNodes>
          <leafValues>
            -4.2445433139801025e-01 1.9808413088321686e-01</leafValues></_>
        <_>
          <internalNodes>
            0 -1 98 1.6565287951380014e-03</internalNodes>
          <leafValues>
            1.3681150972843170e-01 -7.5347727537155151e-01</leafValues></_>
        <_>
          <internalNodes>
            0 -1 41 3.1964387744665146e-04</internalNodes>
          <leafValues>
            -2.1745161712169647e-01 4.2747923731803894e-01</leafValues></_>
        <_>
          <internalNodes>
            0 -1 32 2.8349214699119329e-03</internalNodes>
          <leafValues>
            -1.5719678997993469e-01 5.5249571800231934e-01</leafValues></_>
        <_>
          <internalNodes>
            0 -1 68 1.3169879093766212e-03</internalNodes>
          <leafValues>
            -3.2908591628074646e-01 3.4800672531127930e-01</leafValues></_>
        <_>
          <internalNodes>
            0 -1 122 -1.3165939890313894e-05</internalNodes>
          <leafValues>
            2.2301131486892700e-01 -4.1699689626693726e-01</leafValues></_></weakClassifiers></_>
    <!-- stage 16 -->
    <_>
      <maxWeakCount>19</maxWeakCount>
      <stageThreshold>-8.8078707456588745e-01</stageThreshold>
      <weakClassifiers>
        <_>
          <internalNodes>
            0 -1 133 5.5252271704375744e-04</internalNodes>
          <leafValues>
            -2.2762148082256317e-01 4.0446650981903076e-01</leafValues></_>
        <_>
          <internalNodes>
            0 -1 204 2.5467621162533760e-04</internalNodes>
          <leafValues>
            -1.1925314366817474e-01 6.5131026506423950e-01</leafValues></_>
        <_>
          <internalNodes>
            0 -1 22 -1.4488865435123444e-01</internalNodes>
          <leafValues>
            5.0329560041427612e-01 -1.7321461439132690e-01</leafValues></_>
        <_>
          <internalNodes>
            0 -1 195 6.9722475018352270e-04</internalNodes>
          <leafValues>
            -1.4012473821640015e-01 6.0456854104995728e-01</leafValues></_>
        <_>
          <internalNodes>
            0 -1 129 -1.9979377157142153e-06</internalNodes>
          <leafValues>
            2.7893513441085815e-01 -3.1219500303268433e-01</leafValues></_>
        <_>
          <internalNodes>
            0 -1 184 3.5908276913687587e-04</internalNodes>
          <leafValues>
            -1.4052285254001617e-01 5.8859914541244507e-01</leafValues></_>
        <_>
          <internalNodes>
            0 -1 126 1.6874834545888007e-04</internalNodes>
          <leafValues>
            1.0929021239280701e-01 -9.0259855985641479e-01</leafValues></_>
        <_>
          <internalNodes>
            0 -1 64 -2.1201992407441139e-02</internalNodes>
          <leafValues>
            7.1387702226638794e-01 -1.3711509108543396e-01</leafValues></_>
        <_>
          <internalNodes>
            0 -1 30 -7.3217379394918680e-04</internalNodes>
          <leafValues>
            5.2484887838363647e-01 -1.3849799335002899e-01</leafValues></_>
        <_>
          <internalNodes>
            0 -1 58 7.7656481880694628e-04</internalNodes>
          <leafValues>
            -1.4909146726131439e-01 5.2336460351943970e-01</leafValues></_>
        <_>
          <internalNodes>
            0 -1 119 -1.8804934807121754e-03</internalNodes>
          <leafValues>
            -5.4278266429901123e-01 1.6893380880355835e-01</leafValues></_>
        <_>
          <internalNodes>
            0 -1 197 2.4430151097476482e-04</internalNodes>
          <leafValues>
            -1.9787552952766418e-01 4.3409562110900879e-01</leafValues></_>
        <_>
          <internalNodes>
            0 -1 73 -1.7377170734107494e-03</internalNodes>
          <leafValues>
            -4.5435076951980591e-01 1.7796190083026886e-01</leafValues></_>
        <_>
          <internalNodes>
            0 -1 131 -2.3135088849812746e-04</internalNodes>
          <leafValues>
            3.7866622209548950e-01 -2.2714777290821075e-01</leafValues></_>
        <_>
          <internalNodes>
            0 -1 21 1.2642018496990204e-02</internalNodes>
          <leafValues>
            -1.5046600997447968e-01 5.6010061502456665e-01</leafValues></_>
        <_>
          <internalNodes>
            0 -1 113 9.8607037216424942e-04</internalNodes>
          <leafValues>
            1.2188934534788132e-01 -8.0416506528854370e-01</leafValues></_>
        <_>
          <internalNodes>
            0 -1 164 -1.0091107833432034e-04</internalNodes>
          <leafValues>
            5.5067610740661621e-01 -1.5688528120517731e-01</leafValues></_>
        <_>
          <internalNodes>
            0 -1 132 5.2098004380241036e-04</internalNodes>
          <leafValues>
            1.0222903639078140e-01 -8.8677716255187988e-01</leafValues></_>
        <_>
          <internalNodes>
            0 -1 205 1.5453567903023213e-04</internalNodes>
          <leafValues>
            -1.9534198939800262e-01 4.4290959835052490e-01</leafValues></_></weakClassifiers></_>
    <!-- stage 17 -->
    <_>
      <maxWeakCount>20</maxWeakCount>
      <stageThreshold>-8.0010527372360229e-01</stageThreshold>
      <weakClassifiers>
        <_>
          <internalNodes>
            0 -1 12 -1.1362583935260773e-01</internalNodes>
          <leafValues>
            7.8947371244430542e-01 9.2816784977912903e-02</leafValues></_>
        <_>
          <internalNodes>
            0 -1 48 1.6066480893641710e-03</internalNodes>
          <leafValues>
            -1.5728782117366791e-01 3.8631480932235718e-01</leafValues></_>
        <_>
          <internalNodes>
            0 -1 18 3.6280478816479445e-03</internalNodes>
          <leafValues>
            -2.0521183311939240e-01 4.1985106468200684e-01</leafValues></_>
        <_>
          <internalNodes>
            0 -1 61 -2.6180991881119553e-06</internalNodes>
          <leafValues>
            -3.0504015088081360e-01 2.5007483363151550e-01</leafValues></_>
        <_>
          <internalNodes>
            0 -1 60 1.6591686289757490e-03</internalNodes>
          <leafValues>
            -1.5979732573032379e-01 6.0365927219390869e-01</leafValues></_>
        <_>
          <internalNodes>
            0 -1 50 3.4634703770279884e-03</internalNodes>
          <leafValues>
            -7.7077202498912811e-02 6.9774460792541504e-01</leafValues></_>
        <_>
          <internalNodes>
            0 -1 102 -6.9871509913355112e-04</internalNodes>
          <leafValues>
            -6.7097467184066772e-01 9.6786424517631531e-02</leafValues></_>
        <_>
          <internalNodes>
            0 -1 166 1.1932200868614018e-04</internalNodes>
          <leafValues>
            -3.6890575289726257e-01 2.1219517290592194e-01</leafValues></_>
        <_>
          <internalNodes>
            0 -1 149 1.4312940184026957e-03</internalNodes>
          <leafValues>
            1.0297242552042007e-01 -7.1675014495849609e-01</leafValues></_>
        <_>
          <internalNodes>
            0 -1 27 -3.3362742397002876e-04</internalNodes>
          <leafValues>
            4.5244941115379333e-01 -1.9397367537021637e-01</leafValues></_>
        <_>
          <internalNodes>
            0 -1 28 -1.6607327386736870e-02</internalNodes>
          <leafValues>
            5.0847756862640381e-01 -1.3557218015193939e-01</leafValues></_>
        <_>
          <internalNodes>
            0 -1 173 4.6752981143072248e-04</internalNodes>
          <leafValues>
            -8.9840613305568695e-02 7.6833581924438477e-01</leafValues></_>
        <_>
          <internalNodes>
            0 -1 175 6.1731552705168724e-04</internalNodes>
          <leafValues>
            -1.1312175542116165e-01 6.7888540029525757e-01</leafValues></_>
        <_>
          <internalNodes>
            0 -1 198 4.1528939618729055e-04</internalNodes>
          <leafValues>
            -1.2206834554672241e-01 5.7947236299514771e-01</leafValues></_>
        <_>
          <internalNodes>
            0 -1 35 4.6876526903361082e-04</internalNodes>
          <leafValues>
            2.2106078267097473e-01 -3.5803848505020142e-01</leafValues></_>
        <_>
          <internalNodes>
            0 -1 130 1.8335408531129360e-03</internalNodes>
          <leafValues>
            9.6634723246097565e-02 -6.4671826362609863e-01</leafValues></_>
        <_>
          <internalNodes>
            0 -1 178 -1.6739038983359933e-04</internalNodes>
          <leafValues>
            5.2788352966308594e-01 -1.4676901698112488e-01</leafValues></_>
        <_>
          <internalNodes>
            0 -1 83 -1.7055908218026161e-02</internalNodes>
          <leafValues>
            7.0092338323593140e-01 -9.1212235391139984e-02</leafValues></_>
        <_>
          <internalNodes>
            0 -1 54 -3.8036459591239691e-04</internalNodes>
          <leafValues>
            -5.6265801191329956e-01 1.5662364661693573e-01</leafValues></_>
        <_>
          <internalNodes>
            0 -1 104 -1.7183887539431453e-03</internalNodes>
          <leafValues>
            -7.7478122711181641e-01 7.9259477555751801e-02</leafValues></_></weakClassifiers></_></stages>
  <features>
    <_>
      <rects>
        <_>
          1 18 54 2 -1.</_>
        <_>
          19 18 18 2 3.</_></rects>
      <tilted>0</tilted></_>
    <_>
      <rects>
        <_>
          3 0 32 22 -1.</_>
        <_>
          3 0 16 11 2.</_>
        <_>
          19 11 16 11 2.</_></rects>
      <tilted>0</tilted></_>
    <_>
      <rects>
        <_>
          9 0 33 7 -1.</_>
        <_>
          20 0 11 7 3.</_></rects>
      <tilted>0</tilted></_>
    <_>
      <rects>
        <_>
          9 19 42 10 -1.</_>
        <_>
          23 19 14 10 3.</_></rects>
      <tilted>0</tilted></_>
    <_>
      <rects>
        <_>
          10 0 20 24 -1.</_>
        <_>
          10 0 10 12 2.</_>
        <_>
          20 12 10 12 2.</_></rects>
      <tilted>0</tilted></_>
    <_>
      <rects>
        <_>
          10 2 22 16 -1.</_>
        <_>
          10 2 11 8 2.</_>
        <_>
          21 10 11 8 2.</_></rects>
      <tilted>0</tilted></_>
    <_>
      <rects>
        <_>
          10 27 22 20 -1.</_>
        <_>
          10 27 11 10 2.</_>
        <_>
          21 37 11 10 2.</_></rects>
      <tilted>0</tilted></_>
    <_>
      <rects>
        <_>
          11 10 36 24 -1.</_>
        <_>
          23 10 12 24 3.</_></rects>
      <tilted>0</tilted></_>
    <_>
      <rects>
        <_>
          12 6 34 41 -1.</_>
        <_>
          29 6 17 41 2.</_></rects>
      <tilted>0</tilted></_>
    <_>
      <rects>
        <_>
          12 17 36 16 -1.</_>
        <_>
          24 17 12 16 3.</_></rects>
      <tilted>0</tilted></_>
    <_>
      <rects>
        <_>
          12 22 36 10 -1.</_>
        <_>
          24 22 12 10 3.</_></rects>
      <tilted>0</tilted></_>
    <_>
      <rects>
        <_>
          13 16 30 17 -1.</_>
        <_>
          23 16 10 17 3.</_></rects>
      <tilted>0</tilted></_>
    <_>
      <rects>
        <_>
          14 22 30 11 -1.</_>
        <_>
          24 22 10 11 3.</_></rects>
      <tilted>0</tilted></_>
    <_>
      <rects>
        <_>
          15 23 11 3 -1.</_>
        <_>
          15 24 11 1 3.</_></rects>
      <tilted>0</tilted></_>
    <_>
      <rects>
        <_>
          16 22 14 26 -1.</_>
        <_>
          16 22 7 13 2.</_>
        <_>
          23 35 7 13 2.</_></rects>
      <tilted>0</tilted></_>
    <_>
      <rects>
        <_>
          16 22 27 13 -1.</_>
        <_>
          25 22 9 13 3.</_></rects>
      <tilted>0</tilted></_>
    <_>
      <rects>
        <_>
          17 22 8 3 -1.</_>
        <_>
          17 23 8 1 3.</_></rects>
      <tilted>0</tilted></_>
    <_>
      <rects>
        <_>
          18 3 25 15 -1.</_>
        <_>
          18 8 25 5 3.</_></rects>
      <tilted>0</tilted></_>
    <_>
      <rects>
        <_>
          18 13 9 8 -1.</_>
        <_>
          21 13 3 8 3.</_></rects>
      <tilted>0</tilted></_>
    <_>
      <rects>
        <_>
          18 18 9 3 -1.</_>
        <_>
          21 18 3 3 3.</_></rects>
      <tilted>0</tilted></_>
    <_>
      <rects>
        <_>
          18 22 7 3 -1.</_>
        <_>
          18 23 7 1 3.</_></rects>
      <tilted>0</tilted></_>
    <_>
      <rects>
        <_>
          18 33 18 12 -1.</_>
        <_>
          18 37 18 4 3.</_></rects>
      <tilted>0</tilted></_>
    <_>
      <rects>
        <_>
          19 0 34 45 -1.</_>
        <_>
          19 15 34 15 3.</_></rects>
      <tilted>0</tilted></_>
    <_>
      <rects>
        <_>
          19 7 26 1 -1.</_>
        <_>
          32 7 13 1 2.</_></rects>
      <tilted>0</tilted></_>
    <_>
      <rects>
        <_>
          19 17 5 15 -1.</_>
        <_>
          19 22 5 5 3.</_></rects>
      <tilted>0</tilted></_>
    <_>
      <rects>
        <_>
          19 18 9 3 -1.</_>
        <_>
          19 19 9 1 3.</_></rects>
      <tilted>0</tilted></_>
    <_>
      <rects>
        <_>
          19 24 6 3 -1.</_>
        <_>
          19 25 6 1 3.</_></rects>
      <tilted>0</tilted></_>
    <_>
      <rects>
        <_>
          19 27 5 3 -1.</_>
        <_>
          19 28 5 1 3.</_></rects>
      <tilted>0</tilted></_>
    <_>
      <rects>
        <_>
          20 4 16 18 -1.</_>
        <_>
          20 10 16 6 3.</_></rects>
      <tilted>0</tilted></_>
    <_>
      <rects>
        <_>
          20 14 14 3 -1.</_>
        <_>
          20 15 14 1 3.</_></rects>
      <tilted>0</tilted></_>
    <_>
      <rects>
        <_>
          20 16 11 3 -1.</_>
        <_>
          20 17 11 1 3.</_></rects>
      <tilted>0</tilted></_>
    <_>
      <rects>
        <_>
          20 22 3 3 -1.</_>
        <_>
          20 23 3 1 3.</_></rects>
      <tilted>0</tilted></_>
    <_>
      <rects>
        <_>
          20 23 9 10 -1.</_>
        <_>
          23 23 3 10 3.</_></rects>
      <tilted>0</tilted></_>
    <_>
      <rects>
        <_>
          20 24 5 3 -1.</_>
        <_>
          20 25 5 1 3.</_></rects>
      <tilted>0</tilted></_>
    <_>
      <rects>
        <_>
          20 25 2 2 -1.</_>
        <_>
          20 25 1 1 2.</_>
        <_>
          21 26 1 1 2.</_></rects>
      <tilted>0</tilted></_>
    <_>
      <rects>
        <_>
          20 43 6 3 -1.</_>
        <_>
          23 43 3 3 2.</_></rects>
      <tilted>0</tilted></_>
    <_>
      <rects>
        <_>
          21 0 11 48 -1.</_>
        <_>
          21 16 11 16 3.</_></rects>
      <tilted>0</tilted></_>
    <_>
      <rects>
        <_>
          21 13 11 3 -1.</_>
        <_>
          21 14 11 1 3.</_></rects>
      <tilted>0</tilted></_>
    <_>
      <rects>
        <_>
          21 16 2 6 -1.</_>
        <_>
          21 16 1 3 2.</_>
        <_>
          22 19 1 3 2.</_></rects>
      <tilted>0</tilted></_>
    <_>
      <rects>
        <_>
          21 18 8 3 -1.</_>
        <_>
          21 19 8 1 3.</_></rects>
      <tilted>0</tilted></_>
    <_>
      <rects>
        <_>
          21 19 19 12 -1.</_>
        <_>
          21 25 19 6 2.</_></rects>
      <tilted>0</tilted></_>
    <_>
      <rects>
        <_>
          21 21 2 8 -1.</_>
        <_>
          21 21 1 4 2.</_>
        <_>
          22 25 1 4 2.</_></rects>
      <tilted>0</tilted></_>
    <_>
      <rects>
        <_>
          21 21 4 6 -1.</_>
        <_>
          21 23 4 2 3.</_></rects>
      <tilted>0</tilted></_>
    <_>
      <rects>
        <_>
          21 22 1 9 -1.</_>
        <_>
          21 25 1 3 3.</_></rects>
      <tilted>0</tilted></_>
    <_>
      <rects>
        <_>
          21 23 3 3 -1.</_>
        <_>
          22 23 1 3 3.</_></rects>
      <tilted>0</tilted></_>
    <_>
      <rects>
        <_>
          21 23 2 3 -1.</_>
        <_>
          21 24 2 1 3.</_></rects>
      <tilted>0</tilted></_>
    <_>
      <rects>
        <_>
          21 23 4 4 -1.</_>
        <_>
          21 23 2 2 2.</_>
        <_>
          23 25 2 2 2.</_></rects>
      <tilted>0</tilted></_>
    <_>
      <rects>
        <_>
          21 24 3 3 -1.</_>
        <_>
          21 25 3 1 3.</_></rects>
      <tilted>0</tilted></_>
    <_>
      <rects>
        <_>
          22 13 6 7 -1.</_>
        <_>
          25 13 3 7 2.</_></rects>
      <tilted>0</tilted></_>
    <_>
      <rects>
        <_>
          22 14 6 2 -1.</_>
        <_>
          22 14 3 1 2.</_>
        <_>
          25 15 3 1 2.</_></rects>
      <tilted>0</tilted></_>
    <_>
      <rects>
        <_>
          22 18 1 21 -1.</_>
        <_>
          22 25 1 7 3.</_></rects>
      <tilted>0</tilted></_>
    <_>
      <rects>
        <_>
          22 20 4 1 -1.</_>
        <_>
          24 20 2 1 2.</_></rects>
      <tilted>0</tilted></_>
    <_>
      <rects>
        <_>
          22 23 2 8 -1.</_>
        <_>
          22 23 1 4 2.</_>
        <_>
          23 27 1 4 2.</_></rects>
      <tilted>0</tilted></_>
    <_>
      <rects>
        <_>
          22 29 15 15 -1.</_>
        <_>
          22 34 15 5 3.</_></rects>
      <tilted>0</tilted></_>
    <_>
      <rects>
        <_>
          22 43 6 1 -1.</_>
        <_>
          25 43 3 1 2.</_></rects>
      <tilted>0</tilted></_>
    <_>
      <rects>
        <_>
          23 3 5 16 -1.</_>
        <_>
          23 11 5 8 2.</_></rects>
      <tilted>0</tilted></_>
    <_>
      <rects>
        <_>
          23 14 11 18 -1.</_>
        <_>
          23 20 11 6 3.</_></rects>
      <tilted>0</tilted></_>
    <_>
      <rects>
        <_>
          23 15 10 3 -1.</_>
        <_>
          23 16 10 1 3.</_></rects>
      <tilted>0</tilted></_>
    <_>
      <rects>
        <_>
          23 16 12 3 -1.</_>
        <_>
          23 17 12 1 3.</_></rects>
      <tilted>0</tilted></_>
    <_>
      <rects>
        <_>
          23 19 4 1 -1.</_>
        <_>
          25 19 2 1 2.</_></rects>
      <tilted>0</tilted></_>
    <_>
      <rects>
        <_>
          23 21 6 8 -1.</_>
        <_>
          23 21 3 4 2.</_>
        <_>
          26 25 3 4 2.</_></rects>
      <tilted>0</tilted></_>
    <_>
      <rects>
        <_>
          23 22 4 1 -1.</_>
        <_>
          25 22 2 1 2.</_></rects>
      <tilted>0</tilted></_>
    <_>
      <rects>
        <_>
          23 22 6 1 -1.</_>
        <_>
          26 22 3 1 2.</_></rects>
      <tilted>0</tilted></_>
    <_>
      <rects>
        <_>
          23 26 2 2 -1.</_>
        <_>
          24 26 1 2 2.</_></rects>
      <tilted>0</tilted></_>
    <_>
      <rects>
        <_>
          23 30 14 15 -1.</_>
        <_>
          23 35 14 5 3.</_></rects>
      <tilted>0</tilted></_>
    <_>
      <rects>
        <_>
          24 0 11 24 -1.</_>
        <_>
          24 12 11 12 2.</_></rects>
      <tilted>0</tilted></_>
    <_>
      <rects>
        <_>
          24 9 8 6 -1.</_>
        <_>
          24 11 8 2 3.</_></rects>
      <tilted>0</tilted></_>
    <_>
      <rects>
        <_>
          24 9 13 6 -1.</_>
        <_>
          24 11 13 2 3.</_></rects>
      <tilted>0</tilted></_>
    <_>
      <rects>
        <_>
          24 25 6 6 -1.</_>
        <_>
          27 25 3 6 2.</_></rects>
      <tilted>0</tilted></_>
    <_>
      <rects>
        <_>
          24 41 12 2 -1.</_>
        <_>
          30 41 6 2 2.</_></rects>
      <tilted>0</tilted></_>
    <_>
      <rects>
        <_>
          25 0 12 1 -1.</_>
        <_>
          31 0 6 1 2.</_></rects>
      <tilted>0</tilted></_>
    <_>
      <rects>
        <_>
          25 14 6 3 -1.</_>
        <_>
          25 15 6 1 3.</_></rects>
      <tilted>0</tilted></_>
    <_>
      <rects>
        <_>
          25 15 10 6 -1.</_>
        <_>
          30 15 5 6 2.</_></rects>
      <tilted>0</tilted></_>
    <_>
      <rects>
        <_>
          25 18 12 4 -1.</_>
        <_>
          29 18 4 4 3.</_></rects>
      <tilted>0</tilted></_>
    <_>
      <rects>
        <_>
          25 21 6 1 -1.</_>
        <_>
          28 21 3 1 2.</_></rects>
      <tilted>0</tilted></_>
    <_>
      <rects>
        <_>
          25 22 2 3 -1.</_>
        <_>
          26 22 1 3 2.</_></rects>
      <tilted>0</tilted></_>
    <_>
      <rects>
        <_>
          25 22 4 2 -1.</_>
        <_>
          27 22 2 2 2.</_></rects>
      <tilted>0</tilted></_>
    <_>
      <rects>
        <_>
          25 22 9 3 -1.</_>
        <_>
          28 22 3 3 3.</_></rects>
      <tilted>0</tilted></_>
    <_>
      <rects>
        <_>
          25 22 9 5 -1.</_>
        <_>
          28 22 3 5 3.</_></rects>
      <tilted>0</tilted></_>
    <_>
      <rects>
        <_>
          25 23 9 1 -1.</_>
        <_>
          28 23 3 1 3.</_></rects>
      <tilted>0</tilted></_>
    <_>
      <rects>
        <_>
          25 24 4 2 -1.</_>
        <_>
          27 24 2 2 2.</_></rects>
      <tilted>0</tilted></_>
    <_>
      <rects>
        <_>
          25 25 7 22 -1.</_>
        <_>
          25 36 7 11 2.</_></rects>
      <tilted>0</tilted></_>
    <_>
      <rects>
        <_>
          25 28 11 20 -1.</_>
        <_>
          25 38 11 10 2.</_></rects>
      <tilted>0</tilted></_>
    <_>
      <rects>
        <_>
          25 29 9 18 -1.</_>
        <_>
          25 38 9 9 2.</_></rects>
      <tilted>0</tilted></_>
    <_>
      <rects>
        <_>
          26 3 10 3 -1.</_>
        <_>
          31 3 5 3 2.</_></rects>
      <tilted>0</tilted></_>
    <_>
      <rects>
        <_>
          26 10 11 9 -1.</_>
        <_>
          26 13 11 3 3.</_></rects>
      <tilted>0</tilted></_>
    <_>
      <rects>
        <_>
          26 19 10 8 -1.</_>
        <_>
          26 19 5 4 2.</_>
        <_>
          31 23 5 4 2.</_></rects>
      <tilted>0</tilted></_>
    <_>
      <rects>
        <_>
          26 20 5 12 -1.</_>
        <_>
          26 24 5 4 3.</_></rects>
      <tilted>0</tilted></_>
    <_>
      <rects>
        <_>
          26 21 4 3 -1.</_>
        <_>
          28 21 2 3 2.</_></rects>
      <tilted>0</tilted></_>
    <_>
      <rects>
        <_>
          26 22 6 2 -1.</_>
        <_>
          29 22 3 2 2.</_></rects>
      <tilted>0</tilted></_>
    <_>
      <rects>
        <_>
          26 22 9 2 -1.</_>
        <_>
          29 22 3 2 3.</_></rects>
      <tilted>0</tilted></_>
    <_>
      <rects>
        <_>
          26 23 2 2 -1.</_>
        <_>
          27 23 1 2 2.</_></rects>
      <tilted>0</tilted></_>
    <_>
      <rects>
        <_>
          26 23 4 1 -1.</_>
        <_>
          28 23 2 1 2.</_></rects>
      <tilted>0</tilted></_>
    <_>
      <rects>
        <_>
          26 23 6 1 -1.</_>
        <_>
          29 23 3 1 2.</_></rects>
      <tilted>0</tilted></_>
    <_>
      <rects>
        <_>
          26 26 6 1 -1.</_>
        <_>
          29 26 3 1 2.</_></rects>
      <tilted>0</tilted></_>
    <_>
      <rects>
        <_>
          26 26 5 6 -1.</_>
        <_>
          26 28 5 2 3.</_></rects>
      <tilted>0</tilted></_>
    <_>
      <rects>
        <_>
          26 26 6 6 -1.</_>
        <_>
          26 28 6 2 3.</_></rects>
      <tilted>0</tilted></_>
    <_>
      <rects>
        <_>
          27 6 7 9 -1.</_>
        <_>
          27 9 7 3 3.</_></rects>
      <tilted>0</tilted></_>
    <_>
      <rects>
        <_>
          27 15 5 8 -1.</_>
        <_>
          27 19 5 4 2.</_></rects>
      <tilted>0</tilted></_>
    <_>
      <rects>
        <_>
          27 20 5 9 -1.</_>
        <_>
          27 23 5 3 3.</_></rects>
      <tilted>0</tilted></_>
    <_>
      <rects>
        <_>
          27 21 9 4 -1.</_>
        <_>
          30 21 3 4 3.</_></rects>
      <tilted>0</tilted></_>
    <_>
      <rects>
        <_>
          27 21 6 10 -1.</_>
        <_>
          27 21 3 5 2.</_>
        <_>
          30 26 3 5 2.</_></rects>
      <tilted>0</tilted></_>
    <_>
      <rects>
        <_>
          27 21 8 6 -1.</_>
        <_>
          27 21 4 3 2.</_>
        <_>
          31 24 4 3 2.</_></rects>
      <tilted>0</tilted></_>
    <_>
      <rects>
        <_>
          27 21 8 8 -1.</_>
        <_>
          27 21 4 4 2.</_>
        <_>
          31 25 4 4 2.</_></rects>
      <tilted>0</tilted></_>
    <_>
      <rects>
        <_>
          27 21 5 9 -1.</_>
        <_>
          27 24 5 3 3.</_></rects>
      <tilted>0</tilted></_>
    <_>
      <rects>
        <_>
          27 22 6 2 -1.</_>
        <_>
          29 22 2 2 3.</_></rects>
      <tilted>0</tilted></_>
    <_>
      <rects>
        <_>
          27 22 8 5 -1.</_>
        <_>
          31 22 4 5 2.</_></rects>
      <tilted>0</tilted></_>
    <_>
      <rects>
        <_>
          27 22 6 3 -1.</_>
        <_>
          27 23 6 1 3.</_></rects>
      <tilted>0</tilted></_>
    <_>
      <rects>
        <_>
          27 22 7 9 -1.</_>
        <_>
          27 25 7 3 3.</_></rects>
      <tilted>0</tilted></_>
    <_>
      <rects>
        <_>
          27 23 4 2 -1.</_>
        <_>
          29 23 2 2 2.</_></rects>
      <tilted>0</tilted></_>
    <_>
      <rects>
        <_>
          27 23 4 9 -1.</_>
        <_>
          27 26 4 3 3.</_></rects>
      <tilted>0</tilted></_>
    <_>
      <rects>
        <_>
          27 23 8 8 -1.</_>
        <_>
          31 23 4 8 2.</_></rects>
      <tilted>0</tilted></_>
    <_>
      <rects>
        <_>
          27 23 5 6 -1.</_>
        <_>
          27 25 5 2 3.</_></rects>
      <tilted>0</tilted></_>
    <_>
      <rects>
        <_>
          27 23 5 9 -1.</_>
        <_>
          27 26 5 3 3.</_></rects>
      <tilted>0</tilted></_>
    <_>
      <rects>
        <_>
          27 24 4 2 -1.</_>
        <_>
          29 24 2 2 2.</_></rects>
      <tilted>0</tilted></_>
    <_>
      <rects>
        <_>
          27 25 6 1 -1.</_>
        <_>
          30 25 3 1 2.</_></rects>
      <tilted>0</tilted></_>
    <_>
      <rects>
        <_>
          28 16 9 8 -1.</_>
        <_>
          28 20 9 4 2.</_></rects>
      <tilted>0</tilted></_>
    <_>
      <rects>
        <_>
          28 20 4 6 -1.</_>
        <_>
          28 22 4 2 3.</_></rects>
      <tilted>0</tilted></_>
    <_>
      <rects>
        <_>
          28 20 4 12 -1.</_>
        <_>
          28 24 4 4 3.</_></rects>
      <tilted>0</tilted></_>
    <_>
      <rects>
        <_>
          28 20 6 12 -1.</_>
        <_>
          28 24 6 4 3.</_></rects>
      <tilted>0</tilted></_>
    <_>
      <rects>
        <_>
          28 21 4 6 -1.</_>
        <_>
          28 23 4 2 3.</_></rects>
      <tilted>0</tilted></_>
    <_>
      <rects>
        <_>
          28 21 5 6 -1.</_>
        <_>
          28 23 5 2 3.</_></rects>
      <tilted>0</tilted></_>
    <_>
      <rects>
        <_>
          28 21 5 12 -1.</_>
        <_>
          28 25 5 4 3.</_></rects>
      <tilted>0</tilted></_>
    <_>
      <rects>
        <_>
          28 22 4 2 -1.</_>
        <_>
          30 22 2 2 2.</_></rects>
      <tilted>0</tilted></_>
    <_>
      <rects>
        <_>
          28 22 6 3 -1.</_>
        <_>
          30 22 2 3 3.</_></rects>
      <tilted>0</tilted></_>
    <_>
      <rects>
        <_>
          28 22 6 4 -1.</_>
        <_>
          30 22 2 4 3.</_></rects>
      <tilted>0</tilted></_>
    <_>
      <rects>
        <_>
          28 22 3 2 -1.</_>
        <_>
          28 23 3 1 2.</_></rects>
      <tilted>0</tilted></_>
    <_>
      <rects>
        <_>
          28 23 4 2 -1.</_>
        <_>
          30 23 2 2 2.</_></rects>
      <tilted>0</tilted></_>
    <_>
      <rects>
        <_>
          28 23 6 9 -1.</_>
        <_>
          28 26 6 3 3.</_></rects>
      <tilted>0</tilted></_>
    <_>
      <rects>
        <_>
          28 24 1 2 -1.</_>
        <_>
          28 25 1 1 2.</_></rects>
      <tilted>0</tilted></_>
    <_>
      <rects>
        <_>
          29 12 2 21 -1.</_>
        <_>
          29 19 2 7 3.</_></rects>
      <tilted>0</tilted></_>
    <_>
      <rects>
        <_>
          29 14 3 7 -1.</_>
        <_>
          30 14 1 7 3.</_></rects>
      <tilted>0</tilted></_>
    <_>
      <rects>
        <_>
          29 19 2 6 -1.</_>
        <_>
          29 21 2 2 3.</_></rects>
      <tilted>0</tilted></_>
    <_>
      <rects>
        <_>
          29 19 8 2 -1.</_>
        <_>
          33 19 4 2 2.</_></rects>
      <tilted>0</tilted></_>
    <_>
      <rects>
        <_>
          29 20 1 4 -1.</_>
        <_>
          29 22 1 2 2.</_></rects>
      <tilted>0</tilted></_>
    <_>
      <rects>
        <_>
          29 20 4 6 -1.</_>
        <_>
          29 22 4 2 3.</_></rects>
      <tilted>0</tilted></_>
    <_>
      <rects>
        <_>
          29 21 2 3 -1.</_>
        <_>
          30 21 1 3 2.</_></rects>
      <tilted>0</tilted></_>
    <_>
      <rects>
        <_>
          29 21 4 6 -1.</_>
        <_>
          29 23 4 2 3.</_></rects>
      <tilted>0</tilted></_>
    <_>
      <rects>
        <_>
          29 21 4 9 -1.</_>
        <_>
          29 24 4 3 3.</_></rects>
      <tilted>0</tilted></_>
    <_>
      <rects>
        <_>
          29 22 3 2 -1.</_>
        <_>
          30 22 1 2 3.</_></rects>
      <tilted>0</tilted></_>
    <_>
      <rects>
        <_>
          29 22 2 3 -1.</_>
        <_>
          29 23 2 1 3.</_></rects>
      <tilted>0</tilted></_>
    <_>
      <rects>
        <_>
          29 22 4 2 -1.</_>
        <_>
          31 22 2 2 2.</_></rects>
      <tilted>0</tilted></_>
    <_>
      <rects>
        <_>
          29 23 2 2 -1.</_>
        <_>
          29 24 2 1 2.</_></rects>
      <tilted>0</tilted></_>
    <_>
      <rects>
        <_>
          29 24 4 1 -1.</_>
        <_>
          31 24 2 1 2.</_></rects>
      <tilted>0</tilted></_>
    <_>
      <rects>
        <_>
          29 26 2 6 -1.</_>
        <_>
          29 26 1 3 2.</_>
        <_>
          30 29 1 3 2.</_></rects>
      <tilted>0</tilted></_>
    <_>
      <rects>
        <_>
          29 27 3 1 -1.</_>
        <_>
          30 27 1 1 3.</_></rects>
      <tilted>0</tilted></_>
    <_>
      <rects>
        <_>
          29 27 3 2 -1.</_>
        <_>
          30 27 1 2 3.</_></rects>
      <tilted>0</tilted></_>
    <_>
      <rects>
        <_>
          29 28 3 2 -1.</_>
        <_>
          30 28 1 2 3.</_></rects>
      <tilted>0</tilted></_>
    <_>
      <rects>
        <_>
          30 0 6 48 -1.</_>
        <_>
          30 16 6 16 3.</_></rects>
      <tilted>0</tilted></_>
    <_>
      <rects>
        <_>
          30 19 3 9 -1.</_>
        <_>
          30 22 3 3 3.</_></rects>
      <tilted>0</tilted></_>
    <_>
      <rects>
        <_>
          30 21 3 1 -1.</_>
        <_>
          31 21 1 1 3.</_></rects>
      <tilted>0</tilted></_>
    <_>
      <rects>
        <_>
          30 21 2 2 -1.</_>
        <_>
          31 21 1 2 2.</_></rects>
      <tilted>0</tilted></_>
    <_>
      <rects>
        <_>
          30 21 2 3 -1.</_>
        <_>
          31 21 1 3 2.</_></rects>
      <tilted>0</tilted></_>
    <_>
      <rects>
        <_>
          30 23 2 10 -1.</_>
        <_>
          30 23 1 5 2.</_>
        <_>
          31 28 1 5 2.</_></rects>
      <tilted>0</tilted></_>
    <_>
      <rects>
        <_>
          30 23 4 1 -1.</_>
        <_>
          32 23 2 1 2.</_></rects>
      <tilted>0</tilted></_>
    <_>
      <rects>
        <_>
          30 24 6 1 -1.</_>
        <_>
          32 24 2 1 3.</_></rects>
      <tilted>0</tilted></_>
    <_>
      <rects>
        <_>
          30 27 2 10 -1.</_>
        <_>
          30 27 1 5 2.</_>
        <_>
          31 32 1 5 2.</_></rects>
      <tilted>0</tilted></_>
    <_>
      <rects>
        <_>
          30 29 3 2 -1.</_>
        <_>
          31 29 1 2 3.</_></rects>
      <tilted>0</tilted></_>
    <_>
      <rects>
        <_>
          31 16 4 6 -1.</_>
        <_>
          31 18 4 2 3.</_></rects>
      <tilted>0</tilted></_>
    <_>
      <rects>
        <_>
          31 19 2 9 -1.</_>
        <_>
          31 22 2 3 3.</_></rects>
      <tilted>0</tilted></_>
    <_>
      <rects>
        <_>
          31 20 3 4 -1.</_>
        <_>
          31 22 3 2 2.</_></rects>
      <tilted>0</tilted></_>
    <_>
      <rects>
        <_>
          31 21 2 2 -1.</_>
        <_>
          32 21 1 2 2.</_></rects>
      <tilted>0</tilted></_>
    <_>
      <rects>
        <_>
          31 21 2 3 -1.</_>
        <_>
          32 21 1 3 2.</_></rects>
      <tilted>0</tilted></_>
    <_>
      <rects>
        <_>
          31 25 2 4 -1.</_>
        <_>
          31 25 1 2 2.</_>
        <_>
          32 27 1 2 2.</_></rects>
      <tilted>0</tilted></_>
    <_>
      <rects>
        <_>
          31 27 2 2 -1.</_>
        <_>
          32 27 1 2 2.</_></rects>
      <tilted>0</tilted></_>
    <_>
      <rects>
        <_>
          31 27 3 2 -1.</_>
        <_>
          32 27 1 2 3.</_></rects>
      <tilted>0</tilted></_>
    <_>
      <rects>
        <_>
          32 20 2 6 -1.</_>
        <_>
          32 22 2 2 3.</_></rects>
      <tilted>0</tilted></_>
    <_>
      <rects>
        <_>
          32 21 2 3 -1.</_>
        <_>
          33 21 1 3 2.</_></rects>
      <tilted>0</tilted></_>
    <_>
      <rects>
        <_>
          32 23 2 1 -1.</_>
        <_>
          33 23 1 1 2.</_></rects>
      <tilted>0</tilted></_>
    <_>
      <rects>
        <_>
          32 24 4 2 -1.</_>
        <_>
          34 24 2 2 2.</_></rects>
      <tilted>0</tilted></_>
    <_>
      <rects>
        <_>
          32 27 3 1 -1.</_>
        <_>
          33 27 1 1 3.</_></rects>
      <tilted>0</tilted></_>
    <_>
      <rects>
        <_>
          32 29 3 1 -1.</_>
        <_>
          33 29 1 1 3.</_></rects>
      <tilted>0</tilted></_>
    <_>
      <rects>
        <_>
          33 21 2 2 -1.</_>
        <_>
          34 21 1 2 2.</_></rects>
      <tilted>0</tilted></_>
    <_>
      <rects>
        <_>
          33 22 3 1 -1.</_>
        <_>
          34 22 1 1 3.</_></rects>
      <tilted>0</tilted></_>
    <_>
      <rects>
        <_>
          34 19 2 1 -1.</_>
        <_>
          35 19 1 1 2.</_></rects>
      <tilted>0</tilted></_>
    <_>
      <rects>
        <_>
          34 22 3 1 -1.</_>
        <_>
          35 22 1 1 3.</_></rects>
      <tilted>0</tilted></_>
    <_>
      <rects>
        <_>
          34 22 2 2 -1.</_>
        <_>
          35 22 1 2 2.</_></rects>
      <tilted>0</tilted></_>
    <_>
      <rects>
        <_>
          34 23 2 1 -1.</_>
        <_>
          35 23 1 1 2.</_></rects>
      <tilted>0</tilted></_>
    <_>
      <rects>
        <_>
          34 24 2 2 -1.</_>
        <_>
          34 24 1 1 2.</_>
        <_>
          35 25 1 1 2.</_></rects>
      <tilted>0</tilted></_>
    <_>
      <rects>
        <_>
          34 25 2 2 -1.</_>
        <_>
          34 25 1 1 2.</_>
        <_>
          35 26 1 1 2.</_></rects>
      <tilted>0</tilted></_>
    <_>
      <rects>
        <_>
          34 26 3 1 -1.</_>
        <_>
          35 26 1 1 3.</_></rects>
      <tilted>0</tilted></_>
    <_>
      <rects>
        <_>
          34 26 5 3 -1.</_>
        <_>
          34 27 5 1 3.</_></rects>
      <tilted>0</tilted></_>
    <_>
      <rects>
        <_>
          35 18 3 2 -1.</_>
        <_>
          36 18 1 2 3.</_></rects>
      <tilted>0</tilted></_>
    <_>
      <rects>
        <_>
          35 18 2 4 -1.</_>
        <_>
          35 18 1 2 2.</_>
        <_>
          36 20 1 2 2.</_></rects>
      <tilted>0</tilted></_>
    <_>
      <rects>
        <_>
          35 21 3 1 -1.</_>
        <_>
          36 21 1 1 3.</_></rects>
      <tilted>0</tilted></_>
    <_>
      <rects>
        <_>
          35 23 2 2 -1.</_>
        <_>
          35 23 1 1 2.</_>
        <_>
          36 24 1 1 2.</_></rects>
      <tilted>0</tilted></_>
    <_>
      <rects>
        <_>
          35 24 3 1 -1.</_>
        <_>
          36 24 1 1 3.</_></rects>
      <tilted>0</tilted></_>
    <_>
      <rects>
        <_>
          35 24 2 2 -1.</_>
        <_>
          35 24 1 1 2.</_>
        <_>
          36 25 1 1 2.</_></rects>
      <tilted>0</tilted></_>
    <_>
      <rects>
        <_>
          35 24 2 4 -1.</_>
        <_>
          35 24 1 2 2.</_>
        <_>
          36 26 1 2 2.</_></rects>
      <tilted>0</tilted></_>
    <_>
      <rects>
        <_>
          35 25 3 1 -1.</_>
        <_>
          36 25 1 1 3.</_></rects>
      <tilted>0</tilted></_>
    <_>
      <rects>
        <_>
          35 25 2 2 -1.</_>
        <_>
          35 25 1 1 2.</_>
        <_>
          36 26 1 1 2.</_></rects>
      <tilted>0</tilted></_>
    <_>
      <rects>
        <_>
          35 25 4 3 -1.</_>
        <_>
          35 26 4 1 3.</_></rects>
      <tilted>0</tilted></_>
    <_>
      <rects>
        <_>
          35 26 2 2 -1.</_>
        <_>
          35 26 1 1 2.</_>
        <_>
          36 27 1 1 2.</_></rects>
      <tilted>0</tilted></_>
    <_>
      <rects>
        <_>
          35 26 3 2 -1.</_>
        <_>
          36 26 1 2 3.</_></rects>
      <tilted>0</tilted></_>
    <_>
      <rects>
        <_>
          35 27 3 1 -1.</_>
        <_>
          36 27 1 1 3.</_></rects>
      <tilted>0</tilted></_>
    <_>
      <rects>
        <_>
          35 28 3 2 -1.</_>
        <_>
          36 28 1 2 3.</_></rects>
      <tilted>0</tilted></_>
    <_>
      <rects>
        <_>
          36 9 1 30 -1.</_>
        <_>
          36 19 1 10 3.</_></rects>
      <tilted>0</tilted></_>
    <_>
      <rects>
        <_>
          36 20 2 2 -1.</_>
        <_>
          37 20 1 2 2.</_></rects>
      <tilted>0</tilted></_>
    <_>
      <rects>
        <_>
          36 21 2 4 -1.</_>
        <_>
          36 21 1 2 2.</_>
        <_>
          37 23 1 2 2.</_></rects>
      <tilted>0</tilted></_>
    <_>
      <rects>
        <_>
          36 23 3 1 -1.</_>
        <_>
          37 23 1 1 3.</_></rects>
      <tilted>0</tilted></_>
    <_>
      <rects>
        <_>
          36 23 2 2 -1.</_>
        <_>
          36 23 1 1 2.</_>
        <_>
          37 24 1 1 2.</_></rects>
      <tilted>0</tilted></_>
    <_>
      <rects>
        <_>
          36 23 2 4 -1.</_>
        <_>
          36 23 1 2 2.</_>
        <_>
          37 25 1 2 2.</_></rects>
      <tilted>0</tilted></_>
    <_>
      <rects>
        <_>
          36 24 2 2 -1.</_>
        <_>
          36 24 1 1 2.</_>
        <_>
          37 25 1 1 2.</_></rects>
      <tilted>0</tilted></_>
    <_>
      <rects>
        <_>
          36 25 3 1 -1.</_>
        <_>
          37 25 1 1 3.</_></rects>
      <tilted>0</tilted></_>
    <_>
      <rects>
        <_>
          36 25 2 2 -1.</_>
        <_>
          36 25 1 1 2.</_>
        <_>
          37 26 1 1 2.</_></rects>
      <tilted>0</tilted></_>
    <_>
      <rects>
        <_>
          36 26 2 2 -1.</_>
        <_>
          36 26 1 1 2.</_>
        <_>
          37 27 1 1 2.</_></rects>
      <tilted>0</tilted></_>
    <_>
      <rects>
        <_>
          37 19 2 6 -1.</_>
        <_>
          37 19 1 3 2.</_>
        <_>
          38 22 1 3 2.</_></rects>
      <tilted>0</tilted></_>
    <_>
      <rects>
        <_>
          37 22 1 3 -1.</_>
        <_>
          37 23 1 1 3.</_></rects>
      <tilted>0</tilted></_></features></cascade>
</opencv_storage>
