<?xml version="1.0"?>
<opencv_storage>
<stage16>
  <maxWeakCount>21</maxWeakCount>
  <stageThreshold>-1.1266620159149170e+00</stageThreshold>
  <weakClassifiers>
    <_>
      <internalNodes>
        0 -1 3570036 -1.8940701238534530e-06</internalNodes>
      <leafValues>
        -2.5700935721397400e-01 4.3515357375144958e-01</leafValues></_>
    <_>
      <internalNodes>
        0 -1 7106510 -3.7726315204054117e-03</internalNodes>
      <leafValues>
        7.6705431938171387e-01 -1.1003361642360687e-01</leafValues></_>
    <_>
      <internalNodes>
        0 -1 3035317 -4.5284722000360489e-03</internalNodes>
      <leafValues>
        7.9955720901489258e-01 -1.5976299345493317e-01</leafValues></_>
    <_>
      <internalNodes>
        0 -1 2545413 2.0671031961683184e-05</internalNodes>
      <leafValues>
        2.6719272136688232e-01 -3.9403408765792847e-01</leafValues></_>
    <_>
      <internalNodes>
        0 -1 6536028 2.1361969411373138e-02</internalNodes>
      <leafValues>
        -2.2310543060302734e-01 4.5437678694725037e-01</leafValues></_>
    <_>
      <internalNodes>
        0 -1 183575 -2.4668392725288868e-03</internalNodes>
      <leafValues>
        7.6251703500747681e-01 -1.7112463712692261e-01</leafValues></_>
    <_>
      <internalNodes>
        0 -1 7395614 -2.2014165297150612e-03</internalNodes>
      <leafValues>
        8.0619430541992188e-01 -3.5773966461420059e-02</leafValues></_>
    <_>
      <internalNodes>
        0 -1 7400922 2.7479403652250767e-03</internalNodes>
      <leafValues>
        -1.2435986101627350e-01 8.4349167346954346e-01</leafValues></_>
    <_>
      <internalNodes>
        0 -1 103293 -3.7444458484969800e-06</internalNodes>
      <leafValues>
        -3.4700125455856323e-01 2.3877596855163574e-01</leafValues></_>
    <_>
      <internalNodes>
        0 -1 7411331 -4.8226420767605305e-04</internalNodes>
      <leafValues>
        6.3836640119552612e-01 -1.4553374052047729e-01</leafValues></_>
    <_>
      <internalNodes>
        0 -1 266686 -1.8868031911551952e-03</internalNodes>
      <leafValues>
        7.4270427227020264e-01 -1.2092769145965576e-01</leafValues></_>
    <_>
      <internalNodes>
        0 -1 1533508 -1.4005129924044013e-04</internalNodes>
      <leafValues>
        2.9293808341026306e-01 -2.9162192344665527e-01</leafValues></_>
    <_>
      <internalNodes>
        0 -1 323476 8.0572115257382393e-04</internalNodes>
      <leafValues>
        -1.0902372747659683e-01 7.0663213729858398e-01</leafValues></_>
    <_>
      <internalNodes>
        0 -1 5559021 5.2324198186397552e-03</internalNodes>
      <leafValues>
        1.1946764588356018e-01 -8.9256364107131958e-01</leafValues></_>
    <_>
      <internalNodes>
        0 -1 6973036 -1.5057567507028580e-03</internalNodes>
      <leafValues>
        7.4882453680038452e-01 -1.5885336697101593e-01</leafValues></_>
    <_>
      <internalNodes>
        0 -1 3060213 3.0158800072968006e-03</internalNodes>
      <leafValues>
        1.4743526279926300e-01 -7.9945039749145508e-01</leafValues></_>
    <_>
      <internalNodes>
        0 -1 5008427 -5.5130175314843655e-04</internalNodes>
      <leafValues>
        3.4257155656814575e-01 -2.4306884407997131e-01</leafValues></_>
    <_>
      <internalNodes>
        0 -1 6923193 -1.8508968059904873e-04</internalNodes>
      <leafValues>
        4.2742615938186646e-01 -2.1340806782245636e-01</leafValues></_>
    <_>
      <internalNodes>
        0 -1 4253034 -7.2664357721805573e-03</internalNodes>
      <leafValues>
        5.5654293298721313e-01 -1.4064392447471619e-01</leafValues></_>
    <_>
      <internalNodes>
        0 -1 4568851 2.4046720936894417e-03</internalNodes>
      <leafValues>
        -2.1256028115749359e-01 4.4947552680969238e-01</leafValues></_>
    <_>
      <internalNodes>
        0 -1 3338650 1.7777906730771065e-02</internalNodes>
      <leafValues>
        1.1007671058177948e-01 -8.7040364742279053e-01</leafValues></_></weakClassifiers></stage16>
</opencv_storage>
