<?xml version="1.0"?>
<opencv_storage>
<stage9>
  <maxWeakCount>100</maxWeakCount>
  <stageThreshold>-3.0010154843330383e-01</stageThreshold>
  <weakClassifiers>
    <_>
      <internalNodes>
        0 -1 2721854 -2.3762368073221296e-05</internalNodes>
      <leafValues>
        7.9459458589553833e-01 -3.9234448224306107e-02</leafValues></_>
    <_>
      <internalNodes>
        0 -1 7531365 -1.3748598576057702e-05</internalNodes>
      <leafValues>
        6.5610754489898682e-01 -1.3636900484561920e-01</leafValues></_>
    <_>
      <internalNodes>
        0 -1 6245 1.4540731906890869e-02</internalNodes>
      <leafValues>
        6.5308749675750732e-02 -8.2929062843322754e-01</leafValues></_>
    <_>
      <internalNodes>
        0 -1 7351278 -9.3436930910684168e-05</internalNodes>
      <leafValues>
        5.1269775629043579e-01 -1.7230676114559174e-01</leafValues></_>
    <_>
      <internalNodes>
        0 -1 5919223 8.6406888440251350e-03</internalNodes>
      <leafValues>
        6.3266925513744354e-02 -9.3499630689620972e-01</leafValues></_>
    <_>
      <internalNodes>
        0 -1 7703612 -1.5594500582665205e-03</internalNodes>
      <leafValues>
        7.2082620859146118e-01 -8.7869852781295776e-02</leafValues></_>
    <_>
      <internalNodes>
        0 -1 3823567 -1.4344954863190651e-02</internalNodes>
      <leafValues>
        -9.4999206066131592e-01 5.7712677866220474e-02</leafValues></_>
    <_>
      <internalNodes>
        0 -1 467194 -3.6051524803042412e-03</internalNodes>
      <leafValues>
        8.6411619186401367e-01 -6.3661880791187286e-02</leafValues></_>
    <_>
      <internalNodes>
        0 -1 462273 -4.0664769709110260e-02</internalNodes>
      <leafValues>
        -8.8438165187835693e-01 7.4071615934371948e-02</leafValues></_>
    <_>
      <internalNodes>
        0 -1 637682 -1.7995333764702082e-03</internalNodes>
      <leafValues>
        8.3445936441421509e-01 -5.5963583290576935e-02</leafValues></_>
    <_>
      <internalNodes>
        0 -1 5273470 5.7811462320387363e-03</internalNodes>
      <leafValues>
        4.2233027517795563e-02 -8.8853019475936890e-01</leafValues></_>
    <_>
      <internalNodes>
        0 -1 6075776 1.3494051527231932e-03</internalNodes>
      <leafValues>
        -5.2312314510345459e-02 8.4679633378982544e-01</leafValues></_>
    <_>
      <internalNodes>
        0 -1 5497603 -3.5602365642262157e-06</internalNodes>
      <leafValues>
        -5.6272643804550171e-01 7.2774648666381836e-02</leafValues></_>
    <_>
      <internalNodes>
        0 -1 2814235 -2.0999143089284189e-05</internalNodes>
      <leafValues>
        6.6664379835128784e-01 -7.8857414424419403e-02</leafValues></_>
    <_>
      <internalNodes>
        0 -1 2146357 -4.7423418436665088e-06</internalNodes>
      <leafValues>
        -5.5549436807632446e-01 6.2482908368110657e-02</leafValues></_>
    <_>
      <internalNodes>
        0 -1 1265754 5.3688278421759605e-04</internalNodes>
      <leafValues>
        -3.6419142037630081e-02 8.3940273523330688e-01</leafValues></_>
    <_>
      <internalNodes>
        0 -1 2514935 2.6841131038963795e-03</internalNodes>
      <leafValues>
        -3.3515207469463348e-02 8.3206200599670410e-01</leafValues></_>
    <_>
      <internalNodes>
        0 -1 86451 2.5873351842164993e-02</internalNodes>
      <leafValues>
        3.8990616798400879e-02 -8.2271617650985718e-01</leafValues></_>
    <_>
      <internalNodes>
        0 -1 7469235 -3.9856955409049988e-03</internalNodes>
      <leafValues>
        7.4491363763809204e-01 -3.3474046736955643e-02</leafValues></_>
    <_>
      <internalNodes>
        0 -1 17584 8.9641660451889038e-03</internalNodes>
      <leafValues>
        2.6893073692917824e-02 -8.9470916986465454e-01</leafValues></_>
    <_>
      <internalNodes>
        0 -1 691726 2.9828981496393681e-03</internalNodes>
      <leafValues>
        -2.7143560349941254e-02 9.4838047027587891e-01</leafValues></_>
    <_>
      <internalNodes>
        0 -1 53098 -8.3957416936755180e-03</internalNodes>
      <leafValues>
        -8.7958472967147827e-01 2.9403852298855782e-02</leafValues></_>
    <_>
      <internalNodes>
        0 -1 3990407 -1.8950835801661015e-03</internalNodes>
      <leafValues>
        8.0424565076828003e-01 -3.0218316242098808e-02</leafValues></_>
    <_>
      <internalNodes>
        0 -1 3162343 -4.8124191380338743e-05</internalNodes>
      <leafValues>
        -6.5297222137451172e-01 3.6425203084945679e-02</leafValues></_>
    <_>
      <internalNodes>
        0 -1 2031720 -2.3039658553898335e-03</internalNodes>
      <leafValues>
        8.8101816177368164e-01 -1.4121151529252529e-02</leafValues></_>
    <_>
      <internalNodes>
        0 -1 5789208 3.8373426068574190e-03</internalNodes>
      <leafValues>
        1.5515048988163471e-02 -8.0530631542205811e-01</leafValues></_>
    <_>
      <internalNodes>
        0 -1 7412370 -5.8044004254043102e-04</internalNodes>
      <leafValues>
        7.4130141735076904e-01 -2.4316960945725441e-02</leafValues></_>
    <_>
      <internalNodes>
        0 -1 4873733 5.5599967017769814e-03</internalNodes>
      <leafValues>
        1.0960921645164490e-02 -8.1545197963714600e-01</leafValues></_>
    <_>
      <internalNodes>
        0 -1 6774468 9.1571471421048045e-04</internalNodes>
      <leafValues>
        -1.4058627188205719e-02 7.8307521343231201e-01</leafValues></_>
    <_>
      <internalNodes>
        0 -1 3504904 7.3140501044690609e-03</internalNodes>
      <leafValues>
        9.0286331251263618e-03 -9.4247239828109741e-01</leafValues></_>
    <_>
      <internalNodes>
        0 -1 7563647 8.5871375631541014e-04</internalNodes>
      <leafValues>
        -8.6064795032143593e-03 8.8460320234298706e-01</leafValues></_>
    <_>
      <internalNodes>
        0 -1 6727741 -3.5602365642262157e-06</internalNodes>
      <leafValues>
        -8.8526660203933716e-01 8.6271418258547783e-03</leafValues></_>
    <_>
      <internalNodes>
        0 -1 6780925 7.7295157825574279e-04</internalNodes>
      <leafValues>
        -5.2300030365586281e-03 8.7819504737854004e-01</leafValues></_>
    <_>
      <internalNodes>
        0 -1 6849376 2.2982878726907074e-04</internalNodes>
      <leafValues>
        6.9714151322841644e-04 -8.8976597785949707e-01</leafValues></_>
    <_>
      <internalNodes>
        0 -1 6849376 1.7781194765120745e-04</internalNodes>
      <leafValues>
        1.2488495558500290e-03 8.8901644945144653e-01</leafValues></_>
    <_>
      <internalNodes>
        0 -1 6849376 8.4659426647704095e-05</internalNodes>
      <leafValues>
        -1.4578631380572915e-03 -8.9178758859634399e-01</leafValues></_>
    <_>
      <internalNodes>
        0 -1 6849376 2.5839553927653469e-06</internalNodes>
      <leafValues>
        1.4214811380952597e-03 9.0583318471908569e-01</leafValues></_>
    <_>
      <internalNodes>
        0 -1 6849376 8.2075472164433450e-05</internalNodes>
      <leafValues>
        -2.0279169548302889e-03 -8.9462715387344360e-01</leafValues></_>
    <_>
      <internalNodes>
        0 -1 6849376 6.2382219766732305e-05</internalNodes>
      <leafValues>
        2.0279150921851397e-03 8.9117628335952759e-01</leafValues></_>
    <_>
      <internalNodes>
        0 -1 6849376 8.2075472164433450e-05</internalNodes>
      <leafValues>
        -2.2376745473593473e-03 -8.9271885156631470e-01</leafValues></_>
    <_>
      <internalNodes>
        0 -1 6849376 6.2382219766732305e-05</internalNodes>
      <leafValues>
        2.2376736160367727e-03 8.9149332046508789e-01</leafValues></_>
    <_>
      <internalNodes>
        0 -1 6849376 8.2075472164433450e-05</internalNodes>
      <leafValues>
        -2.2376736160367727e-03 -8.9246970415115356e-01</leafValues></_>
    <_>
      <internalNodes>
        0 -1 6849376 6.2382219766732305e-05</internalNodes>
      <leafValues>
        2.2376736160367727e-03 8.9109557867050171e-01</leafValues></_>
    <_>
      <internalNodes>
        0 -1 6849376 8.2075472164433450e-05</internalNodes>
      <leafValues>
        -2.0274291746318340e-03 -8.9218974113464355e-01</leafValues></_>
    <_>
      <internalNodes>
        0 -1 6849376 6.2382219766732305e-05</internalNodes>
      <leafValues>
        2.0274301059544086e-03 8.9191746711730957e-01</leafValues></_>
    <_>
      <internalNodes>
        0 -1 6849376 8.2075472164433450e-05</internalNodes>
      <leafValues>
        -2.0274301059544086e-03 -8.9213418960571289e-01</leafValues></_>
    <_>
      <internalNodes>
        0 -1 6849376 6.2382219766732305e-05</internalNodes>
      <leafValues>
        2.0274301059544086e-03 8.9136523008346558e-01</leafValues></_>
    <_>
      <internalNodes>
        0 -1 6849376 8.2075472164433450e-05</internalNodes>
      <leafValues>
        -2.0274301059544086e-03 -8.9197713136672974e-01</leafValues></_>
    <_>
      <internalNodes>
        0 -1 6849376 6.2382219766732305e-05</internalNodes>
      <leafValues>
        2.0274301059544086e-03 8.9208680391311646e-01</leafValues></_>
    <_>
      <internalNodes>
        0 -1 6849376 8.2075472164433450e-05</internalNodes>
      <leafValues>
        -2.0274301059544086e-03 -8.9199954271316528e-01</leafValues></_>
    <_>
      <internalNodes>
        0 -1 6849376 6.2382219766732305e-05</internalNodes>
      <leafValues>
        2.0274301059544086e-03 8.9206898212432861e-01</leafValues></_>
    <_>
      <internalNodes>
        0 -1 6849376 8.2075472164433450e-05</internalNodes>
      <leafValues>
        -2.0274301059544086e-03 -8.9201372861862183e-01</leafValues></_>
    <_>
      <internalNodes>
        0 -1 6849376 6.2382219766732305e-05</internalNodes>
      <leafValues>
        2.0274301059544086e-03 8.9205771684646606e-01</leafValues></_>
    <_>
      <internalNodes>
        0 -1 6849376 8.2075472164433450e-05</internalNodes>
      <leafValues>
        -2.0274301059544086e-03 -8.9202272891998291e-01</leafValues></_>
    <_>
      <internalNodes>
        0 -1 6849376 6.2382219766732305e-05</internalNodes>
      <leafValues>
        2.0274301059544086e-03 8.9205056428909302e-01</leafValues></_>
    <_>
      <internalNodes>
        0 -1 6849376 8.2075472164433450e-05</internalNodes>
      <leafValues>
        -2.0274301059544086e-03 -8.9202839136123657e-01</leafValues></_>
    <_>
      <internalNodes>
        0 -1 6849376 6.2382219766732305e-05</internalNodes>
      <leafValues>
        2.0274301059544086e-03 8.9204603433609009e-01</leafValues></_>
    <_>
      <internalNodes>
        0 -1 6849376 8.2075472164433450e-05</internalNodes>
      <leafValues>
        -2.0274301059544086e-03 -8.9203196763992310e-01</leafValues></_>
    <_>
      <internalNodes>
        0 -1 6849376 6.2382219766732305e-05</internalNodes>
      <leafValues>
        2.0274301059544086e-03 8.9204317331314087e-01</leafValues></_>
    <_>
      <internalNodes>
        0 -1 6849376 8.2075472164433450e-05</internalNodes>
      <leafValues>
        -2.0274301059544086e-03 -8.9203429222106934e-01</leafValues></_>
    <_>
      <internalNodes>
        0 -1 6849376 6.2382219766732305e-05</internalNodes>
      <leafValues>
        2.0274301059544086e-03 8.9204132556915283e-01</leafValues></_>
    <_>
      <internalNodes>
        0 -1 6849376 8.2075472164433450e-05</internalNodes>
      <leafValues>
        -2.0274301059544086e-03 -8.9203572273254395e-01</leafValues></_>
    <_>
      <internalNodes>
        0 -1 6849376 6.2382219766732305e-05</internalNodes>
      <leafValues>
        2.0274301059544086e-03 8.9204019308090210e-01</leafValues></_>
    <_>
      <internalNodes>
        0 -1 6849376 8.2075472164433450e-05</internalNodes>
      <leafValues>
        -2.0274301059544086e-03 -8.9203661680221558e-01</leafValues></_>
    <_>
      <internalNodes>
        0 -1 6849376 6.2382219766732305e-05</internalNodes>
      <leafValues>
        2.0274301059544086e-03 8.9203947782516479e-01</leafValues></_>
    <_>
      <internalNodes>
        0 -1 6849376 8.2075472164433450e-05</internalNodes>
      <leafValues>
        -2.0274301059544086e-03 -8.9203721284866333e-01</leafValues></_>
    <_>
      <internalNodes>
        0 -1 6849376 6.2382219766732305e-05</internalNodes>
      <leafValues>
        2.0274301059544086e-03 8.9203900098800659e-01</leafValues></_>
    <_>
      <internalNodes>
        0 -1 6849376 8.2075472164433450e-05</internalNodes>
      <leafValues>
        -2.0274301059544086e-03 -8.9203757047653198e-01</leafValues></_>
    <_>
      <internalNodes>
        0 -1 6849376 6.2382219766732305e-05</internalNodes>
      <leafValues>
        2.0274301059544086e-03 8.9203870296478271e-01</leafValues></_>
    <_>
      <internalNodes>
        0 -1 6849376 8.2075472164433450e-05</internalNodes>
      <leafValues>
        -2.0274301059544086e-03 -8.9203780889511108e-01</leafValues></_>
    <_>
      <internalNodes>
        0 -1 6849376 6.2382219766732305e-05</internalNodes>
      <leafValues>
        2.0274301059544086e-03 8.9203852415084839e-01</leafValues></_>
    <_>
      <internalNodes>
        0 -1 6849376 8.2075472164433450e-05</internalNodes>
      <leafValues>
        -2.0274301059544086e-03 -8.9203792810440063e-01</leafValues></_>
    <_>
      <internalNodes>
        0 -1 6849376 6.2382219766732305e-05</internalNodes>
      <leafValues>
        2.0274301059544086e-03 8.9203840494155884e-01</leafValues></_>
    <_>
      <internalNodes>
        0 -1 6849376 8.2075472164433450e-05</internalNodes>
      <leafValues>
        -2.0274301059544086e-03 -8.9203804731369019e-01</leafValues></_>
    <_>
      <internalNodes>
        0 -1 6849376 6.2382219766732305e-05</internalNodes>
      <leafValues>
        2.0274301059544086e-03 8.9203834533691406e-01</leafValues></_>
    <_>
      <internalNodes>
        0 -1 6849376 8.2075472164433450e-05</internalNodes>
      <leafValues>
        -2.0274301059544086e-03 -8.9203810691833496e-01</leafValues></_>
    <_>
      <internalNodes>
        0 -1 6849376 6.2382219766732305e-05</internalNodes>
      <leafValues>
        2.0274301059544086e-03 8.9203828573226929e-01</leafValues></_>
    <_>
      <internalNodes>
        0 -1 6849376 8.2075472164433450e-05</internalNodes>
      <leafValues>
        -2.0274301059544086e-03 -8.9203816652297974e-01</leafValues></_>
    <_>
      <internalNodes>
        0 -1 6849376 6.2382219766732305e-05</internalNodes>
      <leafValues>
        2.0274301059544086e-03 8.9203828573226929e-01</leafValues></_>
    <_>
      <internalNodes>
        0 -1 6849376 8.2075472164433450e-05</internalNodes>
      <leafValues>
        -2.0274301059544086e-03 -8.9203816652297974e-01</leafValues></_>
    <_>
      <internalNodes>
        0 -1 6849376 6.2382219766732305e-05</internalNodes>
      <leafValues>
        2.0274301059544086e-03 8.9203822612762451e-01</leafValues></_>
    <_>
      <internalNodes>
        0 -1 6849376 8.2075472164433450e-05</internalNodes>
      <leafValues>
        -2.0274301059544086e-03 -8.9203816652297974e-01</leafValues></_>
    <_>
      <internalNodes>
        0 -1 6849376 6.2382219766732305e-05</internalNodes>
      <leafValues>
        2.0274301059544086e-03 8.9203822612762451e-01</leafValues></_>
    <_>
      <internalNodes>
        0 -1 6849376 8.2075472164433450e-05</internalNodes>
      <leafValues>
        -2.0274301059544086e-03 -8.9203816652297974e-01</leafValues></_>
    <_>
      <internalNodes>
        0 -1 6849376 6.2382219766732305e-05</internalNodes>
      <leafValues>
        2.0274301059544086e-03 8.9203822612762451e-01</leafValues></_>
    <_>
      <internalNodes>
        0 -1 6849376 8.2075472164433450e-05</internalNodes>
      <leafValues>
        -2.0274301059544086e-03 -8.9203822612762451e-01</leafValues></_>
    <_>
      <internalNodes>
        0 -1 6849376 6.2382219766732305e-05</internalNodes>
      <leafValues>
        2.0274301059544086e-03 8.9203822612762451e-01</leafValues></_>
    <_>
      <internalNodes>
        0 -1 6849376 8.2075472164433450e-05</internalNodes>
      <leafValues>
        -2.0274301059544086e-03 -8.9203822612762451e-01</leafValues></_>
    <_>
      <internalNodes>
        0 -1 6849376 6.2382219766732305e-05</internalNodes>
      <leafValues>
        2.0274301059544086e-03 8.9203822612762451e-01</leafValues></_>
    <_>
      <internalNodes>
        0 -1 6849376 8.2075472164433450e-05</internalNodes>
      <leafValues>
        -2.0274301059544086e-03 -8.9203822612762451e-01</leafValues></_>
    <_>
      <internalNodes>
        0 -1 6849376 6.2382219766732305e-05</internalNodes>
      <leafValues>
        2.0274301059544086e-03 8.9203822612762451e-01</leafValues></_>
    <_>
      <internalNodes>
        0 -1 6849376 8.2075472164433450e-05</internalNodes>
      <leafValues>
        -2.0274301059544086e-03 -8.9203822612762451e-01</leafValues></_>
    <_>
      <internalNodes>
        0 -1 6849376 6.2382219766732305e-05</internalNodes>
      <leafValues>
        2.0274301059544086e-03 8.9203822612762451e-01</leafValues></_>
    <_>
      <internalNodes>
        0 -1 6849376 8.2075472164433450e-05</internalNodes>
      <leafValues>
        -2.0274301059544086e-03 -8.9203822612762451e-01</leafValues></_>
    <_>
      <internalNodes>
        0 -1 6849376 6.2382219766732305e-05</internalNodes>
      <leafValues>
        2.0274301059544086e-03 8.9203822612762451e-01</leafValues></_>
    <_>
      <internalNodes>
        0 -1 6849376 8.2075472164433450e-05</internalNodes>
      <leafValues>
        -2.0274301059544086e-03 -8.9203822612762451e-01</leafValues></_>
    <_>
      <internalNodes>
        0 -1 6849376 6.2382219766732305e-05</internalNodes>
      <leafValues>
        2.0274301059544086e-03 8.9203822612762451e-01</leafValues></_>
    <_>
      <internalNodes>
        0 -1 6849376 8.2075472164433450e-05</internalNodes>
      <leafValues>
        -2.0274301059544086e-03 -8.9203822612762451e-01</leafValues></_>
    <_>
      <internalNodes>
        0 -1 6849376 6.2382219766732305e-05</internalNodes>
      <leafValues>
        2.0274301059544086e-03 8.9203822612762451e-01</leafValues></_>
    <_>
      <internalNodes>
        0 -1 6849376 8.2075472164433450e-05</internalNodes>
      <leafValues>
        -2.0274301059544086e-03 -8.9203822612762451e-01</leafValues></_></weakClassifiers></stage9>
</opencv_storage>
