<?xml version="1.0"?>
<opencv_storage>
<stage11>
  <maxWeakCount>10</maxWeakCount>
  <stageThreshold>-1.0387209653854370e+00</stageThreshold>
  <weakClassifiers>
    <_>
      <internalNodes>
        0 -1 5629695 -2.7594488346949220e-04</internalNodes>
      <leafValues>
        4.7999998927116394e-01 -7.4666666984558105e-01</leafValues></_>
    <_>
      <internalNodes>
        0 -1 5632500 -8.9377141557633877e-04</internalNodes>
      <leafValues>
        -8.3116769790649414e-01 2.7481165528297424e-01</leafValues></_>
    <_>
      <internalNodes>
        0 -1 4411844 -1.5035817399621010e-02</internalNodes>
      <leafValues>
        6.5178692340850830e-01 -3.3055886626243591e-01</leafValues></_>
    <_>
      <internalNodes>
        0 -1 5152355 -1.1669119121506810e-03</internalNodes>
      <leafValues>
        6.6135597229003906e-01 -2.5869274139404297e-01</leafValues></_>
    <_>
      <internalNodes>
        0 -1 6217858 9.2792330542579293e-04</internalNodes>
      <leafValues>
        -6.5668082237243652e-01 2.8458055853843689e-01</leafValues></_>
    <_>
      <internalNodes>
        0 -1 2754963 1.5760224312543869e-02</internalNodes>
      <leafValues>
        2.7225530147552490e-01 -6.4583659172058105e-01</leafValues></_>
    <_>
      <internalNodes>
        0 -1 2334040 -5.3639034740626812e-03</internalNodes>
      <leafValues>
        6.4628577232360840e-01 -2.9151284694671631e-01</leafValues></_>
    <_>
      <internalNodes>
        0 -1 3182255 1.5133775305002928e-03</internalNodes>
      <leafValues>
        -3.4331125020980835e-01 6.0375231504440308e-01</leafValues></_>
    <_>
      <internalNodes>
        0 -1 5415736 1.2141313163738232e-05</internalNodes>
      <leafValues>
        -9.5481258630752563e-01 2.7508518099784851e-01</leafValues></_>
    <_>
      <internalNodes>
        0 -1 4895168 -9.1820402303710580e-04</internalNodes>
      <leafValues>
        6.8640244007110596e-01 -2.9539859294891357e-01</leafValues></_></weakClassifiers></stage11>
</opencv_storage>
