<?xml version="1.0"?>
<opencv_storage>
<stage7>
  <maxWeakCount>14</maxWeakCount>
  <stageThreshold>-8.7063121795654297e-01</stageThreshold>
  <weakClassifiers>
    <_>
      <internalNodes>
        0 -1 5540777 -3.7374441035353811e-06</internalNodes>
      <leafValues>
        -3.2758620381355286e-01 4.8591548204421997e-01</leafValues></_>
    <_>
      <internalNodes>
        0 -1 6902701 -3.4554218291305006e-04</internalNodes>
      <leafValues>
        8.8428062200546265e-01 -1.3746668398380280e-01</leafValues></_>
    <_>
      <internalNodes>
        0 -1 6380142 -2.6081743271788582e-06</internalNodes>
      <leafValues>
        4.3562611937522888e-01 -4.0447333455085754e-01</leafValues></_>
    <_>
      <internalNodes>
        0 -1 357688 -3.1772832153365016e-04</internalNodes>
      <leafValues>
        8.4151691198348999e-01 -1.3212855160236359e-01</leafValues></_>
    <_>
      <internalNodes>
        0 -1 2064779 -1.3647327432408929e-03</internalNodes>
      <leafValues>
        8.8588553667068481e-01 -1.3779541850090027e-01</leafValues></_>
    <_>
      <internalNodes>
        0 -1 6348885 -8.5666346421930939e-05</internalNodes>
      <leafValues>
        -4.5034468173980713e-01 3.0428025126457214e-01</leafValues></_>
    <_>
      <internalNodes>
        0 -1 5338779 -1.7550235497765243e-05</internalNodes>
      <leafValues>
        4.2957672476768494e-01 -3.7648162245750427e-01</leafValues></_>
    <_>
      <internalNodes>
        0 -1 4292280 -4.4815442524850368e-03</internalNodes>
      <leafValues>
        7.3984044790267944e-01 -1.8163083493709564e-01</leafValues></_>
    <_>
      <internalNodes>
        0 -1 6136383 3.7438258004840463e-06</internalNodes>
      <leafValues>
        2.8040587902069092e-01 -5.2414709329605103e-01</leafValues></_>
    <_>
      <internalNodes>
        0 -1 174401 3.5631324863061309e-04</internalNodes>
      <leafValues>
        -1.5074327588081360e-01 7.8610569238662720e-01</leafValues></_>
    <_>
      <internalNodes>
        0 -1 7279991 -2.0395772298797965e-04</internalNodes>
      <leafValues>
        4.4996112585067749e-01 -2.7535235881805420e-01</leafValues></_>
    <_>
      <internalNodes>
        0 -1 6755282 -4.4805870857089758e-04</internalNodes>
      <leafValues>
        8.6888498067855835e-01 -1.3259153068065643e-01</leafValues></_>
    <_>
      <internalNodes>
        0 -1 5075254 1.7395181203028187e-05</internalNodes>
      <leafValues>
        2.3536986112594604e-01 -6.4583200216293335e-01</leafValues></_>
    <_>
      <internalNodes>
        0 -1 5901111 2.6873368187807500e-04</internalNodes>
      <leafValues>
        -1.7279557883739471e-01 8.2994616031646729e-01</leafValues></_></weakClassifiers></stage7>
</opencv_storage>
