<?xml version="1.0"?>
<opencv_storage>
<stage2>
  <maxWeakCount>6</maxWeakCount>
  <stageThreshold>-1.2062501907348633e+00</stageThreshold>
  <weakClassifiers>
    <_>
      <internalNodes>
        0 -1 5407786 8.1114554777741432e-03</internalNodes>
      <leafValues>
        -8.6802029609680176e-01 6.1525702476501465e-01</leafValues></_>
    <_>
      <internalNodes>
        0 -1 3754997 1.5781502588652074e-04</internalNodes>
      <leafValues>
        -8.2427406311035156e-01 4.4521349668502808e-01</leafValues></_>
    <_>
      <internalNodes>
        0 -1 5191528 2.9011510196141899e-04</internalNodes>
      <leafValues>
        3.5340887308120728e-01 -9.0172505378723145e-01</leafValues></_>
    <_>
      <internalNodes>
        0 -1 4438616 -4.8854909837245941e-03</internalNodes>
      <leafValues>
        6.8237370252609253e-01 -5.2049547433853149e-01</leafValues></_>
    <_>
      <internalNodes>
        0 -1 5425022 1.2735862401314080e-04</internalNodes>
      <leafValues>
        -9.3937897682189941e-01 3.1575739383697510e-01</leafValues></_>
    <_>
      <internalNodes>
        0 -1 4966831 -1.4366477262228727e-03</internalNodes>
      <leafValues>
        -9.3995451927185059e-01 3.3737331628799438e-01</leafValues></_></weakClassifiers></stage2>
</opencv_storage>
