<?xml version="1.0"?>
<opencv_storage>
<stage14>
  <maxWeakCount>21</maxWeakCount>
  <stageThreshold>-1.0208904743194580e+00</stageThreshold>
  <weakClassifiers>
    <_>
      <internalNodes>
        0 -1 1883676 2.2098684310913086e-01</internalNodes>
      <leafValues>
        8.7976539507508278e-03 6.7764300107955933e-01</leafValues></_>
    <_>
      <internalNodes>
        0 -1 4676091 2.1558630396611989e-04</internalNodes>
      <leafValues>
        -3.7789177894592285e-01 2.6543897390365601e-01</leafValues></_>
    <_>
      <internalNodes>
        0 -1 5033584 -4.8111265641637146e-04</internalNodes>
      <leafValues>
        -5.4270082712173462e-01 1.8197256326675415e-01</leafValues></_>
    <_>
      <internalNodes>
        0 -1 6142777 4.0595401078462601e-03</internalNodes>
      <leafValues>
        -2.4833366274833679e-01 3.5513508319854736e-01</leafValues></_>
    <_>
      <internalNodes>
        0 -1 5814046 -1.7388704000040889e-03</internalNodes>
      <leafValues>
        3.5529309511184692e-01 -2.9876056313514709e-01</leafValues></_>
    <_>
      <internalNodes>
        0 -1 5745321 -3.0437838286161423e-03</internalNodes>
      <leafValues>
        -8.0151295661926270e-01 1.3620936870574951e-01</leafValues></_>
    <_>
      <internalNodes>
        0 -1 5062 1.2655223719775677e-02</internalNodes>
      <leafValues>
        1.2395128607749939e-01 -7.0284050703048706e-01</leafValues></_>
    <_>
      <internalNodes>
        0 -1 2995216 1.5063474420458078e-03</internalNodes>
      <leafValues>
        -2.3350384831428528e-01 3.9035508036613464e-01</leafValues></_>
    <_>
      <internalNodes>
        0 -1 4068150 -2.6283129118382931e-03</internalNodes>
      <leafValues>
        -6.0703384876251221e-01 1.6052430868148804e-01</leafValues></_>
    <_>
      <internalNodes>
        0 -1 7132944 -2.4942585150711238e-04</internalNodes>
      <leafValues>
        -7.3021239042282104e-01 1.1154239624738693e-01</leafValues></_>
    <_>
      <internalNodes>
        0 -1 5532745 2.3267819778993726e-04</internalNodes>
      <leafValues>
        -2.3103785514831543e-01 4.0552026033401489e-01</leafValues></_>
    <_>
      <internalNodes>
        0 -1 806067 -1.3051035348325968e-03</internalNodes>
      <leafValues>
        -4.9818497896194458e-01 1.7359384894371033e-01</leafValues></_>
    <_>
      <internalNodes>
        0 -1 6453508 3.4947931999340653e-04</internalNodes>
      <leafValues>
        -2.1920271217823029e-01 4.1311451792716980e-01</leafValues></_>
    <_>
      <internalNodes>
        0 -1 7632709 6.8763969466090202e-04</internalNodes>
      <leafValues>
        1.7084020376205444e-01 -5.4085928201675415e-01</leafValues></_>
    <_>
      <internalNodes>
        0 -1 4816129 8.6574623128399253e-04</internalNodes>
      <leafValues>
        -2.8244060277938843e-01 3.1104436516761780e-01</leafValues></_>
    <_>
      <internalNodes>
        0 -1 5366273 6.1650865245610476e-04</internalNodes>
      <leafValues>
        -1.1406888067722321e-01 8.2350558042526245e-01</leafValues></_>
    <_>
      <internalNodes>
        0 -1 4806338 6.2804098706692457e-04</internalNodes>
      <leafValues>
        1.5493720769882202e-01 -6.2748813629150391e-01</leafValues></_>
    <_>
      <internalNodes>
        0 -1 4071094 4.4211119529791176e-05</internalNodes>
      <leafValues>
        -1.9499008357524872e-01 5.1145893335342407e-01</leafValues></_>
    <_>
      <internalNodes>
        0 -1 5242176 3.5860453499481082e-04</internalNodes>
      <leafValues>
        -2.4092654883861542e-01 3.7549728155136108e-01</leafValues></_>
    <_>
      <internalNodes>
        0 -1 7678495 -1.0714551899582148e-03</internalNodes>
      <leafValues>
        -5.4229813814163208e-01 2.0609538257122040e-01</leafValues></_>
    <_>
      <internalNodes>
        0 -1 6875139 3.7097991444170475e-03</internalNodes>
      <leafValues>
        -1.9854654371738434e-01 5.1626896858215332e-01</leafValues></_></weakClassifiers></stage14>
</opencv_storage>
