<?xml version="1.0"?>
<opencv_storage>
<stage13>
  <maxWeakCount>19</maxWeakCount>
  <stageThreshold>-8.7481641769409180e-01</stageThreshold>
  <weakClassifiers>
    <_>
      <internalNodes>
        0 -1 5217349 -1.0576635599136353e-02</internalNodes>
      <leafValues>
        -8.1967210769653320e-01 3.3829498291015625e-01</leafValues></_>
    <_>
      <internalNodes>
        0 -1 847662 -2.6758820749819279e-03</internalNodes>
      <leafValues>
        8.9119988679885864e-01 -1.1536443978548050e-01</leafValues></_>
    <_>
      <internalNodes>
        0 -1 4671147 2.2680326364934444e-03</internalNodes>
      <leafValues>
        -1.3579499721527100e-01 7.9484540224075317e-01</leafValues></_>
    <_>
      <internalNodes>
        0 -1 3164653 1.7598366830497980e-03</internalNodes>
      <leafValues>
        -1.6096806526184082e-01 6.6571813821792603e-01</leafValues></_>
    <_>
      <internalNodes>
        0 -1 4017953 -5.2333407802507281e-04</internalNodes>
      <leafValues>
        4.4697609543800354e-01 -2.1061342954635620e-01</leafValues></_>
    <_>
      <internalNodes>
        0 -1 1451086 -1.2845683842897415e-02</internalNodes>
      <leafValues>
        -8.3203822374343872e-01 1.1185248941183090e-01</leafValues></_>
    <_>
      <internalNodes>
        0 -1 1622202 4.6314774081110954e-03</internalNodes>
      <leafValues>
        -1.5140637755393982e-01 8.7870728969573975e-01</leafValues></_>
    <_>
      <internalNodes>
        0 -1 335664 -2.7318056672811508e-02</internalNodes>
      <leafValues>
        -7.2177416086196899e-01 1.6781972348690033e-01</leafValues></_>
    <_>
      <internalNodes>
        0 -1 358959 -6.3080042600631714e-03</internalNodes>
      <leafValues>
        8.1337064504623413e-01 -1.7400230467319489e-01</leafValues></_>
    <_>
      <internalNodes>
        0 -1 3691253 -4.1013644076883793e-03</internalNodes>
      <leafValues>
        8.9378130435943604e-01 -7.6723940670490265e-02</leafValues></_>
    <_>
      <internalNodes>
        0 -1 7052304 -1.0686281711969059e-05</internalNodes>
      <leafValues>
        3.3534726500511169e-01 -3.0647435784339905e-01</leafValues></_>
    <_>
      <internalNodes>
        0 -1 4459118 -2.4901486467570066e-03</internalNodes>
      <leafValues>
        7.7780055999755859e-01 -1.1681540310382843e-01</leafValues></_>
    <_>
      <internalNodes>
        0 -1 1782770 9.1703757643699646e-03</internalNodes>
      <leafValues>
        1.5033224225044250e-01 -7.9453033208847046e-01</leafValues></_>
    <_>
      <internalNodes>
        0 -1 4689857 1.0061934590339661e-02</internalNodes>
      <leafValues>
        9.0743631124496460e-02 -7.9272139072418213e-01</leafValues></_>
    <_>
      <internalNodes>
        0 -1 7014566 -9.2344847507774830e-04</internalNodes>
      <leafValues>
        7.4822610616683960e-01 -1.3201260566711426e-01</leafValues></_>
    <_>
      <internalNodes>
        0 -1 4420611 -1.4792926376685500e-03</internalNodes>
      <leafValues>
        4.6686306595802307e-01 -1.7353305220603943e-01</leafValues></_>
    <_>
      <internalNodes>
        0 -1 95104 1.3304465450346470e-02</internalNodes>
      <leafValues>
        1.0692460834980011e-01 -8.9133930206298828e-01</leafValues></_>
    <_>
      <internalNodes>
        0 -1 3327309 -3.2615152304060757e-04</internalNodes>
      <leafValues>
        2.9830288887023926e-01 -2.9342183470726013e-01</leafValues></_>
    <_>
      <internalNodes>
        0 -1 4940514 -1.1862851679325104e-03</internalNodes>
      <leafValues>
        5.7362377643585205e-01 -1.4113737642765045e-01</leafValues></_></weakClassifiers></stage13>
</opencv_storage>
