<?xml version="1.0"?>
<opencv_storage>
<stage10>
  <maxWeakCount>13</maxWeakCount>
  <stageThreshold>-8.6017012596130371e-01</stageThreshold>
  <weakClassifiers>
    <_>
      <internalNodes>
        0 -1 3095601 1.1667733633657917e-04</internalNodes>
      <leafValues>
        -8.0263155698776245e-01 3.6049723625183105e-01</leafValues></_>
    <_>
      <internalNodes>
        0 -1 2699361 -1.4342051930725574e-02</internalNodes>
      <leafValues>
        6.3257396221160889e-01 -1.7891411483287811e-01</leafValues></_>
    <_>
      <internalNodes>
        0 -1 3673152 4.7293753596022725e-04</internalNodes>
      <leafValues>
        -2.0624324679374695e-01 5.7277268171310425e-01</leafValues></_>
    <_>
      <internalNodes>
        0 -1 3674329 -4.0175742469727993e-04</internalNodes>
      <leafValues>
        7.2684943675994873e-01 -1.4662611484527588e-01</leafValues></_>
    <_>
      <internalNodes>
        0 -1 2569106 -5.2635686006397009e-04</internalNodes>
      <leafValues>
        7.3470938205718994e-01 -1.1635286360979080e-01</leafValues></_>
    <_>
      <internalNodes>
        0 -1 3094146 -1.2312359176576138e-03</internalNodes>
      <leafValues>
        -8.6720448732376099e-01 1.3555824756622314e-01</leafValues></_>
    <_>
      <internalNodes>
        0 -1 2983801 2.1852697245776653e-03</internalNodes>
      <leafValues>
        -3.0380532145500183e-01 3.3464425802230835e-01</leafValues></_>
    <_>
      <internalNodes>
        0 -1 3010529 -1.0116836056113243e-03</internalNodes>
      <leafValues>
        -6.5773576498031616e-01 1.8113110959529877e-01</leafValues></_>
    <_>
      <internalNodes>
        0 -1 3609602 1.2679339852184057e-04</internalNodes>
      <leafValues>
        -2.7727317810058594e-01 3.8622200489044189e-01</leafValues></_>
    <_>
      <internalNodes>
        0 -1 3170655 -5.9047865215688944e-04</internalNodes>
      <leafValues>
        -9.3613749742507935e-01 1.0175271332263947e-01</leafValues></_>
    <_>
      <internalNodes>
        0 -1 2571171 -3.8843648508191109e-04</internalNodes>
      <leafValues>
        5.5755788087844849e-01 -2.0826540887355804e-01</leafValues></_>
    <_>
      <internalNodes>
        0 -1 3323054 7.2040820668917149e-06</internalNodes>
      <leafValues>
        -8.9655584096908569e-01 1.3083191215991974e-01</leafValues></_>
    <_>
      <internalNodes>
        0 -1 2866488 5.8454961981624365e-04</internalNodes>
      <leafValues>
        1.6717253625392914e-01 -5.1890718936920166e-01</leafValues></_></weakClassifiers></stage10>
</opencv_storage>
