<?xml version="1.0"?>
<opencv_storage>
<stage8>
  <maxWeakCount>15</maxWeakCount>
  <stageThreshold>-9.7540855407714844e-01</stageThreshold>
  <weakClassifiers>
    <_>
      <internalNodes>
        0 -1 6693842 -1.2870366685092449e-02</internalNodes>
      <leafValues>
        6.9932883977890015e-01 -1.4152047038078308e-01</leafValues></_>
    <_>
      <internalNodes>
        0 -1 3540703 -5.5891589727252722e-04</internalNodes>
      <leafValues>
        3.2807904481887817e-01 -3.7013927102088928e-01</leafValues></_>
    <_>
      <internalNodes>
        0 -1 1825400 5.1537752151489258e-02</internalNodes>
      <leafValues>
        -2.9034450650215149e-01 4.4791755080223083e-01</leafValues></_>
    <_>
      <internalNodes>
        0 -1 5355855 2.6038037613034248e-03</internalNodes>
      <leafValues>
        1.2888349592685699e-01 -8.8893926143646240e-01</leafValues></_>
    <_>
      <internalNodes>
        0 -1 6127461 -7.1245172875933349e-05</internalNodes>
      <leafValues>
        2.7169644832611084e-01 -4.1835001111030579e-01</leafValues></_>
    <_>
      <internalNodes>
        0 -1 4186007 -1.4178977580741048e-03</internalNodes>
      <leafValues>
        3.2124534249305725e-01 -3.5739409923553467e-01</leafValues></_>
    <_>
      <internalNodes>
        0 -1 4571909 -1.1793130543082952e-03</internalNodes>
      <leafValues>
        -8.8489162921905518e-01 1.1872181296348572e-01</leafValues></_>
    <_>
      <internalNodes>
        0 -1 6647015 2.0684157498180866e-03</internalNodes>
      <leafValues>
        -2.8580224514007568e-01 3.9751166105270386e-01</leafValues></_>
    <_>
      <internalNodes>
        0 -1 5023123 2.8915138682350516e-04</internalNodes>
      <leafValues>
        -2.7668172121047974e-01 3.7514093518257141e-01</leafValues></_>
    <_>
      <internalNodes>
        0 -1 4552968 1.0579208610579371e-03</internalNodes>
      <leafValues>
        1.4580988883972168e-01 -7.5484788417816162e-01</leafValues></_>
    <_>
      <internalNodes>
        0 -1 5391757 3.1911227852106094e-03</internalNodes>
      <leafValues>
        -2.6688751578330994e-01 3.7313491106033325e-01</leafValues></_>
    <_>
      <internalNodes>
        0 -1 3671457 -8.7708812206983566e-03</internalNodes>
      <leafValues>
        -6.5671044588088989e-01 1.5916219353675842e-01</leafValues></_>
    <_>
      <internalNodes>
        0 -1 5817341 1.9755498506128788e-03</internalNodes>
      <leafValues>
        -2.2964936494827271e-01 4.4781163334846497e-01</leafValues></_>
    <_>
      <internalNodes>
        0 -1 7526974 1.7466349527239799e-03</internalNodes>
      <leafValues>
        1.7992962896823883e-01 -5.5363547801971436e-01</leafValues></_>
    <_>
      <internalNodes>
        0 -1 6169703 -1.0745399631559849e-03</internalNodes>
      <leafValues>
        5.5689555406570435e-01 -1.9799053668975830e-01</leafValues></_></weakClassifiers></stage8>
</opencv_storage>
