<?xml version="1.0"?>
<opencv_storage>
<stage2>
  <maxWeakCount>7</maxWeakCount>
  <stageThreshold>-8.4175628423690796e-01</stageThreshold>
  <weakClassifiers>
    <_>
      <internalNodes>
        0 -1 4099628 1.5163401141762733e-02</internalNodes>
      <leafValues>
        5.4303598403930664e-01 -9.1304349899291992e-01</leafValues></_>
    <_>
      <internalNodes>
        0 -1 3803311 -1.4262786135077477e-02</internalNodes>
      <leafValues>
        -9.2630821466445923e-01 2.9791221022605896e-01</leafValues></_>
    <_>
      <internalNodes>
        0 -1 1726106 -4.8531164793530479e-06</internalNodes>
      <leafValues>
        -6.1441260576248169e-01 3.6178538203239441e-01</leafValues></_>
    <_>
      <internalNodes>
        0 -1 28171 3.7667997181415558e-02</internalNodes>
      <leafValues>
        2.1858277916908264e-01 -9.9673080444335938e-01</leafValues></_>
    <_>
      <internalNodes>
        0 -1 96921 -2.7489118278026581e-02</internalNodes>
      <leafValues>
        -9.1342222690582275e-01 2.1592783927917480e-01</leafValues></_>
    <_>
      <internalNodes>
        0 -1 4166490 -2.6387402322143316e-03</internalNodes>
      <leafValues>
        9.4028687477111816e-01 -2.7712592482566833e-01</leafValues></_>
    <_>
      <internalNodes>
        0 -1 768257 -2.1597055820166133e-05</internalNodes>
      <leafValues>
        -5.9999763965606689e-01 3.8355499505996704e-01</leafValues></_></weakClassifiers></stage2>
</opencv_storage>
