<?xml version="1.0"?>
<opencv_storage>
<stage12>
  <maxWeakCount>19</maxWeakCount>
  <stageThreshold>-1.0232236385345459e+00</stageThreshold>
  <weakClassifiers>
    <_>
      <internalNodes>
        0 -1 3301 1.3091562315821648e-02</internalNodes>
      <leafValues>
        3.4237289428710938e-01 -8.3999997377395630e-01</leafValues></_>
    <_>
      <internalNodes>
        0 -1 1213454 4.1916165500879288e-03</internalNodes>
      <leafValues>
        -1.0483381152153015e-01 9.2407870292663574e-01</leafValues></_>
    <_>
      <internalNodes>
        0 -1 1460257 -6.8831838667392731e-02</internalNodes>
      <leafValues>
        3.6849737167358398e-01 -3.9202928543090820e-01</leafValues></_>
    <_>
      <internalNodes>
        0 -1 869800 -2.9447339475154877e-03</internalNodes>
      <leafValues>
        8.2905197143554688e-01 -5.9007011353969574e-02</leafValues></_>
    <_>
      <internalNodes>
        0 -1 361870 3.2119618263095617e-03</internalNodes>
      <leafValues>
        -1.0220149159431458e-01 9.0213733911514282e-01</leafValues></_>
    <_>
      <internalNodes>
        0 -1 2528205 2.0024264231324196e-03</internalNodes>
      <leafValues>
        -1.1942603439092636e-01 8.3464205265045166e-01</leafValues></_>
    <_>
      <internalNodes>
        0 -1 7035218 -3.6856799852102995e-04</internalNodes>
      <leafValues>
        4.8122221231460571e-01 -2.1228373050689697e-01</leafValues></_>
    <_>
      <internalNodes>
        0 -1 4421799 9.1518908739089966e-03</internalNodes>
      <leafValues>
        1.2830719351768494e-01 -8.7343311309814453e-01</leafValues></_>
    <_>
      <internalNodes>
        0 -1 4805035 -1.9865702779497951e-04</internalNodes>
      <leafValues>
        5.7430320978164673e-01 -1.6100034117698669e-01</leafValues></_>
    <_>
      <internalNodes>
        0 -1 5662688 -3.2716052373871207e-06</internalNodes>
      <leafValues>
        -3.9579302072525024e-01 2.3658786714076996e-01</leafValues></_>
    <_>
      <internalNodes>
        0 -1 148728 2.1090060472488403e-03</internalNodes>
      <leafValues>
        -1.4640565216541290e-01 7.7348667383193970e-01</leafValues></_>
    <_>
      <internalNodes>
        0 -1 4812460 -2.0782526116818190e-03</internalNodes>
      <leafValues>
        7.4632221460342407e-01 -1.1146380752325058e-01</leafValues></_>
    <_>
      <internalNodes>
        0 -1 5217355 9.7104050219058990e-03</internalNodes>
      <leafValues>
        1.2832750380039215e-01 -8.4243553876876831e-01</leafValues></_>
    <_>
      <internalNodes>
        0 -1 4106457 -6.0482026310637593e-04</internalNodes>
      <leafValues>
        4.3611809611320496e-01 -2.1818640828132629e-01</leafValues></_>
    <_>
      <internalNodes>
        0 -1 449382 -9.6912262961268425e-04</internalNodes>
      <leafValues>
        7.4963504076004028e-01 -1.2490911036729813e-01</leafValues></_>
    <_>
      <internalNodes>
        0 -1 25198 2.9075600206851959e-02</internalNodes>
      <leafValues>
        1.3757240772247314e-01 -9.4341033697128296e-01</leafValues></_>
    <_>
      <internalNodes>
        0 -1 6596513 -1.1194292455911636e-02</internalNodes>
      <leafValues>
        -9.4675666093826294e-01 7.8712008893489838e-02</leafValues></_>
    <_>
      <internalNodes>
        0 -1 5469963 -8.8809713721275330e-02</internalNodes>
      <leafValues>
        -9.4183218479156494e-01 6.7213542759418488e-02</leafValues></_>
    <_>
      <internalNodes>
        0 -1 7314479 -1.6218630596995354e-02</internalNodes>
      <leafValues>
        4.1984459757804871e-01 -2.2427077591419220e-01</leafValues></_></weakClassifiers></stage12>
</opencv_storage>
