<?xml version="1.0"?>
<opencv_storage>
<stage15>
  <maxWeakCount>15</maxWeakCount>
  <stageThreshold>-5.1594978570938110e-01</stageThreshold>
  <weakClassifiers>
    <_>
      <internalNodes>
        0 -1 419982 -5.1994543522596359e-02</internalNodes>
      <leafValues>
        6.7557251453399658e-01 4.2750928550958633e-02</leafValues></_>
    <_>
      <internalNodes>
        0 -1 2662536 -7.4690458131954074e-04</internalNodes>
      <leafValues>
        7.1343576908111572e-01 -9.2279471457004547e-02</leafValues></_>
    <_>
      <internalNodes>
        0 -1 2558473 1.1592817027121782e-03</internalNodes>
      <leafValues>
        -1.0083070397377014e-01 7.9405200481414795e-01</leafValues></_>
    <_>
      <internalNodes>
        0 -1 3323046 -1.6093028534669429e-04</internalNodes>
      <leafValues>
        -8.5344678163528442e-01 9.8209314048290253e-02</leafValues></_>
    <_>
      <internalNodes>
        0 -1 2569112 6.0609274078160524e-04</internalNodes>
      <leafValues>
        -1.7643502354621887e-01 5.2370911836624146e-01</leafValues></_>
    <_>
      <internalNodes>
        0 -1 2365590 -5.3790106903761625e-04</internalNodes>
      <leafValues>
        4.9382060766220093e-01 -1.6025093197822571e-01</leafValues></_>
    <_>
      <internalNodes>
        0 -1 1193400 1.4615848660469055e-02</internalNodes>
      <leafValues>
        1.8947511911392212e-01 -5.0414955615997314e-01</leafValues></_>
    <_>
      <internalNodes>
        0 -1 3092112 -8.7764294585213065e-04</internalNodes>
      <leafValues>
        -8.8893491029739380e-01 7.1347028017044067e-02</leafValues></_>
    <_>
      <internalNodes>
        0 -1 2566948 5.4412952158600092e-04</internalNodes>
      <leafValues>
        -1.9536887109279633e-01 4.6573349833488464e-01</leafValues></_>
    <_>
      <internalNodes>
        0 -1 2733507 -7.3768459260463715e-03</internalNodes>
      <leafValues>
        -4.2445433139801025e-01 1.9808413088321686e-01</leafValues></_>
    <_>
      <internalNodes>
        0 -1 3077990 1.6565287951380014e-03</internalNodes>
      <leafValues>
        1.3681150972843170e-01 -7.5347727537155151e-01</leafValues></_>
    <_>
      <internalNodes>
        0 -1 2564790 3.1964387744665146e-04</internalNodes>
      <leafValues>
        -2.1745161712169647e-01 4.2747923731803894e-01</leafValues></_>
    <_>
      <internalNodes>
        0 -1 2474302 2.8349214699119329e-03</internalNodes>
      <leafValues>
        -1.5719678997993469e-01 5.5249571800231934e-01</leafValues></_>
    <_>
      <internalNodes>
        0 -1 2845475 1.3169879093766212e-03</internalNodes>
      <leafValues>
        -3.2908591628074646e-01 3.4800672531127930e-01</leafValues></_>
    <_>
      <internalNodes>
        0 -1 3170754 -1.3165939890313894e-05</internalNodes>
      <leafValues>
        2.2301131486892700e-01 -4.1699689626693726e-01</leafValues></_></weakClassifiers></stage15>
</opencv_storage>
