<?xml version="1.0"?>
<opencv_storage>
<stage10>
  <maxWeakCount>100</maxWeakCount>
  <stageThreshold>-3.7393146753311157e-01</stageThreshold>
  <weakClassifiers>
    <_>
      <internalNodes>
        0 -1 4680226 -1.4007699974172283e-05</internalNodes>
      <leafValues>
        8.9961391687393188e-01 -6.0998152941465378e-02</leafValues></_>
    <_>
      <internalNodes>
        0 -1 7444203 -3.0862604489811929e-06</internalNodes>
      <leafValues>
        8.2054477930068970e-01 -1.2506392598152161e-01</leafValues></_>
    <_>
      <internalNodes>
        0 -1 5711050 -1.9087907858192921e-03</internalNodes>
      <leafValues>
        7.8055357933044434e-01 -1.0361732542514801e-01</leafValues></_>
    <_>
      <internalNodes>
        0 -1 3676551 -3.9363245014101267e-04</internalNodes>
      <leafValues>
        6.5307688713073730e-01 -8.6371064186096191e-02</leafValues></_>
    <_>
      <internalNodes>
        0 -1 3664496 -1.6467148670926690e-03</internalNodes>
      <leafValues>
        -8.5789752006530762e-01 7.4259519577026367e-02</leafValues></_>
    <_>
      <internalNodes>
        0 -1 551234 -4.1022989898920059e-03</internalNodes>
      <leafValues>
        8.2519215345382690e-01 -6.5706036984920502e-02</leafValues></_>
    <_>
      <internalNodes>
        0 -1 3343769 -8.8994614779949188e-03</internalNodes>
      <leafValues>
        -8.1925362348556519e-01 6.4580522477626801e-02</leafValues></_>
    <_>
      <internalNodes>
        0 -1 113406 -4.6319975517690182e-03</internalNodes>
      <leafValues>
        9.4914692640304565e-01 -6.3343927264213562e-02</leafValues></_>
    <_>
      <internalNodes>
        0 -1 4774049 3.9253695867955685e-03</internalNodes>
      <leafValues>
        -2.4473562836647034e-02 9.6176183223724365e-01</leafValues></_>
    <_>
      <internalNodes>
        0 -1 3908414 3.5032466053962708e-02</internalNodes>
      <leafValues>
        4.9041640013456345e-02 -9.0057021379470825e-01</leafValues></_>
    <_>
      <internalNodes>
        0 -1 5914710 -1.9118635682389140e-03</internalNodes>
      <leafValues>
        9.5011037588119507e-01 -4.0055323392152786e-02</leafValues></_>
    <_>
      <internalNodes>
        0 -1 5078386 -1.6287215985357761e-03</internalNodes>
      <leafValues>
        -7.8708446025848389e-01 4.6055618673563004e-02</leafValues></_>
    <_>
      <internalNodes>
        0 -1 7656289 -3.9431843906641006e-03</internalNodes>
      <leafValues>
        9.0179175138473511e-01 -3.6971796303987503e-02</leafValues></_>
    <_>
      <internalNodes>
        0 -1 5260508 4.2265085503458977e-03</internalNodes>
      <leafValues>
        -1.8704537302255630e-02 9.2862170934677124e-01</leafValues></_>
    <_>
      <internalNodes>
        0 -1 2892599 1.4119123989075888e-05</internalNodes>
      <leafValues>
        3.7416644394397736e-02 -6.7288887500762939e-01</leafValues></_>
    <_>
      <internalNodes>
        0 -1 750241 -1.2173592112958431e-03</internalNodes>
      <leafValues>
        8.1451141834259033e-01 -2.5120671838521957e-02</leafValues></_>
    <_>
      <internalNodes>
        0 -1 1983988 -3.1598955392837524e-03</internalNodes>
      <leafValues>
        -8.8366401195526123e-01 2.2795097902417183e-02</leafValues></_>
    <_>
      <internalNodes>
        0 -1 6744538 -3.1329007470048964e-04</internalNodes>
      <leafValues>
        7.2482502460479736e-01 -2.5660116225481033e-02</leafValues></_>
    <_>
      <internalNodes>
        0 -1 4491728 6.8947818363085389e-05</internalNodes>
      <leafValues>
        1.8749754875898361e-02 -7.2456961870193481e-01</leafValues></_>
    <_>
      <internalNodes>
        0 -1 6159493 -3.5840002819895744e-03</internalNodes>
      <leafValues>
        8.6109942197799683e-01 -1.0206694714725018e-02</leafValues></_>
    <_>
      <internalNodes>
        0 -1 4115820 2.6055924536194652e-05</internalNodes>
      <leafValues>
        1.1491787619888783e-02 -8.7847948074340820e-01</leafValues></_>
    <_>
      <internalNodes>
        0 -1 5543568 -6.8676337832584977e-05</internalNodes>
      <leafValues>
        8.1286782026290894e-01 -1.4470456168055534e-02</leafValues></_>
    <_>
      <internalNodes>
        0 -1 2001672 9.7002530310419388e-06</internalNodes>
      <leafValues>
        4.7850627452135086e-03 -9.1755902767181396e-01</leafValues></_>
    <_>
      <internalNodes>
        0 -1 3299473 7.1463384665548801e-04</internalNodes>
      <leafValues>
        -2.7317649219185114e-03 9.5356595516204834e-01</leafValues></_>
    <_>
      <internalNodes>
        0 -1 7474472 3.4560587664600462e-05</internalNodes>
      <leafValues>
        1.0010510683059692e-02 -8.1797236204147339e-01</leafValues></_>
    <_>
      <internalNodes>
        0 -1 7539629 4.9263376240560319e-06</internalNodes>
      <leafValues>
        -6.3161212019622326e-03 8.9968180656433105e-01</leafValues></_>
    <_>
      <internalNodes>
        0 -1 4646210 -1.5465000615222380e-05</internalNodes>
      <leafValues>
        -1. -3.3210124820470810e-03</leafValues></_>
    <_>
      <internalNodes>
        0 -1 1170459 1.6121419321279973e-05</internalNodes>
      <leafValues>
        -2.5350542273372412e-03 9.3115621805191040e-01</leafValues></_>
    <_>
      <internalNodes>
        0 -1 1514241 1.1292722774669528e-04</internalNodes>
      <leafValues>
        1.1934989015571773e-04 -1.</leafValues></_>
    <_>
      <internalNodes>
        0 -1 1514241 2.8212481993250549e-05</internalNodes>
      <leafValues>
        1.7653184477239847e-03 9.3143701553344727e-01</leafValues></_>
    <_>
      <internalNodes>
        0 -1 726441 -2.8171039957669564e-05</internalNodes>
      <leafValues>
        -9.5690804719924927e-01 -9.9805335048586130e-04</leafValues></_>
    <_>
      <internalNodes>
        0 -1 7363495 -4.3441879097372293e-04</internalNodes>
      <leafValues>
        1. 3.2466549891978502e-03</leafValues></_>
    <_>
      <internalNodes>
        0 -1 7715113 -2.8238247978151776e-05</internalNodes>
      <leafValues>
        -1. 2.0738181192427874e-03</leafValues></_>
    <_>
      <internalNodes>
        0 -1 7370730 -2.9539987735915929e-06</internalNodes>
      <leafValues>
        1. -1.7644157633185387e-03</leafValues></_>
    <_>
      <internalNodes>
        0 -1 7269868 3.5840625059790909e-05</internalNodes>
      <leafValues>
        -1.4542546123266220e-03 -1.</leafValues></_>
    <_>
      <internalNodes>
        0 -1 7269868 1.5436198737006634e-05</internalNodes>
      <leafValues>
        -4.3850432848557830e-04 1.</leafValues></_>
    <_>
      <internalNodes>
        0 -1 7269868 2.0404426322784275e-05</internalNodes>
      <leafValues>
        3.8033974124118686e-04 -1.</leafValues></_>
    <_>
      <internalNodes>
        0 -1 7269868 1.5436198737006634e-05</internalNodes>
      <leafValues>
        -3.8033977034501731e-04 1.</leafValues></_>
    <_>
      <internalNodes>
        0 -1 7269868 2.0404426322784275e-05</internalNodes>
      <leafValues>
        3.8033977034501731e-04 -1.</leafValues></_>
    <_>
      <internalNodes>
        0 -1 7269868 1.5436198737006634e-05</internalNodes>
      <leafValues>
        -3.8033977034501731e-04 1.</leafValues></_>
    <_>
      <internalNodes>
        0 -1 7269868 2.0404426322784275e-05</internalNodes>
      <leafValues>
        3.8033977034501731e-04 -1.</leafValues></_>
    <_>
      <internalNodes>
        0 -1 7269868 1.5436198737006634e-05</internalNodes>
      <leafValues>
        -3.8033977034501731e-04 1.</leafValues></_>
    <_>
      <internalNodes>
        0 -1 7269868 2.0404426322784275e-05</internalNodes>
      <leafValues>
        3.8033977034501731e-04 -1.</leafValues></_>
    <_>
      <internalNodes>
        0 -1 7269868 1.5436198737006634e-05</internalNodes>
      <leafValues>
        -3.8033977034501731e-04 1.</leafValues></_>
    <_>
      <internalNodes>
        0 -1 7269868 2.0404426322784275e-05</internalNodes>
      <leafValues>
        3.8033977034501731e-04 -1.</leafValues></_>
    <_>
      <internalNodes>
        0 -1 7269868 1.5436198737006634e-05</internalNodes>
      <leafValues>
        -3.8033977034501731e-04 1.</leafValues></_>
    <_>
      <internalNodes>
        0 -1 7269868 2.0404426322784275e-05</internalNodes>
      <leafValues>
        3.8033977034501731e-04 -1.</leafValues></_>
    <_>
      <internalNodes>
        0 -1 7269868 1.5436198737006634e-05</internalNodes>
      <leafValues>
        -3.8033977034501731e-04 1.</leafValues></_>
    <_>
      <internalNodes>
        0 -1 7269868 2.0404426322784275e-05</internalNodes>
      <leafValues>
        3.8033977034501731e-04 -1.</leafValues></_>
    <_>
      <internalNodes>
        0 -1 7269868 1.5436198737006634e-05</internalNodes>
      <leafValues>
        -3.8033977034501731e-04 1.</leafValues></_>
    <_>
      <internalNodes>
        0 -1 7269868 2.0404426322784275e-05</internalNodes>
      <leafValues>
        3.8033977034501731e-04 -1.</leafValues></_>
    <_>
      <internalNodes>
        0 -1 7269868 1.5436198737006634e-05</internalNodes>
      <leafValues>
        -3.8033977034501731e-04 1.</leafValues></_>
    <_>
      <internalNodes>
        0 -1 7269868 2.0404426322784275e-05</internalNodes>
      <leafValues>
        3.8033977034501731e-04 -1.</leafValues></_>
    <_>
      <internalNodes>
        0 -1 7269868 1.5436198737006634e-05</internalNodes>
      <leafValues>
        -3.8033977034501731e-04 1.</leafValues></_>
    <_>
      <internalNodes>
        0 -1 7269868 2.0404426322784275e-05</internalNodes>
      <leafValues>
        3.8033977034501731e-04 -1.</leafValues></_>
    <_>
      <internalNodes>
        0 -1 7269868 1.5436198737006634e-05</internalNodes>
      <leafValues>
        -3.8033977034501731e-04 1.</leafValues></_>
    <_>
      <internalNodes>
        0 -1 7269868 2.0404426322784275e-05</internalNodes>
      <leafValues>
        3.8033977034501731e-04 -1.</leafValues></_>
    <_>
      <internalNodes>
        0 -1 7269868 1.5436198737006634e-05</internalNodes>
      <leafValues>
        -3.8033977034501731e-04 1.</leafValues></_>
    <_>
      <internalNodes>
        0 -1 7269868 2.0404426322784275e-05</internalNodes>
      <leafValues>
        3.8033977034501731e-04 -1.</leafValues></_>
    <_>
      <internalNodes>
        0 -1 7269868 1.5436198737006634e-05</internalNodes>
      <leafValues>
        -3.8033977034501731e-04 1.</leafValues></_>
    <_>
      <internalNodes>
        0 -1 7269868 2.0404426322784275e-05</internalNodes>
      <leafValues>
        3.8033977034501731e-04 -1.</leafValues></_>
    <_>
      <internalNodes>
        0 -1 7269868 1.5436198737006634e-05</internalNodes>
      <leafValues>
        -3.8033977034501731e-04 1.</leafValues></_>
    <_>
      <internalNodes>
        0 -1 7269868 2.0404426322784275e-05</internalNodes>
      <leafValues>
        3.8033977034501731e-04 -1.</leafValues></_>
    <_>
      <internalNodes>
        0 -1 7269868 1.5436198737006634e-05</internalNodes>
      <leafValues>
        -3.8033977034501731e-04 1.</leafValues></_>
    <_>
      <internalNodes>
        0 -1 7269868 2.0404426322784275e-05</internalNodes>
      <leafValues>
        3.8033977034501731e-04 -1.</leafValues></_>
    <_>
      <internalNodes>
        0 -1 7269868 1.5436198737006634e-05</internalNodes>
      <leafValues>
        -3.8033977034501731e-04 1.</leafValues></_>
    <_>
      <internalNodes>
        0 -1 7269868 2.0404426322784275e-05</internalNodes>
      <leafValues>
        3.8033977034501731e-04 -1.</leafValues></_>
    <_>
      <internalNodes>
        0 -1 7269868 1.5436198737006634e-05</internalNodes>
      <leafValues>
        -3.8033977034501731e-04 1.</leafValues></_>
    <_>
      <internalNodes>
        0 -1 7269868 2.0404426322784275e-05</internalNodes>
      <leafValues>
        3.8033977034501731e-04 -1.</leafValues></_>
    <_>
      <internalNodes>
        0 -1 7269868 1.5436198737006634e-05</internalNodes>
      <leafValues>
        -3.8033977034501731e-04 1.</leafValues></_>
    <_>
      <internalNodes>
        0 -1 7269868 2.0404426322784275e-05</internalNodes>
      <leafValues>
        3.8033977034501731e-04 -1.</leafValues></_>
    <_>
      <internalNodes>
        0 -1 7269868 1.5436198737006634e-05</internalNodes>
      <leafValues>
        -3.8033977034501731e-04 1.</leafValues></_>
    <_>
      <internalNodes>
        0 -1 7269868 2.0404426322784275e-05</internalNodes>
      <leafValues>
        3.8033977034501731e-04 -1.</leafValues></_>
    <_>
      <internalNodes>
        0 -1 7269868 1.5436198737006634e-05</internalNodes>
      <leafValues>
        -3.8033977034501731e-04 1.</leafValues></_>
    <_>
      <internalNodes>
        0 -1 7269868 2.0404426322784275e-05</internalNodes>
      <leafValues>
        3.8033977034501731e-04 -1.</leafValues></_>
    <_>
      <internalNodes>
        0 -1 7269868 1.5436198737006634e-05</internalNodes>
      <leafValues>
        -3.8033977034501731e-04 1.</leafValues></_>
    <_>
      <internalNodes>
        0 -1 7269868 2.0404426322784275e-05</internalNodes>
      <leafValues>
        3.8033977034501731e-04 -1.</leafValues></_>
    <_>
      <internalNodes>
        0 -1 7269868 1.5436198737006634e-05</internalNodes>
      <leafValues>
        -3.8033977034501731e-04 1.</leafValues></_>
    <_>
      <internalNodes>
        0 -1 7269868 2.0404426322784275e-05</internalNodes>
      <leafValues>
        3.8033977034501731e-04 -1.</leafValues></_>
    <_>
      <internalNodes>
        0 -1 7269868 1.5436198737006634e-05</internalNodes>
      <leafValues>
        -3.8033977034501731e-04 1.</leafValues></_>
    <_>
      <internalNodes>
        0 -1 7269868 2.0404426322784275e-05</internalNodes>
      <leafValues>
        3.8033977034501731e-04 -1.</leafValues></_>
    <_>
      <internalNodes>
        0 -1 7269868 1.5436198737006634e-05</internalNodes>
      <leafValues>
        -3.8033977034501731e-04 1.</leafValues></_>
    <_>
      <internalNodes>
        0 -1 7269868 2.0404426322784275e-05</internalNodes>
      <leafValues>
        3.8033977034501731e-04 -1.</leafValues></_>
    <_>
      <internalNodes>
        0 -1 7269868 1.5436198737006634e-05</internalNodes>
      <leafValues>
        -3.8033977034501731e-04 1.</leafValues></_>
    <_>
      <internalNodes>
        0 -1 7269868 2.0404426322784275e-05</internalNodes>
      <leafValues>
        3.8033977034501731e-04 -1.</leafValues></_>
    <_>
      <internalNodes>
        0 -1 7269868 1.5436198737006634e-05</internalNodes>
      <leafValues>
        -3.8033977034501731e-04 1.</leafValues></_>
    <_>
      <internalNodes>
        0 -1 7269868 2.0404426322784275e-05</internalNodes>
      <leafValues>
        3.8033977034501731e-04 -1.</leafValues></_>
    <_>
      <internalNodes>
        0 -1 7269868 1.5436198737006634e-05</internalNodes>
      <leafValues>
        -3.8033977034501731e-04 1.</leafValues></_>
    <_>
      <internalNodes>
        0 -1 7269868 2.0404426322784275e-05</internalNodes>
      <leafValues>
        3.8033977034501731e-04 -1.</leafValues></_>
    <_>
      <internalNodes>
        0 -1 7269868 1.5436198737006634e-05</internalNodes>
      <leafValues>
        -3.8033977034501731e-04 1.</leafValues></_>
    <_>
      <internalNodes>
        0 -1 7269868 2.0404426322784275e-05</internalNodes>
      <leafValues>
        3.8033977034501731e-04 -1.</leafValues></_>
    <_>
      <internalNodes>
        0 -1 7269868 1.5436198737006634e-05</internalNodes>
      <leafValues>
        -3.8033977034501731e-04 1.</leafValues></_>
    <_>
      <internalNodes>
        0 -1 7269868 2.0404426322784275e-05</internalNodes>
      <leafValues>
        3.8033977034501731e-04 -1.</leafValues></_>
    <_>
      <internalNodes>
        0 -1 7269868 1.5436198737006634e-05</internalNodes>
      <leafValues>
        -3.8033977034501731e-04 1.</leafValues></_>
    <_>
      <internalNodes>
        0 -1 7269868 2.0404426322784275e-05</internalNodes>
      <leafValues>
        3.8033977034501731e-04 -1.</leafValues></_>
    <_>
      <internalNodes>
        0 -1 7269868 1.5436198737006634e-05</internalNodes>
      <leafValues>
        -3.8033977034501731e-04 1.</leafValues></_>
    <_>
      <internalNodes>
        0 -1 7269868 2.0404426322784275e-05</internalNodes>
      <leafValues>
        3.8033977034501731e-04 -1.</leafValues></_>
    <_>
      <internalNodes>
        0 -1 7269868 1.5436198737006634e-05</internalNodes>
      <leafValues>
        -3.8033977034501731e-04 1.</leafValues></_>
    <_>
      <internalNodes>
        0 -1 7269868 2.0404426322784275e-05</internalNodes>
      <leafValues>
        3.8033977034501731e-04 -1.</leafValues></_>
    <_>
      <internalNodes>
        0 -1 7269868 1.5436198737006634e-05</internalNodes>
      <leafValues>
        -3.8033977034501731e-04 1.</leafValues></_></weakClassifiers></stage10>
</opencv_storage>
