<?xml version="1.0"?>
<opencv_storage>
<stage15>
  <maxWeakCount>17</maxWeakCount>
  <stageThreshold>-9.1304951906204224e-01</stageThreshold>
  <weakClassifiers>
    <_>
      <internalNodes>
        0 -1 1908650 1.8832561327144504e-03</internalNodes>
      <leafValues>
        1.0510046035051346e-01 8.6274510622024536e-01</leafValues></_>
    <_>
      <internalNodes>
        0 -1 4672250 3.1009111553430557e-03</internalNodes>
      <leafValues>
        -8.4231458604335785e-02 8.2079213857650757e-01</leafValues></_>
    <_>
      <internalNodes>
        0 -1 2001588 -3.2864976674318314e-03</internalNodes>
      <leafValues>
        7.7685093879699707e-01 -1.1283392459154129e-01</leafValues></_>
    <_>
      <internalNodes>
        0 -1 651592 -2.2536937147378922e-02</internalNodes>
      <leafValues>
        -8.5993283987045288e-01 1.1578157544136047e-01</leafValues></_>
    <_>
      <internalNodes>
        0 -1 4224990 -6.9023005198687315e-04</internalNodes>
      <leafValues>
        6.8207103013992310e-01 -1.3326671719551086e-01</leafValues></_>
    <_>
      <internalNodes>
        0 -1 883213 3.4238562420796370e-06</internalNodes>
      <leafValues>
        2.0455287396907806e-01 -5.2356988191604614e-01</leafValues></_>
    <_>
      <internalNodes>
        0 -1 7216054 -3.3412788063287735e-02</internalNodes>
      <leafValues>
        -9.2401111125946045e-01 8.9235253632068634e-02</leafValues></_>
    <_>
      <internalNodes>
        0 -1 2670688 -7.2263209149241447e-03</internalNodes>
      <leafValues>
        3.3686336874961853e-01 -2.6420649886131287e-01</leafValues></_>
    <_>
      <internalNodes>
        0 -1 3435130 1.5134948771446943e-03</internalNodes>
      <leafValues>
        -1.3094267249107361e-01 7.4484103918075562e-01</leafValues></_>
    <_>
      <internalNodes>
        0 -1 2993764 7.2663719765841961e-03</internalNodes>
      <leafValues>
        1.4886158704757690e-01 -6.5501803159713745e-01</leafValues></_>
    <_>
      <internalNodes>
        0 -1 3574966 -3.5351888527657138e-06</internalNodes>
      <leafValues>
        -4.6969547867774963e-01 1.7765919864177704e-01</leafValues></_>
    <_>
      <internalNodes>
        0 -1 90015 2.3473086766898632e-03</internalNodes>
      <leafValues>
        -1.2108702212572098e-01 6.8625414371490479e-01</leafValues></_>
    <_>
      <internalNodes>
        0 -1 4533844 -1.9755847752094269e-02</internalNodes>
      <leafValues>
        -9.0547668933868408e-01 1.0050325840711594e-01</leafValues></_>
    <_>
      <internalNodes>
        0 -1 462965 1.5753426851006225e-05</internalNodes>
      <leafValues>
        1.5957419574260712e-01 -4.5874160528182983e-01</leafValues></_>
    <_>
      <internalNodes>
        0 -1 1590432 -4.1681127622723579e-03</internalNodes>
      <leafValues>
        8.8419497013092041e-01 -9.2080593109130859e-02</leafValues></_>
    <_>
      <internalNodes>
        0 -1 6654812 -5.2700415253639221e-02</internalNodes>
      <leafValues>
        4.7931683063507080e-01 -1.6690449416637421e-01</leafValues></_>
    <_>
      <internalNodes>
        0 -1 5815953 -1.3117784401401877e-03</internalNodes>
      <leafValues>
        4.6671292185783386e-01 -1.9772341847419739e-01</leafValues></_></weakClassifiers></stage15>
</opencv_storage>
