<?xml version="1.0"?>
<opencv_storage>
<stage2>
  <maxWeakCount>6</maxWeakCount>
  <stageThreshold>-8.9536941051483154e-01</stageThreshold>
  <weakClassifiers>
    <_>
      <internalNodes>
        0 -1 1116136 -1.2963871471583843e-02</internalNodes>
      <leafValues>
        -8.3132529258728027e-01 5.3312301635742188e-01</leafValues></_>
    <_>
      <internalNodes>
        0 -1 981157 1.7681453377008438e-02</internalNodes>
      <leafValues>
        2.7112343907356262e-01 -8.8319784402847290e-01</leafValues></_>
    <_>
      <internalNodes>
        0 -1 34156 -1.7053280025720596e-02</internalNodes>
      <leafValues>
        -8.4373831748962402e-01 2.4418886005878448e-01</leafValues></_>
    <_>
      <internalNodes>
        0 -1 5497394 2.0554237067699432e-02</internalNodes>
      <leafValues>
        1.5058514475822449e-01 -9.3830341100692749e-01</leafValues></_>
    <_>
      <internalNodes>
        0 -1 326719 1.5762144699692726e-02</internalNodes>
      <leafValues>
        2.1513834595680237e-01 -8.1450724601745605e-01</leafValues></_>
    <_>
      <internalNodes>
        0 -1 6059 3.3232614398002625e-02</internalNodes>
      <leafValues>
        2.0924140512943268e-01 -9.7610378265380859e-01</leafValues></_></weakClassifiers></stage2>
</opencv_storage>
