<?xml version="1.0"?>
<opencv_storage>
<stage3>
  <maxWeakCount>6</maxWeakCount>
  <stageThreshold>-8.5192483663558960e-01</stageThreshold>
  <weakClassifiers>
    <_>
      <internalNodes>
        0 -1 1279508 -1.9800402224063873e-02</internalNodes>
      <leafValues>
        -9.1061455011367798e-01 5.8454108238220215e-01</leafValues></_>
    <_>
      <internalNodes>
        0 -1 11390 2.0265648141503334e-02</internalNodes>
      <leafValues>
        3.4060800075531006e-01 -9.4174313545227051e-01</leafValues></_>
    <_>
      <internalNodes>
        0 -1 95321 -1.9969969987869263e-02</internalNodes>
      <leafValues>
        -9.3997216224670410e-01 2.1615122258663177e-01</leafValues></_>
    <_>
      <internalNodes>
        0 -1 4998256 -1.2377161532640457e-02</internalNodes>
      <leafValues>
        -9.1799479722976685e-01 2.3114754259586334e-01</leafValues></_>
    <_>
      <internalNodes>
        0 -1 4706440 1.3306685723364353e-02</internalNodes>
      <leafValues>
        2.0145824551582336e-01 -9.6333873271942139e-01</leafValues></_>
    <_>
      <internalNodes>
        0 -1 1561959 -1.3872492127120495e-02</internalNodes>
      <leafValues>
        -8.8758558034896851e-01 2.2544804215431213e-01</leafValues></_></weakClassifiers></stage3>
</opencv_storage>
