<?xml version="1.0"?>
<opencv_storage>
<stage12>
  <maxWeakCount>19</maxWeakCount>
  <stageThreshold>-8.8012784719467163e-01</stageThreshold>
  <weakClassifiers>
    <_>
      <internalNodes>
        0 -1 1686264 1.4292615232989192e-03</internalNodes>
      <leafValues>
        -3.2984292507171631e-01 4.3185549974441528e-01</leafValues></_>
    <_>
      <internalNodes>
        0 -1 1336349 -2.4857181415427476e-05</internalNodes>
      <leafValues>
        -4.1080564260482788e-01 2.7071189880371094e-01</leafValues></_>
    <_>
      <internalNodes>
        0 -1 1808706 -7.1692847996018827e-06</internalNodes>
      <leafValues>
        4.0290954709053040e-01 -2.4641674757003784e-01</leafValues></_>
    <_>
      <internalNodes>
        0 -1 2010097 1.6547512263059616e-02</internalNodes>
      <leafValues>
        -2.0491744577884674e-01 5.3742706775665283e-01</leafValues></_>
    <_>
      <internalNodes>
        0 -1 1737162 -1.0564948897808790e-03</internalNodes>
      <leafValues>
        3.8136643171310425e-01 -2.4443541467189789e-01</leafValues></_>
    <_>
      <internalNodes>
        0 -1 648602 9.9548129364848137e-03</internalNodes>
      <leafValues>
        -2.2268080711364746e-01 4.5493063330650330e-01</leafValues></_>
    <_>
      <internalNodes>
        0 -1 2428690 -7.0068263448774815e-04</internalNodes>
      <leafValues>
        8.8122493028640747e-01 -1.2425474822521210e-01</leafValues></_>
    <_>
      <internalNodes>
        0 -1 1710103 -1.8742468208074570e-02</internalNodes>
      <leafValues>
        -7.1561735868453979e-01 1.4776404201984406e-01</leafValues></_>
    <_>
      <internalNodes>
        0 -1 1889289 7.3565645143389702e-03</internalNodes>
      <leafValues>
        7.4654370546340942e-02 -9.7531664371490479e-01</leafValues></_>
    <_>
      <internalNodes>
        0 -1 2382117 3.5449508577585220e-03</internalNodes>
      <leafValues>
        -2.4417503178119659e-01 3.2883682847023010e-01</leafValues></_>
    <_>
      <internalNodes>
        0 -1 2410177 -2.7346671558916569e-03</internalNodes>
      <leafValues>
        3.9348161220550537e-01 -2.2116160392761230e-01</leafValues></_>
    <_>
      <internalNodes>
        0 -1 1725751 -7.2681737947277725e-05</internalNodes>
      <leafValues>
        -3.1346595287322998e-01 2.6734879612922668e-01</leafValues></_>
    <_>
      <internalNodes>
        0 -1 569048 -4.6973850112408400e-04</internalNodes>
      <leafValues>
        3.8053306937217712e-01 -2.2709317505359650e-01</leafValues></_>
    <_>
      <internalNodes>
        0 -1 1904493 -8.1986695295199752e-04</internalNodes>
      <leafValues>
        5.6008434295654297e-01 -1.5162855386734009e-01</leafValues></_>
    <_>
      <internalNodes>
        0 -1 1808009 -8.7609259935561568e-06</internalNodes>
      <leafValues>
        2.9102215170860291e-01 -2.7629205584526062e-01</leafValues></_>
    <_>
      <internalNodes>
        0 -1 830945 -4.0473639965057373e-03</internalNodes>
      <leafValues>
        1.9571551680564880e-01 -4.4471436738967896e-01</leafValues></_>
    <_>
      <internalNodes>
        0 -1 9896 -9.5417548436671495e-04</internalNodes>
      <leafValues>
        -5.2792745828628540e-01 1.6106966137886047e-01</leafValues></_>
    <_>
      <internalNodes>
        0 -1 1401058 -1.1010621528839692e-04</internalNodes>
      <leafValues>
        -4.5496511459350586e-01 1.6851107776165009e-01</leafValues></_>
    <_>
      <internalNodes>
        0 -1 850362 6.4882234437391162e-04</internalNodes>
      <leafValues>
        -2.3293749988079071e-01 3.9154398441314697e-01</leafValues></_></weakClassifiers></stage12>
</opencv_storage>
