<?xml version="1.0"?>
<opencv_storage>
<stage5>
  <maxWeakCount>7</maxWeakCount>
  <stageThreshold>-7.8760224580764771e-01</stageThreshold>
  <weakClassifiers>
    <_>
      <internalNodes>
        0 -1 4950567 1.3760261237621307e-02</internalNodes>
      <leafValues>
        4.6428570151329041e-01 -8.7500000000000000e-01</leafValues></_>
    <_>
      <internalNodes>
        0 -1 1948592 -4.8923411668511108e-06</internalNodes>
      <leafValues>
        -5.7720702886581421e-01 4.0883392095565796e-01</leafValues></_>
    <_>
      <internalNodes>
        0 -1 6355774 4.1889147723850328e-06</internalNodes>
      <leafValues>
        3.6527681350708008e-01 -5.5373400449752808e-01</leafValues></_>
    <_>
      <internalNodes>
        0 -1 7214053 2.0593711269611958e-06</internalNodes>
      <leafValues>
        3.3681985735893250e-01 -6.3390803337097168e-01</leafValues></_>
    <_>
      <internalNodes>
        0 -1 429377 -2.7776438855653396e-06</internalNodes>
      <leafValues>
        -5.5208772420883179e-01 3.6212387681007385e-01</leafValues></_>
    <_>
      <internalNodes>
        0 -1 28120 8.0331051722168922e-03</internalNodes>
      <leafValues>
        2.3257204890251160e-01 -8.2001352310180664e-01</leafValues></_>
    <_>
      <internalNodes>
        0 -1 1452982 -5.0965718401130289e-05</internalNodes>
      <leafValues>
        -6.4750087261199951e-01 2.9083967208862305e-01</leafValues></_></weakClassifiers></stage5>
</opencv_storage>
