<?xml version="1.0"?>
<opencv_storage>
<stage12>
  <maxWeakCount>18</maxWeakCount>
  <stageThreshold>-7.6947909593582153e-01</stageThreshold>
  <weakClassifiers>
    <_>
      <internalNodes>
        0 -1 3272678 -3.3090569078922272e-02</internalNodes>
      <leafValues>
        7.3360657691955566e-01 3.7769783288240433e-02</leafValues></_>
    <_>
      <internalNodes>
        0 -1 2808179 -1.0543141979724169e-03</internalNodes>
      <leafValues>
        4.7204762697219849e-01 -1.8809834122657776e-01</leafValues></_>
    <_>
      <internalNodes>
        0 -1 2778936 2.5584600865840912e-02</internalNodes>
      <leafValues>
        -2.0483072102069855e-01 6.0305017232894897e-01</leafValues></_>
    <_>
      <internalNodes>
        0 -1 2069343 2.8510615229606628e-02</internalNodes>
      <leafValues>
        -1.3747726380825043e-01 5.4617410898208618e-01</leafValues></_>
    <_>
      <internalNodes>
        0 -1 2545685 -5.4674193961545825e-04</internalNodes>
      <leafValues>
        5.3961294889450073e-01 -1.7052152752876282e-01</leafValues></_>
    <_>
      <internalNodes>
        0 -1 3006812 6.1806524172425270e-04</internalNodes>
      <leafValues>
        1.2349816411733627e-01 -7.6076143980026245e-01</leafValues></_>
    <_>
      <internalNodes>
        0 -1 3092548 -2.0741925109177828e-03</internalNodes>
      <leafValues>
        -7.3494875431060791e-01 8.2566648721694946e-02</leafValues></_>
    <_>
      <internalNodes>
        0 -1 3402589 1.4488719170913100e-04</internalNodes>
      <leafValues>
        -2.1086212992668152e-01 4.7688162326812744e-01</leafValues></_>
    <_>
      <internalNodes>
        0 -1 3405342 -3.0730839353054762e-04</internalNodes>
      <leafValues>
        5.7513928413391113e-01 -1.4765581488609314e-01</leafValues></_>
    <_>
      <internalNodes>
        0 -1 3172319 1.0178375523537397e-03</internalNodes>
      <leafValues>
        1.1166092008352280e-01 -8.5122442245483398e-01</leafValues></_>
    <_>
      <internalNodes>
        0 -1 3669321 9.9952201708219945e-05</internalNodes>
      <leafValues>
        -1.9078205525875092e-01 5.3806501626968384e-01</leafValues></_>
    <_>
      <internalNodes>
        0 -1 3670644 2.5105624808929861e-04</internalNodes>
      <leafValues>
        -1.5711881220340729e-01 6.1500436067581177e-01</leafValues></_>
    <_>
      <internalNodes>
        0 -1 3174073 2.8777503757737577e-04</internalNodes>
      <leafValues>
        -6.4337235689163208e-01 1.6392162442207336e-01</leafValues></_>
    <_>
      <internalNodes>
        0 -1 3671944 2.4438981199637055e-04</internalNodes>
      <leafValues>
        -1.7837013304233551e-01 5.8314812183380127e-01</leafValues></_>
    <_>
      <internalNodes>
        0 -1 3090363 -1.2693929020315409e-03</internalNodes>
      <leafValues>
        -4.9121746420860291e-01 2.0286598801612854e-01</leafValues></_>
    <_>
      <internalNodes>
        0 -1 2735943 -6.0227542417123914e-04</internalNodes>
      <leafValues>
        4.6439337730407715e-01 -2.0971766114234924e-01</leafValues></_>
    <_>
      <internalNodes>
        0 -1 3251171 -2.2495785378850996e-04</internalNodes>
      <leafValues>
        -9.4295126199722290e-01 1.2585546076297760e-01</leafValues></_>
    <_>
      <internalNodes>
        0 -1 2453238 -5.5097450967878103e-04</internalNodes>
      <leafValues>
        3.8837435841560364e-01 -2.7968043088912964e-01</leafValues></_></weakClassifiers></stage12>
</opencv_storage>
