<?xml version="1.0"?>
<opencv_storage>
<stage18>
  <maxWeakCount>15</maxWeakCount>
  <stageThreshold>-7.3632502555847168e-01</stageThreshold>
  <weakClassifiers>
    <_>
      <internalNodes>
        0 -1 1153739 -1.5710973739624023e-01</internalNodes>
      <leafValues>
        9.1143912076950073e-01 1.1512415111064911e-01</leafValues></_>
    <_>
      <internalNodes>
        0 -1 3669566 -4.5537971891462803e-04</internalNodes>
      <leafValues>
        5.3673434257507324e-01 -9.7217589616775513e-02</leafValues></_>
    <_>
      <internalNodes>
        0 -1 3470885 4.5510119525715709e-04</internalNodes>
      <leafValues>
        -1.8250033259391785e-01 4.4865006208419800e-01</leafValues></_>
    <_>
      <internalNodes>
        0 -1 2362713 1.8528286600485444e-03</internalNodes>
      <leafValues>
        -2.0195963978767395e-01 3.6201414465904236e-01</leafValues></_>
    <_>
      <internalNodes>
        0 -1 3006640 2.3307679221034050e-03</internalNodes>
      <leafValues>
        9.9510729312896729e-02 -7.4979627132415771e-01</leafValues></_>
    <_>
      <internalNodes>
        0 -1 2569270 -4.7040532808750868e-04</internalNodes>
      <leafValues>
        5.2371144294738770e-01 -1.5679596364498138e-01</leafValues></_>
    <_>
      <internalNodes>
        0 -1 3313769 -2.6631737127900124e-03</internalNodes>
      <leafValues>
        -7.1232920885086060e-01 1.3599866628646851e-01</leafValues></_>
    <_>
      <internalNodes>
        0 -1 2569188 7.5900100637227297e-04</internalNodes>
      <leafValues>
        -1.4191338419914246e-01 6.4858734607696533e-01</leafValues></_>
    <_>
      <internalNodes>
        0 -1 2223611 -1.2012833030894399e-03</internalNodes>
      <leafValues>
        -4.9744370579719543e-01 1.6617000102996826e-01</leafValues></_>
    <_>
      <internalNodes>
        0 -1 2744969 3.1186145497485995e-04</internalNodes>
      <leafValues>
        -2.7990058064460754e-01 2.7123358845710754e-01</leafValues></_>
    <_>
      <internalNodes>
        0 -1 2651389 5.1465269643813372e-04</internalNodes>
      <leafValues>
        -1.1912868916988373e-01 6.8078887462615967e-01</leafValues></_>
    <_>
      <internalNodes>
        0 -1 3470473 -2.1892970835324377e-05</internalNodes>
      <leafValues>
        2.8049176931381226e-01 -2.7993473410606384e-01</leafValues></_>
    <_>
      <internalNodes>
        0 -1 3172492 -2.2372230887413025e-03</internalNodes>
      <leafValues>
        -5.6824368238449097e-01 1.3668818771839142e-01</leafValues></_>
    <_>
      <internalNodes>
        0 -1 3399567 9.9393597338348627e-05</internalNodes>
      <leafValues>
        -2.3071038722991943e-01 3.4397897124290466e-01</leafValues></_>
    <_>
      <internalNodes>
        0 -1 3328025 5.6169879826484248e-05</internalNodes>
      <leafValues>
        -2.5088962912559509e-01 3.8581630587577820e-01</leafValues></_></weakClassifiers></stage18>
</opencv_storage>
