<?xml version="1.0"?>
<opencv_storage>
<stage4>
  <maxWeakCount>13</maxWeakCount>
  <stageThreshold>-1.1340253353118896e+00</stageThreshold>
  <weakClassifiers>
    <_>
      <internalNodes>
        0 -1 4031 2.1064493805170059e-02</internalNodes>
      <leafValues>
        3.8138559460639954e-01 -8.4795320034027100e-01</leafValues></_>
    <_>
      <internalNodes>
        0 -1 4012 1.2982514686882496e-02</internalNodes>
      <leafValues>
        1.5157565474510193e-01 -9.2999261617660522e-01</leafValues></_>
    <_>
      <internalNodes>
        0 -1 1377894 -2.6390373241156340e-03</internalNodes>
      <leafValues>
        7.6508963108062744e-01 -2.1058173477649689e-01</leafValues></_>
    <_>
      <internalNodes>
        0 -1 4840397 3.0066778417676687e-03</internalNodes>
      <leafValues>
        -9.6595287322998047e-02 9.2501068115234375e-01</leafValues></_>
    <_>
      <internalNodes>
        0 -1 320271 1.8792563423630781e-05</internalNodes>
      <leafValues>
        2.1457037329673767e-01 -6.6172295808792114e-01</leafValues></_>
    <_>
      <internalNodes>
        0 -1 1837857 1.5540987951681018e-03</internalNodes>
      <leafValues>
        -8.5609234869480133e-02 6.8399000167846680e-01</leafValues></_>
    <_>
      <internalNodes>
        0 -1 21684 -2.4097345769405365e-02</internalNodes>
      <leafValues>
        -8.2595598697662354e-01 1.3971751928329468e-01</leafValues></_>
    <_>
      <internalNodes>
        0 -1 7187343 4.2426679283380508e-03</internalNodes>
      <leafValues>
        -1.3100689649581909e-01 9.4078510999679565e-01</leafValues></_>
    <_>
      <internalNodes>
        0 -1 134741 1.9959323108196259e-02</internalNodes>
      <leafValues>
        1.0932223498821259e-01 -8.5709416866302490e-01</leafValues></_>
    <_>
      <internalNodes>
        0 -1 6852003 4.1410573758184910e-03</internalNodes>
      <leafValues>
        -1.0468761622905731e-01 9.1084331274032593e-01</leafValues></_>
    <_>
      <internalNodes>
        0 -1 2772322 -4.8677206039428711e-02</internalNodes>
      <leafValues>
        -8.3291035890579224e-01 1.1439111828804016e-01</leafValues></_>
    <_>
      <internalNodes>
        0 -1 6047747 -2.9638283886015415e-03</internalNodes>
      <leafValues>
        5.5157721042633057e-01 -1.6936048865318298e-01</leafValues></_>
    <_>
      <internalNodes>
        0 -1 6930214 9.5193710876628757e-05</internalNodes>
      <leafValues>
        1.7125043272972107e-01 -5.8010822534561157e-01</leafValues></_></weakClassifiers></stage4>
</opencv_storage>
