<?xml version="1.0"?>
<opencv_storage>
<stage11>
  <maxWeakCount>15</maxWeakCount>
  <stageThreshold>-8.2069355249404907e-01</stageThreshold>
  <weakClassifiers>
    <_>
      <internalNodes>
        0 -1 1477179 -1.8508908152580261e-01</internalNodes>
      <leafValues>
        7.4020618200302124e-01 3.6771301180124283e-02</leafValues></_>
    <_>
      <internalNodes>
        0 -1 2744675 1.1993660882581025e-04</internalNodes>
      <leafValues>
        -2.1188102662563324e-01 4.4670876860618591e-01</leafValues></_>
    <_>
      <internalNodes>
        0 -1 2264915 1.2148811947554350e-03</internalNodes>
      <leafValues>
        -2.7021369338035583e-01 4.0831324458122253e-01</leafValues></_>
    <_>
      <internalNodes>
        0 -1 2656163 7.3156261350959539e-05</internalNodes>
      <leafValues>
        -2.7142775058746338e-01 4.0780320763587952e-01</leafValues></_>
    <_>
      <internalNodes>
        0 -1 3247937 1.8445376190356910e-04</internalNodes>
      <leafValues>
        2.2638031840324402e-01 -4.9256870150566101e-01</leafValues></_>
    <_>
      <internalNodes>
        0 -1 2561825 -1.7036654055118561e-02</internalNodes>
      <leafValues>
        -9.1984200477600098e-01 1.2900944054126740e-01</leafValues></_>
    <_>
      <internalNodes>
        0 -1 2641264 2.8369302162900567e-04</internalNodes>
      <leafValues>
        -1.8556617200374603e-01 5.4580426216125488e-01</leafValues></_>
    <_>
      <internalNodes>
        0 -1 2911261 1.1999206617474556e-03</internalNodes>
      <leafValues>
        -6.7267799377441406e-01 1.3640312850475311e-01</leafValues></_>
    <_>
      <internalNodes>
        0 -1 2908865 -4.4650267227552831e-04</internalNodes>
      <leafValues>
        5.1601278781890869e-01 -2.0469796657562256e-01</leafValues></_>
    <_>
      <internalNodes>
        0 -1 3174409 -2.4030865170061588e-03</internalNodes>
      <leafValues>
        -8.6474555730819702e-01 1.4768129587173462e-01</leafValues></_>
    <_>
      <internalNodes>
        0 -1 3255743 2.3949559545144439e-04</internalNodes>
      <leafValues>
        -1.9912898540496826e-01 5.8445280790328979e-01</leafValues></_>
    <_>
      <internalNodes>
        0 -1 3605535 6.9577152316924185e-05</internalNodes>
      <leafValues>
        -2.5726702809333801e-01 4.2209118604660034e-01</leafValues></_>
    <_>
      <internalNodes>
        0 -1 2069514 4.2053595185279846e-02</internalNodes>
      <leafValues>
        -1.2200559675693512e-01 8.0917727947235107e-01</leafValues></_>
    <_>
      <internalNodes>
        0 -1 2937118 2.7015797793865204e-02</internalNodes>
      <leafValues>
        -1.8696025013923645e-01 5.6976133584976196e-01</leafValues></_>
    <_>
      <internalNodes>
        0 -1 3246117 -3.0515261460095644e-04</internalNodes>
      <leafValues>
        -8.2348030805587769e-01 1.3021360337734222e-01</leafValues></_></weakClassifiers></stage11>
</opencv_storage>
