<?xml version="1.0"?>
<opencv_storage>
<stage16>
  <maxWeakCount>21</maxWeakCount>
  <stageThreshold>-8.7748897075653076e-01</stageThreshold>
  <weakClassifiers>
    <_>
      <internalNodes>
        0 -1 3670483 2.0941849797964096e-03</internalNodes>
      <leafValues>
        4.3908423185348511e-01 -3.6339521408081055e-01</leafValues></_>
    <_>
      <internalNodes>
        0 -1 2238451 6.1148114502429962e-02</internalNodes>
      <leafValues>
        -2.6081967353820801e-01 3.9377683401107788e-01</leafValues></_>
    <_>
      <internalNodes>
        0 -1 4903751 8.1669334322214127e-03</internalNodes>
      <leafValues>
        1.8461780250072479e-01 -5.1695281267166138e-01</leafValues></_>
    <_>
      <internalNodes>
        0 -1 3557104 5.7374536991119385e-03</internalNodes>
      <leafValues>
        -1.5508273243904114e-01 5.6802177429199219e-01</leafValues></_>
    <_>
      <internalNodes>
        0 -1 4675930 1.0662036947906017e-03</internalNodes>
      <leafValues>
        9.3720719218254089e-02 -8.3554744720458984e-01</leafValues></_>
    <_>
      <internalNodes>
        0 -1 3410522 -3.8990969769656658e-03</internalNodes>
      <leafValues>
        4.0040791034698486e-01 -2.4158208072185516e-01</leafValues></_>
    <_>
      <internalNodes>
        0 -1 108447 -1.3166284188628197e-03</internalNodes>
      <leafValues>
        -4.7965022921562195e-01 1.8955090641975403e-01</leafValues></_>
    <_>
      <internalNodes>
        0 -1 5652859 1.2004658346995711e-03</internalNodes>
      <leafValues>
        1.2434079498052597e-01 -6.7272013425827026e-01</leafValues></_>
    <_>
      <internalNodes>
        0 -1 3544354 1.4631624799221754e-03</internalNodes>
      <leafValues>
        -1.9862838089466095e-01 4.9462985992431641e-01</leafValues></_>
    <_>
      <internalNodes>
        0 -1 5257404 3.3704400266287848e-05</internalNodes>
      <leafValues>
        -2.5897327065467834e-01 4.0863928198814392e-01</leafValues></_>
    <_>
      <internalNodes>
        0 -1 169421 7.2370452107861638e-04</internalNodes>
      <leafValues>
        2.0265041291713715e-01 -4.6075198054313660e-01</leafValues></_>
    <_>
      <internalNodes>
        0 -1 3289472 -2.9572279890999198e-04</internalNodes>
      <leafValues>
        2.9284444451332092e-01 -2.7601948380470276e-01</leafValues></_>
    <_>
      <internalNodes>
        0 -1 3745651 1.6094120219349861e-03</internalNodes>
      <leafValues>
        -4.3647304177284241e-01 2.0490600168704987e-01</leafValues></_>
    <_>
      <internalNodes>
        0 -1 4921117 6.1590391851495951e-05</internalNodes>
      <leafValues>
        -3.4556770324707031e-01 2.6564452052116394e-01</leafValues></_>
    <_>
      <internalNodes>
        0 -1 4046617 -6.9530545733869076e-03</internalNodes>
      <leafValues>
        5.0071436166763306e-01 -1.8330466747283936e-01</leafValues></_>
    <_>
      <internalNodes>
        0 -1 3805315 -1.0552679887041450e-03</internalNodes>
      <leafValues>
        6.2668293714523315e-01 -1.4416153728961945e-01</leafValues></_>
    <_>
      <internalNodes>
        0 -1 5144312 2.7745370753109455e-03</internalNodes>
      <leafValues>
        -2.9747924208641052e-01 3.4450936317443848e-01</leafValues></_>
    <_>
      <internalNodes>
        0 -1 108375 -4.8481952399015427e-04</internalNodes>
      <leafValues>
        -4.2995873093605042e-01 2.2202262282371521e-01</leafValues></_>
    <_>
      <internalNodes>
        0 -1 5760450 1.2064418842783198e-04</internalNodes>
      <leafValues>
        1.7922429740428925e-01 -5.0711393356323242e-01</leafValues></_>
    <_>
      <internalNodes>
        0 -1 4917793 7.3447066824883223e-04</internalNodes>
      <leafValues>
        9.9271893501281738e-02 -7.6809597015380859e-01</leafValues></_>
    <_>
      <internalNodes>
        0 -1 6908920 2.7834362117573619e-04</internalNodes>
      <leafValues>
        -2.0344211161136627e-01 4.3304187059402466e-01</leafValues></_></weakClassifiers></stage16>
</opencv_storage>
