<?xml version="1.0"?>
<opencv_storage>
<stage8>
  <maxWeakCount>9</maxWeakCount>
  <stageThreshold>-6.5755826234817505e-01</stageThreshold>
  <weakClassifiers>
    <_>
      <internalNodes>
        0 -1 3543219 -7.9963820098782890e-06</internalNodes>
      <leafValues>
        7.0091027021408081e-01 -1.6726835072040558e-01</leafValues></_>
    <_>
      <internalNodes>
        0 -1 508484 2.1776030771434307e-03</internalNodes>
      <leafValues>
        -1.7342156171798706e-01 8.0676287412643433e-01</leafValues></_>
    <_>
      <internalNodes>
        0 -1 1455662 1.4724144712090492e-03</internalNodes>
      <leafValues>
        -1.6426694393157959e-01 8.7587785720825195e-01</leafValues></_>
    <_>
      <internalNodes>
        0 -1 3152762 -1.6978851053863764e-03</internalNodes>
      <leafValues>
        8.7763196229934692e-01 -1.2144407629966736e-01</leafValues></_>
    <_>
      <internalNodes>
        0 -1 2112434 -3.1044095521792769e-04</internalNodes>
      <leafValues>
        8.7554377317428589e-01 -1.4550486207008362e-01</leafValues></_>
    <_>
      <internalNodes>
        0 -1 3397231 -5.2611989667639136e-04</internalNodes>
      <leafValues>
        5.0245708227157593e-01 -2.9355511069297791e-01</leafValues></_>
    <_>
      <internalNodes>
        0 -1 6473008 -1.8004287267103791e-03</internalNodes>
      <leafValues>
        8.1367403268814087e-01 -1.5465019643306732e-01</leafValues></_>
    <_>
      <internalNodes>
        0 -1 768097 -1.4495096402242780e-03</internalNodes>
      <leafValues>
        -6.7282694578170776e-01 2.3316290974617004e-01</leafValues></_>
    <_>
      <internalNodes>
        0 -1 6069812 2.6251928647980094e-04</internalNodes>
      <leafValues>
        -3.0053779482841492e-01 4.3936759233474731e-01</leafValues></_></weakClassifiers></stage8>
</opencv_storage>
