<?xml version="1.0"?>
<opencv_storage>
<stage17>
  <maxWeakCount>19</maxWeakCount>
  <stageThreshold>-9.8608267307281494e-01</stageThreshold>
  <weakClassifiers>
    <_>
      <internalNodes>
        0 -1 3955678 -5.2800856530666351e-02</internalNodes>
      <leafValues>
        -7.9661017656326294e-01 3.3333334326744080e-01</leafValues></_>
    <_>
      <internalNodes>
        0 -1 2308336 3.5417675971984863e-03</internalNodes>
      <leafValues>
        -8.1448882818222046e-02 8.2688248157501221e-01</leafValues></_>
    <_>
      <internalNodes>
        0 -1 186547 7.0911686634644866e-04</internalNodes>
      <leafValues>
        -2.3566514253616333e-01 5.5693519115447998e-01</leafValues></_>
    <_>
      <internalNodes>
        0 -1 2274155 -5.7138935662806034e-03</internalNodes>
      <leafValues>
        -7.8508764505386353e-01 1.9867867231369019e-01</leafValues></_>
    <_>
      <internalNodes>
        0 -1 1981145 3.4789806231856346e-03</internalNodes>
      <leafValues>
        -1.5547311305999756e-01 7.4139201641082764e-01</leafValues></_>
    <_>
      <internalNodes>
        0 -1 6174301 1.7889672890305519e-03</internalNodes>
      <leafValues>
        -9.3436233699321747e-02 7.9592049121856689e-01</leafValues></_>
    <_>
      <internalNodes>
        0 -1 6044250 1.7062671986423084e-06</internalNodes>
      <leafValues>
        2.3014947772026062e-01 -3.7988787889480591e-01</leafValues></_>
    <_>
      <internalNodes>
        0 -1 4239731 -1.2061850167810917e-02</internalNodes>
      <leafValues>
        -7.3597866296768188e-01 1.5805357694625854e-01</leafValues></_>
    <_>
      <internalNodes>
        0 -1 6773486 -2.0094350911676884e-03</internalNodes>
      <leafValues>
        9.1223567724227905e-01 -1.4391888678073883e-01</leafValues></_>
    <_>
      <internalNodes>
        0 -1 5468854 -1.6425523906946182e-02</internalNodes>
      <leafValues>
        -9.6456182003021240e-01 1.3669900596141815e-01</leafValues></_>
    <_>
      <internalNodes>
        0 -1 5092635 -3.5391753772273660e-04</internalNodes>
      <leafValues>
        3.3256694674491882e-01 -2.8032714128494263e-01</leafValues></_>
    <_>
      <internalNodes>
        0 -1 6551477 -4.2286524148948956e-06</internalNodes>
      <leafValues>
        3.8356530666351318e-01 -2.5556710362434387e-01</leafValues></_>
    <_>
      <internalNodes>
        0 -1 2158723 2.6346151717007160e-03</internalNodes>
      <leafValues>
        -9.5194868743419647e-02 6.5985107421875000e-01</leafValues></_>
    <_>
      <internalNodes>
        0 -1 3323680 -1.1308496817946434e-02</internalNodes>
      <leafValues>
        -9.1121029853820801e-01 9.8176106810569763e-02</leafValues></_>
    <_>
      <internalNodes>
        0 -1 4708186 -1.4155430835671723e-04</internalNodes>
      <leafValues>
        3.1685546040534973e-01 -2.5085887312889099e-01</leafValues></_>
    <_>
      <internalNodes>
        0 -1 979351 -1.0495133697986603e-02</internalNodes>
      <leafValues>
        -8.9197868108749390e-01 9.3247063457965851e-02</leafValues></_>
    <_>
      <internalNodes>
        0 -1 7400649 -2.9193474911153316e-03</internalNodes>
      <leafValues>
        8.5019361972808838e-01 -1.1710612475872040e-01</leafValues></_>
    <_>
      <internalNodes>
        0 -1 999519 -1.3749221106991172e-03</internalNodes>
      <leafValues>
        3.5608598589897156e-01 -2.2090935707092285e-01</leafValues></_>
    <_>
      <internalNodes>
        0 -1 887522 -6.9940257817506790e-03</internalNodes>
      <leafValues>
        -8.4659367799758911e-01 1.1153779923915863e-01</leafValues></_></weakClassifiers></stage17>
</opencv_storage>
