<?xml version="1.0"?>
<opencv_storage>
<stage19>
  <maxWeakCount>19</maxWeakCount>
  <stageThreshold>-9.2349106073379517e-01</stageThreshold>
  <weakClassifiers>
    <_>
      <internalNodes>
        0 -1 290817 1.2060456356266513e-05</internalNodes>
      <leafValues>
        4.2857143282890320e-01 -2.5659471750259399e-01</leafValues></_>
    <_>
      <internalNodes>
        0 -1 1391543 1.2711320305243134e-03</internalNodes>
      <leafValues>
        -1.2488547712564468e-01 6.5566438436508179e-01</leafValues></_>
    <_>
      <internalNodes>
        0 -1 2391864 -6.0208016075193882e-03</internalNodes>
      <leafValues>
        -8.7457501888275146e-01 1.0658388584852219e-01</leafValues></_>
    <_>
      <internalNodes>
        0 -1 6381279 -4.7936355695128441e-03</internalNodes>
      <leafValues>
        -6.2116080522537231e-01 1.1937021464109421e-01</leafValues></_>
    <_>
      <internalNodes>
        0 -1 5456485 3.6392651963979006e-03</internalNodes>
      <leafValues>
        -1.6009858250617981e-01 7.5850927829742432e-01</leafValues></_>
    <_>
      <internalNodes>
        0 -1 427761 2.9853482265025377e-03</internalNodes>
      <leafValues>
        -1.0198868066072464e-01 7.6108181476593018e-01</leafValues></_>
    <_>
      <internalNodes>
        0 -1 4808897 9.5534864813089371e-03</internalNodes>
      <leafValues>
        1.3415068387985229e-01 -8.1945800781250000e-01</leafValues></_>
    <_>
      <internalNodes>
        0 -1 337390 6.2958433773019351e-06</internalNodes>
      <leafValues>
        1.3075508177280426e-01 -4.5128408074378967e-01</leafValues></_>
    <_>
      <internalNodes>
        0 -1 1622264 5.6303441524505615e-03</internalNodes>
      <leafValues>
        -8.5966087877750397e-02 8.3493739366531372e-01</leafValues></_>
    <_>
      <internalNodes>
        0 -1 1447200 4.3063233606517315e-03</internalNodes>
      <leafValues>
        -7.6795145869255066e-02 8.3576917648315430e-01</leafValues></_>
    <_>
      <internalNodes>
        0 -1 3090191 5.9725781902670860e-03</internalNodes>
      <leafValues>
        9.6509657800197601e-02 -9.1820162534713745e-01</leafValues></_>
    <_>
      <internalNodes>
        0 -1 6348038 1.7326802480965853e-03</internalNodes>
      <leafValues>
        -1.1706230044364929e-01 6.9667184352874756e-01</leafValues></_>
    <_>
      <internalNodes>
        0 -1 2592160 -2.8247029986232519e-03</internalNodes>
      <leafValues>
        -7.3890942335128784e-01 1.1991542577743530e-01</leafValues></_>
    <_>
      <internalNodes>
        0 -1 2127516 1.9723642617464066e-03</internalNodes>
      <leafValues>
        -1.1624922603368759e-01 7.1414023637771606e-01</leafValues></_>
    <_>
      <internalNodes>
        0 -1 2123059 -4.2406259126437362e-06</internalNodes>
      <leafValues>
        -4.1530224680900574e-01 1.8176779150962830e-01</leafValues></_>
    <_>
      <internalNodes>
        0 -1 3745530 2.1626385860145092e-03</internalNodes>
      <leafValues>
        -9.0327300131320953e-02 8.8115012645721436e-01</leafValues></_>
    <_>
      <internalNodes>
        0 -1 7424260 1.1365257669240236e-03</internalNodes>
      <leafValues>
        -7.9894624650478363e-02 7.5920492410659790e-01</leafValues></_>
    <_>
      <internalNodes>
        0 -1 1881 1.0316727682948112e-02</internalNodes>
      <leafValues>
        1.0661545395851135e-01 -8.2057911157608032e-01</leafValues></_>
    <_>
      <internalNodes>
        0 -1 1041768 -2.1460286807268858e-03</internalNodes>
      <leafValues>
        6.6581881046295166e-01 -1.2725798785686493e-01</leafValues></_></weakClassifiers></stage19>
</opencv_storage>
