<?xml version="1.0"?>
<opencv_storage>
<stage5>
  <maxWeakCount>10</maxWeakCount>
  <stageThreshold>-1.0042753219604492e+00</stageThreshold>
  <weakClassifiers>
    <_>
      <internalNodes>
        0 -1 1624865 5.3665773011744022e-03</internalNodes>
      <leafValues>
        -3.6615383625030518e-01 6.7157894372940063e-01</leafValues></_>
    <_>
      <internalNodes>
        0 -1 1124749 -9.2333182692527771e-03</internalNodes>
      <leafValues>
        5.0329840183258057e-01 -3.6659657955169678e-01</leafValues></_>
    <_>
      <internalNodes>
        0 -1 2302908 1.7809077398851514e-03</internalNodes>
      <leafValues>
        -2.6354682445526123e-01 6.1170780658721924e-01</leafValues></_>
    <_>
      <internalNodes>
        0 -1 1865811 -2.3080840492184507e-06</internalNodes>
      <leafValues>
        4.0466040372848511e-01 -3.5871022939682007e-01</leafValues></_>
    <_>
      <internalNodes>
        0 -1 2310961 -1.2330163735896349e-03</internalNodes>
      <leafValues>
        4.9767240881919861e-01 -2.9945957660675049e-01</leafValues></_>
    <_>
      <internalNodes>
        0 -1 1792695 4.0967462700791657e-04</internalNodes>
      <leafValues>
        2.4987594783306122e-01 -7.3228698968887329e-01</leafValues></_>
    <_>
      <internalNodes>
        0 -1 1173044 1.9772388041019440e-03</internalNodes>
      <leafValues>
        -2.5857824087142944e-01 7.0423352718353271e-01</leafValues></_>
    <_>
      <internalNodes>
        0 -1 747070 -1.0955229401588440e-02</internalNodes>
      <leafValues>
        6.4525693655014038e-01 -2.0928172767162323e-01</leafValues></_>
    <_>
      <internalNodes>
        0 -1 665265 -3.6838906817138195e-03</internalNodes>
      <leafValues>
        6.6388225555419922e-01 -2.0817323029041290e-01</leafValues></_>
    <_>
      <internalNodes>
        0 -1 1551887 -1.4739029575139284e-04</internalNodes>
      <leafValues>
        -5.3972589969635010e-01 2.9605677723884583e-01</leafValues></_></weakClassifiers></stage5>
</opencv_storage>
