<?xml version="1.0"?>
<opencv_storage>
<stage17>
  <maxWeakCount>24</maxWeakCount>
  <stageThreshold>-9.5333421230316162e-01</stageThreshold>
  <weakClassifiers>
    <_>
      <internalNodes>
        0 -1 1677904 1.1354526504874229e-03</internalNodes>
      <leafValues>
        -6.0406088829040527e-01 3.6992159485816956e-01</leafValues></_>
    <_>
      <internalNodes>
        0 -1 1739206 2.4658199890836840e-06</internalNodes>
      <leafValues>
        -2.6182013750076294e-01 3.2509094476699829e-01</leafValues></_>
    <_>
      <internalNodes>
        0 -1 1911256 -2.2600747797696386e-06</internalNodes>
      <leafValues>
        3.7714287638664246e-01 -2.2378982603549957e-01</leafValues></_>
    <_>
      <internalNodes>
        0 -1 515821 -5.4187733680009842e-02</internalNodes>
      <leafValues>
        6.5875864028930664e-01 -1.2782356142997742e-01</leafValues></_>
    <_>
      <internalNodes>
        0 -1 1789463 2.5095828459598124e-04</internalNodes>
      <leafValues>
        9.6932098269462585e-02 -6.1237937211990356e-01</leafValues></_>
    <_>
      <internalNodes>
        0 -1 842550 9.5793837681412697e-04</internalNodes>
      <leafValues>
        -2.1738609671592712e-01 3.8237774372100830e-01</leafValues></_>
    <_>
      <internalNodes>
        0 -1 1674612 4.6196422772482038e-05</internalNodes>
      <leafValues>
        1.9478355348110199e-01 -4.5800194144248962e-01</leafValues></_>
    <_>
      <internalNodes>
        0 -1 1674343 2.5807391921262024e-06</internalNodes>
      <leafValues>
        -2.9502707719802856e-01 2.2892460227012634e-01</leafValues></_>
    <_>
      <internalNodes>
        0 -1 661750 -3.4959785640239716e-02</internalNodes>
      <leafValues>
        5.9990423917770386e-01 -1.0707751661539078e-01</leafValues></_>
    <_>
      <internalNodes>
        0 -1 671535 -8.0970616545528173e-04</internalNodes>
      <leafValues>
        3.5463458299636841e-01 -2.2577494382858276e-01</leafValues></_>
    <_>
      <internalNodes>
        0 -1 67524 6.1398046091198921e-03</internalNodes>
      <leafValues>
        -2.7181062102317810e-01 2.6285102963447571e-01</leafValues></_>
    <_>
      <internalNodes>
        0 -1 1685053 -1.5173919382505119e-04</internalNodes>
      <leafValues>
        -5.0951510667800903e-01 1.4898040890693665e-01</leafValues></_>
    <_>
      <internalNodes>
        0 -1 2119881 2.8691801708191633e-04</internalNodes>
      <leafValues>
        -1.6568498313426971e-01 4.6680194139480591e-01</leafValues></_>
    <_>
      <internalNodes>
        0 -1 1428620 -7.7937135938555002e-04</internalNodes>
      <leafValues>
        2.4145643413066864e-01 -2.9746294021606445e-01</leafValues></_>
    <_>
      <internalNodes>
        0 -1 846249 3.7685348652303219e-03</internalNodes>
      <leafValues>
        -1.6602332890033722e-01 4.6369481086730957e-01</leafValues></_>
    <_>
      <internalNodes>
        0 -1 1331272 -3.6025456211064011e-05</internalNodes>
      <leafValues>
        -3.5990026593208313e-01 2.2733849287033081e-01</leafValues></_>
    <_>
      <internalNodes>
        0 -1 1800014 2.1626260604534764e-06</internalNodes>
      <leafValues>
        -2.1663954854011536e-01 3.5563999414443970e-01</leafValues></_>
    <_>
      <internalNodes>
        0 -1 12911 -1.2986389920115471e-03</internalNodes>
      <leafValues>
        -5.1472932100296021e-01 1.4612349867820740e-01</leafValues></_>
    <_>
      <internalNodes>
        0 -1 209077 -4.8900791443884373e-04</internalNodes>
      <leafValues>
        -8.2248383760452271e-01 7.9639025032520294e-02</leafValues></_>
    <_>
      <internalNodes>
        0 -1 1908914 2.2783883650845382e-06</internalNodes>
      <leafValues>
        -2.0234221220016479e-01 3.7278577685356140e-01</leafValues></_>
    <_>
      <internalNodes>
        0 -1 2273182 1.0453711729496717e-04</internalNodes>
      <leafValues>
        1.1493796855211258e-01 -7.1158641576766968e-01</leafValues></_>
    <_>
      <internalNodes>
        0 -1 2148805 -6.2739429995417595e-04</internalNodes>
      <leafValues>
        4.1177082061767578e-01 -1.9267341494560242e-01</leafValues></_>
    <_>
      <internalNodes>
        0 -1 471362 2.5069268885999918e-03</internalNodes>
      <leafValues>
        -2.4953134357929230e-01 2.8268399834632874e-01</leafValues></_>
    <_>
      <internalNodes>
        0 -1 1481272 5.5999064352363348e-04</internalNodes>
      <leafValues>
        -4.1641911864280701e-01 1.8297557532787323e-01</leafValues></_></weakClassifiers></stage17>
</opencv_storage>
