<?xml version="1.0"?>
<opencv_storage>
<stage13>
  <maxWeakCount>17</maxWeakCount>
  <stageThreshold>-8.1098896265029907e-01</stageThreshold>
  <weakClassifiers>
    <_>
      <internalNodes>
        0 -1 3008529 4.5455723011400551e-05</internalNodes>
      <leafValues>
        -6.9325155019760132e-01 3.5699373483657837e-01</leafValues></_>
    <_>
      <internalNodes>
        0 -1 1630629 -1.1495429277420044e-01</internalNodes>
      <leafValues>
        7.2598439455032349e-01 -1.0358183830976486e-01</leafValues></_>
    <_>
      <internalNodes>
        0 -1 3666489 5.4888275917619467e-04</internalNodes>
      <leafValues>
        -1.4501284062862396e-01 7.8776484727859497e-01</leafValues></_>
    <_>
      <internalNodes>
        0 -1 3673149 1.9756819528993219e-04</internalNodes>
      <leafValues>
        -1.4561259746551514e-01 6.4532107114791870e-01</leafValues></_>
    <_>
      <internalNodes>
        0 -1 3673149 -2.5703239953145385e-04</internalNodes>
      <leafValues>
        7.1744757890701294e-01 -1.5164950489997864e-01</leafValues></_>
    <_>
      <internalNodes>
        0 -1 3247667 -2.7230522391619161e-05</internalNodes>
      <leafValues>
        -9.2036980390548706e-01 1.1149579286575317e-01</leafValues></_>
    <_>
      <internalNodes>
        0 -1 3661834 -3.2100861426442862e-04</internalNodes>
      <leafValues>
        5.1836258172988892e-01 -1.9026425480842590e-01</leafValues></_>
    <_>
      <internalNodes>
        0 -1 2476459 -3.2939383527263999e-04</internalNodes>
      <leafValues>
        4.7987055778503418e-01 -1.6005317866802216e-01</leafValues></_>
    <_>
      <internalNodes>
        0 -1 2379107 2.8247907175682485e-04</internalNodes>
      <leafValues>
        -1.5878415107727051e-01 5.0904184579849243e-01</leafValues></_>
    <_>
      <internalNodes>
        0 -1 3245836 1.3869180111214519e-04</internalNodes>
      <leafValues>
        1.1077089607715607e-01 -7.4352413415908813e-01</leafValues></_>
    <_>
      <internalNodes>
        0 -1 2863879 1.1840473162010312e-03</internalNodes>
      <leafValues>
        1.7260584235191345e-01 -4.3535828590393066e-01</leafValues></_>
    <_>
      <internalNodes>
        0 -1 3092452 -3.1773393857292831e-04</internalNodes>
      <leafValues>
        -8.4553492069244385e-01 9.9286012351512909e-02</leafValues></_>
    <_>
      <internalNodes>
        0 -1 3332454 2.2324704332277179e-04</internalNodes>
      <leafValues>
        -1.7566685378551483e-01 5.1717394590377808e-01</leafValues></_>
    <_>
      <internalNodes>
        0 -1 2926156 -6.1728511354885995e-05</internalNodes>
      <leafValues>
        -5.2932888269424438e-01 1.5400591492652893e-01</leafValues></_>
    <_>
      <internalNodes>
        0 -1 3671944 4.5280624181032181e-04</internalNodes>
      <leafValues>
        -1.1391185969114304e-01 7.9798823595046997e-01</leafValues></_>
    <_>
      <internalNodes>
        0 -1 2808824 -1.1444143019616604e-03</internalNodes>
      <leafValues>
        3.4852299094200134e-01 -2.2302220761775970e-01</leafValues></_>
    <_>
      <internalNodes>
        0 -1 3326456 2.5840537273325026e-04</internalNodes>
      <leafValues>
        -1.4880760014057159e-01 4.9428269267082214e-01</leafValues></_></weakClassifiers></stage13>
</opencv_storage>
