<?xml version="1.0"?>
<opencv_storage>
<stage1>
  <maxWeakCount>5</maxWeakCount>
  <stageThreshold>-1.0701884031295776e+00</stageThreshold>
  <weakClassifiers>
    <_>
      <internalNodes>
        0 -1 20729 -3.1929828226566315e-02</internalNodes>
      <leafValues>
        -9.8373985290527344e-01 6.1982131004333496e-01</leafValues></_>
    <_>
      <internalNodes>
        0 -1 1294349 -2.5400796905159950e-02</internalNodes>
      <leafValues>
        -9.5526915788650513e-01 2.6477035880088806e-01</leafValues></_>
    <_>
      <internalNodes>
        0 -1 556128 3.4733295906335115e-03</internalNodes>
      <leafValues>
        -2.4062970280647278e-01 9.3761414289474487e-01</leafValues></_>
    <_>
      <internalNodes>
        0 -1 1121173 -3.0987319769337773e-04</internalNodes>
      <leafValues>
        6.3569217920303345e-01 -3.5314473509788513e-01</leafValues></_>
    <_>
      <internalNodes>
        0 -1 4352925 -9.8579861223697662e-03</internalNodes>
      <leafValues>
        -9.6070098876953125e-01 2.4255546927452087e-01</leafValues></_></weakClassifiers></stage1>
</opencv_storage>
