<?xml version="1.0"?>
<opencv_storage>
<stage7>
  <maxWeakCount>10</maxWeakCount>
  <stageThreshold>-1.6615898609161377e+00</stageThreshold>
  <weakClassifiers>
    <_>
      <internalNodes>
        0 -1 6377665 2.3276497813640162e-06</internalNodes>
      <leafValues>
        -7.5806450843811035e-01 5.5537462234497070e-01</leafValues></_>
    <_>
      <internalNodes>
        0 -1 2822440 -3.5686362534761429e-03</internalNodes>
      <leafValues>
        6.8275129795074463e-01 -3.5731112957000732e-01</leafValues></_>
    <_>
      <internalNodes>
        0 -1 5191848 -4.5362435048446059e-04</internalNodes>
      <leafValues>
        3.4640485048294067e-01 -7.5395238399505615e-01</leafValues></_>
    <_>
      <internalNodes>
        0 -1 5203950 1.8158543753088452e-05</internalNodes>
      <leafValues>
        -9.5904684066772461e-01 2.4427984654903412e-01</leafValues></_>
    <_>
      <internalNodes>
        0 -1 7217120 -7.1426021168008447e-04</internalNodes>
      <leafValues>
        7.0906752347946167e-01 -3.9024731516838074e-01</leafValues></_>
    <_>
      <internalNodes>
        0 -1 2641437 3.7642884999513626e-03</internalNodes>
      <leafValues>
        -4.0714168548583984e-01 5.8356410264968872e-01</leafValues></_>
    <_>
      <internalNodes>
        0 -1 5200928 5.9224764117971063e-04</internalNodes>
      <leafValues>
        2.9525300860404968e-01 -9.4214934110641479e-01</leafValues></_>
    <_>
      <internalNodes>
        0 -1 5364680 -1.6587964491918683e-03</internalNodes>
      <leafValues>
        5.5853122472763062e-01 -4.4612848758697510e-01</leafValues></_>
    <_>
      <internalNodes>
        0 -1 4176233 -6.1076441779732704e-03</internalNodes>
      <leafValues>
        7.0104950666427612e-01 -3.5735097527503967e-01</leafValues></_>
    <_>
      <internalNodes>
        0 -1 5213762 1.7572667275089771e-05</internalNodes>
      <leafValues>
        -8.2198923826217651e-01 3.2878637313842773e-01</leafValues></_></weakClassifiers></stage7>
</opencv_storage>
