<?xml version="1.0"?>
<opencv_storage>
<stage10>
  <maxWeakCount>12</maxWeakCount>
  <stageThreshold>-8.4622126817703247e-01</stageThreshold>
  <weakClassifiers>
    <_>
      <internalNodes>
        0 -1 5882820 2.7372461772756651e-06</internalNodes>
      <leafValues>
        4.9516269564628601e-01 -3.5205182433128357e-01</leafValues></_>
    <_>
      <internalNodes>
        0 -1 4136147 3.0064028687775135e-03</internalNodes>
      <leafValues>
        -1.2273430079221725e-01 8.8364636898040771e-01</leafValues></_>
    <_>
      <internalNodes>
        0 -1 2664507 -3.4043926279991865e-03</internalNodes>
      <leafValues>
        9.3382591009140015e-01 -1.6199420392513275e-01</leafValues></_>
    <_>
      <internalNodes>
        0 -1 366841 8.9704481069929898e-06</internalNodes>
      <leafValues>
        2.7406793832778931e-01 -4.7830978035926819e-01</leafValues></_>
    <_>
      <internalNodes>
        0 -1 5705979 -4.2040366679430008e-02</internalNodes>
      <leafValues>
        4.7711527347564697e-01 -2.9328918457031250e-01</leafValues></_>
    <_>
      <internalNodes>
        0 -1 3981686 3.3215358853340149e-02</internalNodes>
      <leafValues>
        -1.8531021475791931e-01 5.9072637557983398e-01</leafValues></_>
    <_>
      <internalNodes>
        0 -1 4373137 2.3394371382892132e-03</internalNodes>
      <leafValues>
        -2.0344652235507965e-01 8.7839478254318237e-01</leafValues></_>
    <_>
      <internalNodes>
        0 -1 7073381 -2.6825852692127228e-02</internalNodes>
      <leafValues>
        -8.5039490461349487e-01 1.9293701648712158e-01</leafValues></_>
    <_>
      <internalNodes>
        0 -1 2318637 -3.3599524758756161e-03</internalNodes>
      <leafValues>
        8.5725277662277222e-01 -1.5668822824954987e-01</leafValues></_>
    <_>
      <internalNodes>
        0 -1 45221 1.2005969882011414e-02</internalNodes>
      <leafValues>
        1.6209515929222107e-01 -9.6569418907165527e-01</leafValues></_>
    <_>
      <internalNodes>
        0 -1 4458225 1.6768006607890129e-03</internalNodes>
      <leafValues>
        -1.7701926827430725e-01 8.7294799089431763e-01</leafValues></_>
    <_>
      <internalNodes>
        0 -1 2683189 -3.6116585135459900e-02</internalNodes>
      <leafValues>
        -9.1566032171249390e-01 1.5918564796447754e-01</leafValues></_></weakClassifiers></stage10>
</opencv_storage>
