<?xml version="1.0"?>
<opencv_storage>
<stage16>
  <maxWeakCount>19</maxWeakCount>
  <stageThreshold>-8.8078707456588745e-01</stageThreshold>
  <weakClassifiers>
    <_>
      <internalNodes>
        0 -1 3244265 5.5252271704375744e-04</internalNodes>
      <leafValues>
        -2.2762148082256317e-01 4.0446650981903076e-01</leafValues></_>
    <_>
      <internalNodes>
        0 -1 3733928 2.5467621162533760e-04</internalNodes>
      <leafValues>
        -1.1925314366817474e-01 6.5131026506423950e-01</leafValues></_>
    <_>
      <internalNodes>
        0 -1 2308221 -1.4488865435123444e-01</internalNodes>
      <leafValues>
        5.0329560041427612e-01 -1.7321461439132690e-01</leafValues></_>
    <_>
      <internalNodes>
        0 -1 3675450 6.9722475018352270e-04</internalNodes>
      <leafValues>
        -1.4012473821640015e-01 6.0456854104995728e-01</leafValues></_>
    <_>
      <internalNodes>
        0 -1 3175673 -1.9979377157142153e-06</internalNodes>
      <leafValues>
        2.7893513441085815e-01 -3.1219500303268433e-01</leafValues></_>
    <_>
      <internalNodes>
        0 -1 3666489 3.5908276913687587e-04</internalNodes>
      <leafValues>
        -1.4052285254001617e-01 5.8859914541244507e-01</leafValues></_>
    <_>
      <internalNodes>
        0 -1 3172389 1.6874834545888007e-04</internalNodes>
      <leafValues>
        1.0929021239280701e-01 -9.0259855985641479e-01</leafValues></_>
    <_>
      <internalNodes>
        0 -1 2765403 -2.1201992407441139e-02</internalNodes>
      <leafValues>
        7.1387702226638794e-01 -1.3711509108543396e-01</leafValues></_>
    <_>
      <internalNodes>
        0 -1 2458387 -7.3217379394918680e-04</internalNodes>
      <leafValues>
        5.2484887838363647e-01 -1.3849799335002899e-01</leafValues></_>
    <_>
      <internalNodes>
        0 -1 2738644 7.7656481880694628e-04</internalNodes>
      <leafValues>
        -1.4909146726131439e-01 5.2336460351943970e-01</leafValues></_>
    <_>
      <internalNodes>
        0 -1 3168943 -1.8804934807121754e-03</internalNodes>
      <leafValues>
        -5.4278266429901123e-01 1.6893380880355835e-01</leafValues></_>
    <_>
      <internalNodes>
        0 -1 3727075 2.4430151097476482e-04</internalNodes>
      <leafValues>
        -1.9787552952766418e-01 4.3409562110900879e-01</leafValues></_>
    <_>
      <internalNodes>
        0 -1 2918124 -1.7377170734107494e-03</internalNodes>
      <leafValues>
        -4.5435076951980591e-01 1.7796190083026886e-01</leafValues></_>
    <_>
      <internalNodes>
        0 -1 3233599 -2.3135088849812746e-04</internalNodes>
      <leafValues>
        3.7866622209548950e-01 -2.2714777290821075e-01</leafValues></_>
    <_>
      <internalNodes>
        0 -1 2295351 1.2642018496990204e-02</internalNodes>
      <leafValues>
        -1.5046600997447968e-01 5.6010061502456665e-01</leafValues></_>
    <_>
      <internalNodes>
        0 -1 3094151 9.8607037216424942e-04</internalNodes>
      <leafValues>
        1.2188934534788132e-01 -8.0416506528854370e-01</leafValues></_>
    <_>
      <internalNodes>
        0 -1 3405340 -1.0091107833432034e-04</internalNodes>
      <leafValues>
        5.5067610740661621e-01 -1.5688528120517731e-01</leafValues></_>
    <_>
      <internalNodes>
        0 -1 3244078 5.2098004380241036e-04</internalNodes>
      <leafValues>
        1.0222903639078140e-01 -8.8677716255187988e-01</leafValues></_>
    <_>
      <internalNodes>
        0 -1 3735115 1.5453567903023213e-04</internalNodes>
      <leafValues>
        -1.9534198939800262e-01 4.4290959835052490e-01</leafValues></_></weakClassifiers></stage16>
</opencv_storage>
