<?xml version="1.0"?>
<opencv_storage>
<stage14>
  <maxWeakCount>19</maxWeakCount>
  <stageThreshold>-8.7720239162445068e-01</stageThreshold>
  <weakClassifiers>
    <_>
      <internalNodes>
        0 -1 2529526 -2.8348072191874962e-06</internalNodes>
      <leafValues>
        -3.0210772156715393e-01 4.5098039507865906e-01</leafValues></_>
    <_>
      <internalNodes>
        0 -1 1447132 7.6589582022279501e-05</internalNodes>
      <leafValues>
        2.4368044734001160e-01 -4.6293503046035767e-01</leafValues></_>
    <_>
      <internalNodes>
        0 -1 28970 9.9066310212947428e-06</internalNodes>
      <leafValues>
        2.7979218959808350e-01 -4.1027998924255371e-01</leafValues></_>
    <_>
      <internalNodes>
        0 -1 233299 -4.5671151019632816e-03</internalNodes>
      <leafValues>
        8.2453906536102295e-01 -1.6863349080085754e-01</leafValues></_>
    <_>
      <internalNodes>
        0 -1 1140417 -6.3411193877982441e-06</internalNodes>
      <leafValues>
        -5.4449629783630371e-01 1.5489055216312408e-01</leafValues></_>
    <_>
      <internalNodes>
        0 -1 1893321 -3.9973706007003784e-02</internalNodes>
      <leafValues>
        -6.2126815319061279e-01 2.0119340717792511e-01</leafValues></_>
    <_>
      <internalNodes>
        0 -1 7433035 -1.5560442116111517e-03</internalNodes>
      <leafValues>
        7.7175599336624146e-01 -1.5868614614009857e-01</leafValues></_>
    <_>
      <internalNodes>
        0 -1 11156 -1.9182538613677025e-02</internalNodes>
      <leafValues>
        -9.1255992650985718e-01 1.0582385212182999e-01</leafValues></_>
    <_>
      <internalNodes>
        0 -1 5239126 1.1166546028107405e-03</internalNodes>
      <leafValues>
        -1.4744667708873749e-01 8.0076456069946289e-01</leafValues></_>
    <_>
      <internalNodes>
        0 -1 4095022 -1.7635797848924994e-04</internalNodes>
      <leafValues>
        3.8294145464897156e-01 -2.2890928387641907e-01</leafValues></_>
    <_>
      <internalNodes>
        0 -1 1143992 6.2690000049769878e-03</internalNodes>
      <leafValues>
        1.2741617858409882e-01 -7.0390254259109497e-01</leafValues></_>
    <_>
      <internalNodes>
        0 -1 204959 3.1758339609950781e-03</internalNodes>
      <leafValues>
        -1.1875554174184799e-01 8.1202727556228638e-01</leafValues></_>
    <_>
      <internalNodes>
        0 -1 709065 -2.0416118204593658e-03</internalNodes>
      <leafValues>
        7.3055231571197510e-01 -1.1345799267292023e-01</leafValues></_>
    <_>
      <internalNodes>
        0 -1 3537 1.1074271053075790e-02</internalNodes>
      <leafValues>
        1.3748580217361450e-01 -8.0079692602157593e-01</leafValues></_>
    <_>
      <internalNodes>
        0 -1 2094512 2.8661206670221873e-06</internalNodes>
      <leafValues>
        2.1912612020969391e-01 -3.7150648236274719e-01</leafValues></_>
    <_>
      <internalNodes>
        0 -1 5984405 4.5724859774054494e-06</internalNodes>
      <leafValues>
        2.0585370063781738e-01 -4.4855925440788269e-01</leafValues></_>
    <_>
      <internalNodes>
        0 -1 418683 3.3959178836084902e-05</internalNodes>
      <leafValues>
        -2.5471651554107666e-01 3.9086350798606873e-01</leafValues></_>
    <_>
      <internalNodes>
        0 -1 405383 -1.7832569483289262e-06</internalNodes>
      <leafValues>
        3.4599447250366211e-01 -2.6365241408348083e-01</leafValues></_>
    <_>
      <internalNodes>
        0 -1 1094116 5.2639069035649300e-03</internalNodes>
      <leafValues>
        1.0678795725107193e-01 -8.2016372680664062e-01</leafValues></_></weakClassifiers></stage14>
</opencv_storage>
