<?xml version="1.0"?>
<opencv_storage>
<stage5>
  <maxWeakCount>17</maxWeakCount>
  <stageThreshold>-7.1728760004043579e-01</stageThreshold>
  <weakClassifiers>
    <_>
      <internalNodes>
        0 -1 3865755 -2.1643515676259995e-02</internalNodes>
      <leafValues>
        -7.5172412395477295e-01 3.4982818365097046e-01</leafValues></_>
    <_>
      <internalNodes>
        0 -1 5392796 1.0935558937489986e-02</internalNodes>
      <leafValues>
        1.5431390702724457e-01 -7.8846848011016846e-01</leafValues></_>
    <_>
      <internalNodes>
        0 -1 7748219 -1.0330663062632084e-03</internalNodes>
      <leafValues>
        6.8856894969940186e-01 -1.6293437778949738e-01</leafValues></_>
    <_>
      <internalNodes>
        0 -1 1885894 2.1786391735076904e-02</internalNodes>
      <leafValues>
        6.2786042690277100e-02 -8.4344691038131714e-01</leafValues></_>
    <_>
      <internalNodes>
        0 -1 7675070 2.2830211091786623e-03</internalNodes>
      <leafValues>
        -1.4100733399391174e-01 6.7519843578338623e-01</leafValues></_>
    <_>
      <internalNodes>
        0 -1 7128322 -4.9845823086798191e-03</internalNodes>
      <leafValues>
        7.5856763124465942e-01 -9.4056151807308197e-02</leafValues></_>
    <_>
      <internalNodes>
        0 -1 150757 -1.3956439681351185e-02</internalNodes>
      <leafValues>
        -8.3992213010787964e-01 1.0179587453603745e-01</leafValues></_>
    <_>
      <internalNodes>
        0 -1 2951895 1.9738101400434971e-03</internalNodes>
      <leafValues>
        -1.0586166381835938e-01 7.9186791181564331e-01</leafValues></_>
    <_>
      <internalNodes>
        0 -1 179669 3.1457320801564492e-06</internalNodes>
      <leafValues>
        1.6895377635955811e-01 -4.7688597440719604e-01</leafValues></_>
    <_>
      <internalNodes>
        0 -1 1669324 4.1402522474527359e-03</internalNodes>
      <leafValues>
        -8.6965717375278473e-02 8.3118206262588501e-01</leafValues></_>
    <_>
      <internalNodes>
        0 -1 6293 3.2896600663661957e-02</internalNodes>
      <leafValues>
        8.9806862175464630e-02 -8.8460505008697510e-01</leafValues></_>
    <_>
      <internalNodes>
        0 -1 949447 -3.2571470364928246e-03</internalNodes>
      <leafValues>
        8.1659978628158569e-01 -1.0703849792480469e-01</leafValues></_>
    <_>
      <internalNodes>
        0 -1 6269 -1.7253722995519638e-02</internalNodes>
      <leafValues>
        -9.0887248516082764e-01 7.9590432345867157e-02</leafValues></_>
    <_>
      <internalNodes>
        0 -1 1658274 -3.2678644638508558e-03</internalNodes>
      <leafValues>
        7.9552000761032104e-01 -9.2226892709732056e-02</leafValues></_>
    <_>
      <internalNodes>
        0 -1 612208 -4.6730037865927443e-06</internalNodes>
      <leafValues>
        -5.1242804527282715e-01 1.3694553077220917e-01</leafValues></_>
    <_>
      <internalNodes>
        0 -1 2766631 -1.0627259500324726e-02</internalNodes>
      <leafValues>
        9.6011519432067871e-01 -3.9241913706064224e-02</leafValues></_>
    <_>
      <internalNodes>
        0 -1 3752460 -1.8022126751020551e-03</internalNodes>
      <leafValues>
        5.5779325962066650e-01 -9.0257681906223297e-02</leafValues></_></weakClassifiers></stage5>
</opencv_storage>
