<?xml version="1.0"?>
<opencv_storage>
<stage11>
  <maxWeakCount>13</maxWeakCount>
  <stageThreshold>-5.5217540264129639e-01</stageThreshold>
  <weakClassifiers>
    <_>
      <internalNodes>
        0 -1 1674363 2.3075037915987195e-06</internalNodes>
      <leafValues>
        -1.9781719148159027e-01 6.2860441207885742e-01</leafValues></_>
    <_>
      <internalNodes>
        0 -1 244441 -4.4991001486778259e-03</internalNodes>
      <leafValues>
        4.4381618499755859e-01 -4.0507447719573975e-01</leafValues></_>
    <_>
      <internalNodes>
        0 -1 1397374 1.1221198365092278e-03</internalNodes>
      <leafValues>
        -3.9104700088500977e-01 3.0283048748970032e-01</leafValues></_>
    <_>
      <internalNodes>
        0 -1 1623761 -2.3321304070123006e-06</internalNodes>
      <leafValues>
        3.6983853578567505e-01 -3.7235850095748901e-01</leafValues></_>
    <_>
      <internalNodes>
        0 -1 1840997 -4.1297976858913898e-03</internalNodes>
      <leafValues>
        -5.0418984889984131e-01 1.7848023772239685e-01</leafValues></_>
    <_>
      <internalNodes>
        0 -1 565373 -3.1842119642533362e-04</internalNodes>
      <leafValues>
        4.8603191971778870e-01 -2.1258893609046936e-01</leafValues></_>
    <_>
      <internalNodes>
        0 -1 2193360 5.5901927407830954e-04</internalNodes>
      <leafValues>
        -2.2057004272937775e-01 4.4685530662536621e-01</leafValues></_>
    <_>
      <internalNodes>
        0 -1 1729368 5.9542864619288594e-05</internalNodes>
      <leafValues>
        2.2335579991340637e-01 -5.3632265329360962e-01</leafValues></_>
    <_>
      <internalNodes>
        0 -1 2311960 -4.5402317482512444e-05</internalNodes>
      <leafValues>
        5.3303372859954834e-01 -2.4133323132991791e-01</leafValues></_>
    <_>
      <internalNodes>
        0 -1 1913926 1.1986442841589451e-03</internalNodes>
      <leafValues>
        -4.6097615361213684e-01 2.4785107374191284e-01</leafValues></_>
    <_>
      <internalNodes>
        0 -1 1953871 -3.1426240457221866e-04</internalNodes>
      <leafValues>
        4.7519803047180176e-01 -2.1159511804580688e-01</leafValues></_>
    <_>
      <internalNodes>
        0 -1 1354896 4.2908564209938049e-03</internalNodes>
      <leafValues>
        -1.4380036294460297e-01 6.7925536632537842e-01</leafValues></_>
    <_>
      <internalNodes>
        0 -1 1619908 4.2803939431905746e-03</internalNodes>
      <leafValues>
        -1.5989616513252258e-01 5.9311217069625854e-01</leafValues></_></weakClassifiers></stage11>
</opencv_storage>
